{"m_LearnRate":0.01,"m_Inputs":[1.0,1.0,1.0,1.0,1.0,1.0,1.0,1.0,1.0,1.0,0.9192387461662293,1.0,1.0,0.6499999761581421,1.0,1.0,0.9192386865615845,0.21566760540008546,1.0,1.0,0.052500009536743167,1.0,1.0,1.0],"m_HiddenLayer":[{"m_Bias":1.0,"m_Inputs":[1.0,1.0,1.0,1.0,1.0,1.0,1.0,1.0,1.0,1.0,0.9192387461662293,1.0,1.0,0.6499999761581421,1.0,1.0,0.9192386865615845,0.6399317979812622,1.0,1.0,0.05249999836087227,1.0,1.0,1.0],"m_Weights":[-0.8252904420952769,-0.24654872732107944,0.40210355571502989,-0.6614857607236323,0.5860925646847294,-0.4012884983303749,0.8176098004355057,-0.557462716833695,-0.7314029169552624,0.27520416739419975,0.32403019241105,-0.6853154146347097,-0.528679316778735,0.6562498492523701,-0.2602737593412349,0.11976204013837316,-0.8615534932309775,-0.1282617183215548,-0.630998933559708,-0.5917213491234862,-0.5923850654177804,-0.6134237424550545,-0.8536388050141293,-0.13786394581402967,0.9584496968972039],"m_Output":-0.9995529391657199,"m_LearnRate":0.01,"m_Error":-0.25694572267914325,"m_DesiredOutput":0.0,"m_BackPropagatedError":-0.0003922916474254426},{"m_Bias":1.0,"m_Inputs":[1.0,1.0,1.0,1.0,1.0,1.0,1.0,1.0,1.0,1.0,0.9192387461662293,1.0,1.0,0.6499999761581421,1.0,1.0,0.9192386865615845,0.6399317979812622,1.0,1.0,0.05249999836087227,1.0,1.0,1.0],"m_Weights":[0.3582720013862711,-0.6969175975679302,0.8874491304999796,-0.7312768531204381,-0.6849530908317328,0.49279718739088126,-0.7343819354973395,-0.8241610048788315,0.14838376368357393,0.9350219573258617,0.5493869628309881,0.4557634583338006,-0.5173945135347104,-0.06295432220222758,-0.42322047375749646,-0.6040209822260748,-0.8743810137111738,-0.11230279006066922,0.13019121434781484,-0.028563133206547875,0.2842853667995041,0.059790779802754618,0.4033653726021439,-0.4568811582446159,-0.4219882396324423],"m_Output":-0.9852705421189068,"m_LearnRate":0.01,"m_Error":-0.29027392754021727,"m_DesiredOutput":0.0,"m_BackPropagatedError":-0.0076376126650354579},{"m_Bias":1.0,"m_Inputs":[1.0,1.0,1.0,1.0,1.0,1.0,1.0,1.0,1.0,1.0,0.9192387461662293,1.0,1.0,0.6499999761581421,1.0,1.0,0.9192386865615845,0.6399317979812622,1.0,1.0,0.05249999836087227,1.0,1.0,1.0],"m_Weights":[-0.8046281464667355,0.9110894318204601,-0.20180769677268163,0.24981199740220406,0.4191351178388491,0.8008612564974639,-0.35851090230096707,-0.4443960803238305,-0.6178136834721644,-0.7449115204981607,-0.6644465681246223,0.9238240030430827,-0.8491632050028656,0.9607222495659663,0.7863428564394274,0.035454549357846417,-0.8181787990956387,0.34178987847275718,0.7337895525943347,0.19751074930253358,0.693380556065116,0.6839672848132936,0.9623768531987936,0.8449131453155442,-0.9346426147664978],"m_Output":0.9485148208103282,"m_LearnRate":0.01,"m_Error":0.0666992396355352,"m_DesiredOutput":0.0,"m_BackPropagatedError":0.011992341798147906},{"m_Bias":1.0,"m_Inputs":[1.0,1.0,1.0,1.0,1.0,1.0,1.0,1.0,1.0,1.0,0.9192387461662293,1.0,1.0,0.6499999761581421,1.0,1.0,0.9192386865615845,0.6399317979812622,1.0,1.0,0.05249999836087227,1.0,1.0,1.0],"m_Weights":[-0.7740948748979116,0.441120245520576,0.00872522698938155,0.840204772522069,-0.3868333677016892,-0.7360229294542758,-0.15323005415838387,0.32065182413326367,0.6686531121294315,-0.8791718639608152,0.5672796855167746,0.4783968139545413,-0.07886286304467306,0.708294251515273,-0.9037866041556517,-0.07829641453849792,-0.09424335235714813,-0.9387060110749217,-0.3756436723142524,-0.7990067694881491,-0.5794928466011194,-1.009620257337926,-0.08170618617107159,0.3212464783705776,0.9271037101279757],"m_Output":-0.8149752893829301,"m_LearnRate":0.01,"m_Error":0.03530194986465717,"m_DesiredOutput":0.0,"m_BackPropagatedError":0.015152114197809526},{"m_Bias":1.0,"m_Inputs":[1.0,1.0,1.0,1.0,1.0,1.0,1.0,1.0,1.0,1.0,0.9192387461662293,1.0,1.0,0.6499999761581421,1.0,1.0,0.9192386865615845,0.6399317979812622,1.0,1.0,0.05249999836087227,1.0,1.0,1.0],"m_Weights":[0.14189485860858565,0.7095748707507501,0.6593681644990599,0.3943157151524538,-0.0977694012531256,-0.501973913082442,0.9369592478141258,-0.03954167050076147,0.1723030113845489,0.1369826614429854,-0.70056662610864,0.5719227488054242,-0.34170138745377018,0.7250248173962781,0.9149175519498921,0.40653461999475118,-0.40796413738488015,-0.6238793481228,0.8109357704500612,-0.8324060391494602,0.4954062597227845,0.21989683426321536,0.5851467068514115,0.5859783638453032,-0.7939477734386405],"m_Output":0.9973422288871007,"m_LearnRate":0.01,"m_Error":-0.31285938165273166,"m_DesiredOutput":0.0,"m_BackPropagatedError":-0.0032914406160894679},{"m_Bias":1.0,"m_Inputs":[1.0,1.0,1.0,1.0,1.0,1.0,1.0,1.0,1.0,1.0,0.9192387461662293,1.0,1.0,0.6499999761581421,1.0,1.0,0.9192386865615845,0.6399317979812622,1.0,1.0,0.05249999836087227,1.0,1.0,1.0],"m_Weights":[-0.23587209709245933,0.6011745005674921,0.27499887242631307,0.5550386155431529,0.6262664515532697,-0.732715555603758,-0.44595980749566557,0.7185674697595874,0.9460096071330487,0.5332604281602728,-0.3783345790171012,0.2447341834552555,0.9311559458686501,-0.14016963423971214,0.6442941076197609,0.6729921278751456,-0.41372171350544048,0.7642547757064668,-0.37649677568514747,0.8562926344177403,0.39896938726574807,-0.7266095019396122,-0.6217562158473889,-0.2074929375291596,-0.13347797619530897],"m_Output":0.9998828188648665,"m_LearnRate":0.01,"m_Error":-0.1405858283420673,"m_DesiredOutput":0.0,"m_BackPropagatedError":-0.000023937006297547805},{"m_Bias":1.0,"m_Inputs":[1.0,1.0,1.0,1.0,1.0,1.0,1.0,1.0,1.0,1.0,0.9192387461662293,1.0,1.0,0.6499999761581421,1.0,1.0,0.9192386865615845,0.6399317979812622,1.0,1.0,0.05249999836087227,1.0,1.0,1.0],"m_Weights":[0.7639650558924542,0.553182879015412,0.09512811955584051,0.09394291420647606,-0.6342793362117374,0.8523417099522408,-0.9513335840768287,-0.9703376568382808,0.07572356243996199,-0.908822783281096,-0.17661647279433283,-0.4181374296069377,0.33969018378604118,0.49595954913758996,-0.20050709364855708,0.6866122590435759,0.8208561505237747,-0.3267122579319752,-0.8729472533914233,0.23013598373540909,-0.8842114670766659,-0.3616879188711491,0.45689706444078967,-0.8574863928628821,-0.5522168817711548],"m_Output":-0.953001980682989,"m_LearnRate":0.01,"m_Error":0.10947857479037698,"m_DesiredOutput":0.0,"m_BackPropagatedError":0.019871339269501084},{"m_Bias":1.0,"m_Inputs":[1.0,1.0,1.0,1.0,1.0,1.0,1.0,1.0,1.0,1.0,0.9192387461662293,1.0,1.0,0.6499999761581421,1.0,1.0,0.9192386865615845,0.6399317979812622,1.0,1.0,0.05249999836087227,1.0,1.0,1.0],"m_Weights":[-0.11898887560992885,0.409306906693527,-0.06178992104711226,0.7005430682283979,-0.18607897441416786,-0.5939909142721894,0.17449552160566307,-0.5273633980560419,-0.4093557477246901,0.7078861098426648,-0.41335432517252188,0.33440207580878819,-0.5026245613281942,0.40849696517148256,0.5686940523238545,-0.49836329014688188,0.12605268205485463,-0.2743960332574139,-0.33381898932713585,-0.3173552041831437,-0.048932082380425508,0.09828176509239307,-0.8474753844107009,0.6756662771294342,-0.99084252038781],"m_Output":-0.970318791354492,"m_LearnRate":0.01,"m_Error":-0.195239148950877,"m_DesiredOutput":0.0,"m_BackPropagatedError":-0.015107201781663639},{"m_Bias":1.0,"m_Inputs":[1.0,1.0,1.0,1.0,1.0,1.0,1.0,1.0,1.0,1.0,0.9192387461662293,1.0,1.0,0.6499999761581421,1.0,1.0,0.9192386865615845,0.6399317979812622,1.0,1.0,0.05249999836087227,1.0,1.0,1.0],"m_Weights":[0.5078685497350559,0.5185002536330942,-0.8399283568310725,0.44777462767850975,-0.3243689910901738,0.1808857100178381,-0.9016727845357712,-0.035308131542108888,-0.3603172933018409,0.526838645657889,-0.5507252864113487,0.12196999560006022,-0.6835098547156729,-0.6299434629722213,0.6551574504216514,0.6940292015039254,-0.8058983362842315,-0.3042202956296725,0.7982349406138667,-0.7360828252324471,-0.6517089930512371,0.3490733398826363,0.2522517126504979,-0.3861853224123303,-0.17878399031612575],"m_Output":-0.9964693151575548,"m_LearnRate":0.01,"m_Error":0.23680684651984428,"m_DesiredOutput":0.0,"m_BackPropagatedError":0.0008490806967193586},{"m_Bias":1.0,"m_Inputs":[1.0,1.0,1.0,1.0,1.0,1.0,1.0,1.0,1.0,1.0,0.9192387461662293,1.0,1.0,0.6499999761581421,1.0,1.0,0.9192386865615845,0.6399317979812622,1.0,1.0,0.05249999836087227,1.0,1.0,1.0],"m_Weights":[0.008872617944554422,0.912757797135737,-0.14060218516808263,0.44827455136639146,0.524769013990859,0.7822355498566267,0.2645000388128719,0.2765572554760057,0.6766621651964065,0.31113191410926629,-0.02676856459536414,0.0738113004278158,0.023122577660568117,-0.975262940276421,-0.4186172517542166,-0.47105585890766296,-0.5586310967963049,0.8780866400390085,0.9642329345242205,0.13238607902173878,0.34510767452660948,-0.15630509102934954,-0.6007700916111208,0.025128752421214988,0.04277630761834953],"m_Output":0.9967670774209168,"m_LearnRate":0.01,"m_Error":0.017906579481490063,"m_DesiredOutput":0.0,"m_BackPropagatedError":0.0002609393796726419},{"m_Bias":1.0,"m_Inputs":[1.0,1.0,1.0,1.0,1.0,1.0,1.0,1.0,1.0,1.0,0.9192387461662293,1.0,1.0,0.6499999761581421,1.0,1.0,0.9192386865615845,0.6399317979812622,1.0,1.0,0.05249999836087227,1.0,1.0,1.0],"m_Weights":[-0.1605253369769909,-0.5107522818963672,-0.5581306682107755,0.5117832370746277,0.7671306119196768,-0.7574913549740785,-0.6790234394846552,0.582752316343736,-0.29097572607771829,0.6910705914672628,0.3431976890659778,0.28364552657842087,0.5743784971087064,0.21031346595830106,0.7674727312630644,0.2639701263182338,0.9271883971501278,-0.31770342464920289,0.1289465535505779,-0.24303442940307036,-0.32721049496621498,0.22109663893047552,-0.24903827218600128,0.27815615249271716,0.827195678096802],"m_Output":0.9920619551605674,"m_LearnRate":0.01,"m_Error":-0.34448537137641158,"m_DesiredOutput":0.0,"m_BackPropagatedError":-0.00605552147451604},{"m_Bias":1.0,"m_Inputs":[1.0,1.0,1.0,1.0,1.0,1.0,1.0,1.0,1.0,1.0,0.9192387461662293,1.0,1.0,0.6499999761581421,1.0,1.0,0.9192386865615845,0.6399317979812622,1.0,1.0,0.05249999836087227,1.0,1.0,1.0],"m_Weights":[0.9319079689019051,0.46315517455090718,0.3151541820365243,0.49299638718870605,0.4975979519232687,-0.8380335169623083,0.5324928502603265,0.8382348335679517,-0.5893720261410214,-0.2741163952527351,0.33948296132904345,-0.12480993801918196,0.8295077892054719,0.9508446953665415,0.13150703331918188,-0.2965196357573292,0.5396552122961206,-0.6078266778560432,-0.660239901309545,0.3026929378673374,0.27193130422808389,-0.09321353801818279,-0.2778806351181629,-0.8017414579969596,0.9244183320852035],"m_Output":0.9994900227868809,"m_LearnRate":0.01,"m_Error":0.32886190607302925,"m_DesiredOutput":0.0,"m_BackPropagatedError":0.00019156212905344064},{"m_Bias":1.0,"m_Inputs":[1.0,1.0,1.0,1.0,1.0,1.0,1.0,1.0,1.0,1.0,0.9192387461662293,1.0,1.0,0.6499999761581421,1.0,1.0,0.9192386865615845,0.6399317979812622,1.0,1.0,0.05249999836087227,1.0,1.0,1.0],"m_Weights":[0.40394533122142498,-0.882252760755766,0.25145963280831826,-0.7411558599137744,-0.7167176825205284,0.556475853686716,0.6404549321632018,0.060187256154727388,0.6641180115054877,0.7204920670924903,-0.3608754154587295,-0.08595765469775498,-1.0472457931096,0.0967833014149463,0.463619900574969,0.6583215710107623,0.330790576875729,0.04605694534007051,-0.6361030623173238,-0.6447720682276349,-0.7440602063156114,-0.9471040780713588,-0.3669883383414374,0.8538157852872165,-1.0389809270643209],"m_Output":-0.9048434119430204,"m_LearnRate":0.01,"m_Error":0.17118613131743788,"m_DesiredOutput":0.0,"m_BackPropagatedError":0.04888313884818791},{"m_Bias":1.0,"m_Inputs":[1.0,1.0,1.0,1.0,1.0,1.0,1.0,1.0,1.0,1.0,0.9192387461662293,1.0,1.0,0.6499999761581421,1.0,1.0,0.9192386865615845,0.6399317979812622,1.0,1.0,0.05249999836087227,1.0,1.0,1.0],"m_Weights":[0.007117681900211012,-0.26261683749706157,-0.7040022447364198,0.8119601159686454,-0.5958252114983753,-0.06794610349441162,-0.37022395940457566,0.07060724095782546,0.44128356374384816,-1.0162248469711107,0.9073991728683337,-0.9533038000899409,0.41794583433819118,-0.9772110073266519,-0.0233090750694475,0.49985978396234279,0.6519419805115286,-0.9661414798984169,-0.9432570716371892,-0.7044163887556931,0.7028855404164767,0.5128648683265632,0.17536586771654487,-0.2292311508489583,0.465800892146428],"m_Output":-0.9722476436320002,"m_LearnRate":0.01,"m_Error":-0.3539624566691172,"m_DesiredOutput":0.0,"m_BackPropagatedError":-0.04244553240931925},{"m_Bias":1.0,"m_Inputs":[1.0,1.0,1.0,1.0,1.0,1.0,1.0,1.0,1.0,1.0,0.9192387461662293,1.0,1.0,0.6499999761581421,1.0,1.0,0.9192386865615845,0.6399317979812622,1.0,1.0,0.05249999836087227,1.0,1.0,1.0],"m_Weights":[0.850595462214475,0.7769970294249531,-0.7213038713341744,0.7753947112767798,0.5919007364908344,0.4208953753092028,0.48509561082175026,0.38599771101222465,-0.6844049180309306,0.31289801693392529,-0.1979050628572137,0.36329543494156688,0.22909510187105965,0.1944950399203811,-0.23240372436352858,0.982499201189133,0.8407952228549503,-0.5307022774857555,0.11539875745611053,0.5537958946204471,0.541796996766927,0.9012952146319239,0.11890113554790327,0.31879749478984917,-0.1867054954486098],"m_Output":0.9999945426679258,"m_LearnRate":0.01,"m_Error":-0.0023036852696600997,"m_DesiredOutput":0.0,"m_BackPropagatedError":-2.7730507207330754e-8},{"m_Bias":1.0,"m_Inputs":[1.0,1.0,1.0,1.0,1.0,1.0,1.0,1.0,1.0,1.0,0.9192387461662293,1.0,1.0,0.6499999761581421,1.0,1.0,0.9192386865615845,0.6399317979812622,1.0,1.0,0.05249999836087227,1.0,1.0,1.0],"m_Weights":[-0.38502077158416267,0.916103228570362,-0.4514771910624523,0.5347087533507374,-0.7367958769533122,0.6310251211144558,0.5293823886076732,0.536112210601586,-0.569871901670501,-0.3416016391719674,0.23822714922889116,-0.5058256241469212,0.34529006308921786,0.9802929953580583,-0.4047100631657093,-0.5151549568910309,-0.19515649747185455,0.1856803695691876,-0.31742272936505458,-0.7319733776668068,-0.770363246750261,-0.5557317926922567,-0.05774015030869313,0.38399733014337836,-0.589011516005334],"m_Output":-0.7773679247734991,"m_LearnRate":0.01,"m_Error":0.14754841453639756,"m_DesiredOutput":0.0,"m_BackPropagatedError":0.06985248798928486},{"m_Bias":1.0,"m_Inputs":[1.0,1.0,1.0,1.0,1.0,1.0,1.0,1.0,1.0,1.0,0.9192387461662293,1.0,1.0,0.6499999761581421,1.0,1.0,0.9192386865615845,0.6399317979812622,1.0,1.0,0.05249999836087227,1.0,1.0,1.0],"m_Weights":[0.9280317844638315,0.07400466056909648,-0.8168506639865145,0.22729988121567949,-0.9589087290726819,1.0227829554654467,-0.34238933260288709,-0.028632642173970495,0.03227059250838038,0.04056925412354169,0.5637018947953219,-0.045114164876221999,0.8865754613702447,-0.8830921376343697,0.6873835623933075,0.24399214082672303,0.844692572000248,-0.20079917383480909,-0.43485169655872926,0.5075134005578796,0.5462744930559964,-0.45081155222606397,-0.47969945045006887,-0.4491742657677439,0.11005269688021911],"m_Output":0.963156711382371,"m_LearnRate":0.01,"m_Error":0.047195301632777079,"m_DesiredOutput":0.0,"m_BackPropagatedError":0.002389813464908394},{"m_Bias":1.0,"m_Inputs":[1.0,1.0,1.0,1.0,1.0,1.0,1.0,1.0,1.0,1.0,0.9192387461662293,1.0,1.0,0.6499999761581421,1.0,1.0,0.9192386865615845,0.6399317979812622,1.0,1.0,0.05249999836087227,1.0,1.0,1.0],"m_Weights":[-0.28163230074193026,-0.2979685922541462,-0.573127942569965,-0.00010305049827533817,-0.42908969103034258,-0.8574593655857689,-0.03495192068530562,0.15477651840832633,0.11375464734402544,-0.6361453166180471,-0.43808436970268696,0.41704677530650377,-0.6961953919409222,-0.6227442438830384,-0.3104928794934377,-0.4097477293930323,0.5008399608220359,-0.6226256277240374,0.006654163069738421,0.08969483086387611,0.5429901949977282,-0.03352024026441537,0.14330677057883524,-0.030094278313005319,0.0638716026609649],"m_Output":-0.999435714533642,"m_LearnRate":0.01,"m_Error":-0.1551362265689693,"m_DesiredOutput":0.0,"m_BackPropagatedError":-0.00017406131766257936},{"m_Bias":1.0,"m_Inputs":[1.0,1.0,1.0,1.0,1.0,1.0,1.0,1.0,1.0,1.0,0.9192387461662293,1.0,1.0,0.6499999761581421,1.0,1.0,0.9192386865615845,0.6399317979812622,1.0,1.0,0.05249999836087227,1.0,1.0,1.0],"m_Weights":[-0.5382403560737532,0.6631571277496724,-0.5859340051246779,0.8650800006438126,-0.08179216355708524,0.42752086331285779,-0.4532793166842889,0.6378413980842034,-0.7811162174076921,0.31174113849548676,0.262676736148111,-0.7427717295025793,0.9963524249107796,-0.5898799470634294,-0.15127878714790433,-0.42745627181146497,0.7930587189177969,-0.250375316369347,0.7213944466200091,0.18348235156618476,0.8375000979044112,0.49804080998119829,-0.5100231458988164,0.8730003413591483,-0.07858621283209448],"m_Output":0.9793589607324926,"m_LearnRate":0.01,"m_Error":-0.4807596815672988,"m_DesiredOutput":0.0,"m_BackPropagatedError":-0.035074473108857379},{"m_Bias":1.0,"m_Inputs":[1.0,1.0,1.0,1.0,1.0,1.0,1.0,1.0,1.0,1.0,0.9192387461662293,1.0,1.0,0.6499999761581421,1.0,1.0,0.9192386865615845,0.6399317979812622,1.0,1.0,0.05249999836087227,1.0,1.0,1.0],"m_Weights":[-1.07532267229139,-0.9311127103302019,0.39804534905358998,0.3986413425145378,0.3725135857744209,0.6250848570889126,0.5000283644443246,0.39391390349989316,0.8099788374945363,-0.9615065089374183,-0.5803249766278633,-0.6092382773159696,0.16802079089169837,-0.869913613328328,-0.2098068328369503,-1.0317753541707445,0.7154406542893811,-0.986650010928167,0.03516745236395194,0.40439039456882966,-0.6663597420349574,0.46869112538833909,0.8954196133736536,-0.8673475763099235,-0.553911438859759],"m_Output":-0.9978292096225322,"m_LearnRate":0.01,"m_Error":-0.07799144117750276,"m_DesiredOutput":0.0,"m_BackPropagatedError":-0.0003283631316327567},{"m_Bias":1.0,"m_Inputs":[1.0,1.0,1.0,1.0,1.0,1.0,1.0,1.0,1.0,1.0,0.9192387461662293,1.0,1.0,0.6499999761581421,1.0,1.0,0.9192386865615845,0.6399317979812622,1.0,1.0,0.05249999836087227,1.0,1.0,1.0],"m_Weights":[0.719088362213522,-0.8369631937316192,0.39047009514117339,0.7726400432299381,0.1973159892093627,-0.17637260783505433,0.14734965736837839,-0.49125093272156819,-0.16231609590449753,-0.14759930697606803,0.2290364615731629,0.03230027349588518,-0.8307533523913114,-0.39782885817301835,0.5614000008007148,0.6511317739920717,-0.2515146485156258,-0.9505948925373569,-0.7803836980261572,-0.6901151554031583,0.933750884586376,-0.5299200654821523,-0.49818690764451198,-0.33444214184823348,0.10472438959334474],"m_Output":-0.932636773187695,"m_LearnRate":0.01,"m_Error":-0.16833218338831916,"m_DesiredOutput":0.0,"m_BackPropagatedError":-0.0405588049373515},{"m_Bias":1.0,"m_Inputs":[1.0,1.0,1.0,1.0,1.0,1.0,1.0,1.0,1.0,1.0,0.9192387461662293,1.0,1.0,0.6499999761581421,1.0,1.0,0.9192386865615845,0.6399317979812622,1.0,1.0,0.05249999836087227,1.0,1.0,1.0],"m_Weights":[-0.9542401439634379,0.37501124225588497,0.3563307211013531,-0.564775958675701,-0.38288612759061549,-0.5650732260527648,-0.8448748633896781,0.3208935840885418,-0.14955879307217025,0.7538353135612922,0.5221443951768048,-0.8707646630038129,0.688957299584691,-0.3399052713192949,0.25580154619368336,0.3548975275997093,-0.9282569745544363,-0.6061384899126634,0.34141750886534436,0.7071516345377088,-0.017115304007390167,0.607679496682056,0.4786837440776776,0.5541497573462778,0.7308145019941437],"m_Output":0.15398002557431823,"m_LearnRate":0.01,"m_Error":-0.11494305107190242,"m_DesiredOutput":0.0,"m_BackPropagatedError":-0.11479582712045092},{"m_Bias":1.0,"m_Inputs":[1.0,1.0,1.0,1.0,1.0,1.0,1.0,1.0,1.0,1.0,0.9192387461662293,1.0,1.0,0.6499999761581421,1.0,1.0,0.9192386865615845,0.6399317979812622,1.0,1.0,0.05249999836087227,1.0,1.0,1.0],"m_Weights":[0.5990735232478199,0.5350283551764237,0.7551429404379024,0.8586384684277004,-0.40433054839089407,0.2789203402320457,0.7070102125966165,-0.25345008869619958,-0.3087223470099504,0.2246202848988644,0.562851129115646,0.8099259018948611,-0.8754892724136447,-0.6092287725541191,-0.5815813664401693,0.16392264182437278,0.7694512449244017,0.32573306265725379,-0.08482807984844111,-0.9765000798624721,0.5972707226000286,0.14968246238659994,0.33327634330781988,0.060695947027496009,-0.0006644728901718352],"m_Output":0.9986143071262434,"m_LearnRate":0.01,"m_Error":-0.149146044249762,"m_DesiredOutput":0.0,"m_BackPropagatedError":-0.00038433994516057294},{"m_Bias":1.0,"m_Inputs":[1.0,1.0,1.0,1.0,1.0,1.0,1.0,1.0,1.0,1.0,0.9192387461662293,1.0,1.0,0.6499999761581421,1.0,1.0,0.9192386865615845,0.6399317979812622,1.0,1.0,0.05249999836087227,1.0,1.0,1.0],"m_Weights":[0.9230140810110319,-0.8412824898209302,0.20318795294739987,0.05187383468766136,-0.8305415231570322,-0.5596033343286352,0.9448467883507108,0.8119300154025703,-0.3330918931456387,-0.0071220391721800719,-0.0423424533871476,-0.6011379687301068,0.4460281843294641,-0.6991250723220603,-0.4971098221795219,0.8204496118225206,0.376491493426497,-0.03356992782989161,0.5078187230524249,0.6627301288624451,0.537316229796499,0.9502846227636967,0.9787173439677649,-0.06993249577874172,-0.45601173546127668],"m_Output":0.9832092734230633,"m_LearnRate":0.01,"m_Error":-0.03747928288649248,"m_DesiredOutput":0.0,"m_BackPropagatedError":-0.0019014749071949115},{"m_Bias":1.0,"m_Inputs":[1.0,1.0,1.0,1.0,1.0,1.0,1.0,1.0,1.0,1.0,0.9192387461662293,1.0,1.0,0.6499999761581421,1.0,1.0,0.9192386865615845,0.6399317979812622,1.0,1.0,0.05249999836087227,1.0,1.0,1.0],"m_Weights":[0.1912313043814156,-0.7426721112186012,-0.4757560961659302,0.5131592388678519,-0.8620544352090513,-0.5530662324148769,-0.8330191154456386,-0.343783286640512,-0.11861585622909597,-0.3651113224504366,0.08439228076454514,-0.5053229609660784,0.6621192622824569,-0.49044224261541177,-0.26211394669155349,0.584734193070498,0.9630196703641872,0.4120887953288088,0.35789615023749657,0.42869121695987336,-0.2710879932268721,-0.688732264476584,0.0005390336694518042,-0.6257721775717643,-0.8284303544228332],"m_Output":-0.996298329704776,"m_LearnRate":0.01,"m_Error":0.13332034696590237,"m_DesiredOutput":0.0,"m_BackPropagatedError":0.0007276329079658041},{"m_Bias":1.0,"m_Inputs":[1.0,1.0,1.0,1.0,1.0,1.0,1.0,1.0,1.0,1.0,0.9192387461662293,1.0,1.0,0.6499999761581421,1.0,1.0,0.9192386865615845,0.6399317979812622,1.0,1.0,0.05249999836087227,1.0,1.0,1.0],"m_Weights":[-0.7726723072482137,-0.8234657358468125,0.8189561084264904,0.4016343242385841,0.4562064801567555,0.9823265114141112,-0.821776777115108,-0.7229543868420701,-0.4861488713343301,-0.05928958907665513,-0.8417494706864752,0.3830197144527851,-0.7350165301152436,-0.4934055934891574,-0.4657256731378069,-0.25740910203536368,0.7087746208487963,-0.4411378278688039,0.6348704408939664,0.3861332293189907,0.3234399845395251,0.6885297532451908,-0.5590379871456889,-0.25297409906607395,-0.949238148245013],"m_Output":-0.9985415279851793,"m_LearnRate":0.01,"m_Error":0.13280703491320224,"m_DesiredOutput":0.0,"m_BackPropagatedError":0.00022599346753965975},{"m_Bias":1.0,"m_Inputs":[1.0,1.0,1.0,1.0,1.0,1.0,1.0,1.0,1.0,1.0,0.9192387461662293,1.0,1.0,0.6499999761581421,1.0,1.0,0.9192386865615845,0.6399317979812622,1.0,1.0,0.05249999836087227,1.0,1.0,1.0],"m_Weights":[0.47342340468591678,-0.5186335000908214,-0.4861010041663071,0.42181466437167589,0.6625035102097395,-0.17472429583485039,0.16062160336829113,-0.9014718084239226,0.2994102046293464,0.8792424045251069,-0.7309846059379593,-0.7128534658625636,0.1962942886756135,0.3961110068271262,-0.4077566685589709,-0.1573825258901077,-0.8311161335938502,0.08567890803367799,0.49382222535301859,-0.4737843477318497,-0.8240431606367684,0.7085260100652464,-0.15471584627852917,-0.20569975763026508,-0.3750762377744959],"m_Output":-0.9930959338807289,"m_LearnRate":0.01,"m_Error":0.11367444593129339,"m_DesiredOutput":0.0,"m_BackPropagatedError":0.0010307336630524832},{"m_Bias":1.0,"m_Inputs":[1.0,1.0,1.0,1.0,1.0,1.0,1.0,1.0,1.0,1.0,0.9192387461662293,1.0,1.0,0.6499999761581421,1.0,1.0,0.9192386865615845,0.6399317979812622,1.0,1.0,0.05249999836087227,1.0,1.0,1.0],"m_Weights":[-0.05341853463235516,0.6461062549021466,0.30422163702743595,-0.04255891312793757,-0.2571058760503446,-0.5193443804758406,0.6339222703663562,-0.029592454668422524,0.29944327536520046,0.7911433813454518,0.378388131702217,0.5180075411484082,-0.3329172021832647,-0.3445883549048311,-1.058497246400276,-0.20150424723253305,0.12819139164212399,-0.20663340694880986,-0.5262950717702247,-0.85068989298728,-0.7493345983436004,-0.626384655076986,0.018395089742208188,-0.1489488785975923,-0.571119063252386],"m_Output":-0.931918954667547,"m_LearnRate":0.01,"m_Error":0.4256952448481769,"m_DesiredOutput":0.0,"m_BackPropagatedError":0.08156116337712023},{"m_Bias":1.0,"m_Inputs":[1.0,1.0,1.0,1.0,1.0,1.0,1.0,1.0,1.0,1.0,0.9192387461662293,1.0,1.0,0.6499999761581421,1.0,1.0,0.9192386865615845,0.6399317979812622,1.0,1.0,0.05249999836087227,1.0,1.0,1.0],"m_Weights":[0.08065568829533125,-0.502089607244662,-0.15100905379977426,-0.8705998620269961,0.8074466169458595,0.8064469369915729,0.5418109252154886,0.722922999313069,-0.2524121549151547,-0.28389870511199158,0.1470804998127257,0.8515263247966373,0.12871749581243423,-0.5093607478484061,0.40026631677844518,-0.4568702438858351,0.3203965148736528,0.9376400432146614,0.5193938467082444,0.20366970330355042,0.32915901934735938,0.428431896952576,-0.5575059506700955,0.5565133268348004,0.7105560410910515],"m_Output":0.9993700395615526,"m_LearnRate":0.01,"m_Error":0.11891647053397411,"m_DesiredOutput":0.0,"m_BackPropagatedError":0.00023267201319735305},{"m_Bias":1.0,"m_Inputs":[1.0,1.0,1.0,1.0,1.0,1.0,1.0,1.0,1.0,1.0,0.9192387461662293,1.0,1.0,0.6499999761581421,1.0,1.0,0.9192386865615845,0.6399317979812622,1.0,1.0,0.05249999836087227,1.0,1.0,1.0],"m_Weights":[-0.018601556636144,-0.17822701137679576,-0.616865965638871,-0.4128531731104858,-0.6371411410939025,-0.371636569705472,-0.38910709173843446,-0.5463162274978695,-0.4443983116840752,0.7762836333888059,-0.9549234452176207,-0.11744694843327042,-0.07131672884465301,0.5266999053066076,-0.9013042140739949,0.9266729362532113,0.8603027529869649,-0.9484920667748834,-0.9946253518870366,-0.13547480598836615,0.03572979670497248,-0.8937656843593722,-0.6087740581518569,0.13618210675630627,0.694615520279875],"m_Output":-0.9987239938565767,"m_LearnRate":0.01,"m_Error":-0.1558875598508803,"m_DesiredOutput":0.0,"m_BackPropagatedError":-0.0009234014831140558},{"m_Bias":1.0,"m_Inputs":[1.0,1.0,1.0,1.0,1.0,1.0,1.0,1.0,1.0,1.0,0.9192387461662293,1.0,1.0,0.6499999761581421,1.0,1.0,0.9192386865615845,0.6399317979812622,1.0,1.0,0.05249999836087227,1.0,1.0,1.0],"m_Weights":[-0.029756734986561976,-0.5953139559658232,0.5448101653747599,0.6711619443498859,0.06807867957953848,0.5498945192690645,-0.9544219978671087,0.24838202050029044,-0.6866695747594737,-0.20506661674039446,-0.09626454137897024,0.11714787002539076,0.08735933722980272,-0.7067833961056239,-0.9158746572039452,-0.5020861756810036,0.33473801501033259,-0.4258893837677972,-0.3634861380295779,0.320924751759148,0.5936843451804974,-0.6860006042637781,-0.6658142151837256,0.35304435655837687,0.19607199657190783],"m_Output":-0.924881164224117,"m_LearnRate":0.01,"m_Error":-0.28629362598932225,"m_DesiredOutput":0.0,"m_BackPropagatedError":-0.05609202407603597},{"m_Bias":1.0,"m_Inputs":[1.0,1.0,1.0,1.0,1.0,1.0,1.0,1.0,1.0,1.0,0.9192387461662293,1.0,1.0,0.6499999761581421,1.0,1.0,0.9192386865615845,0.6399317979812622,1.0,1.0,0.05249999836087227,1.0,1.0,1.0],"m_Weights":[0.4240296815573608,0.3166182297735702,-0.6224029386592684,-0.3632870006536903,-0.39959909650669697,-0.1858239725855374,-0.6159301058643949,0.23412304397758575,-0.17017251774458395,0.30055933761683747,-0.8408201282918443,-0.05107074048953199,-0.32752875811183526,0.4821322414790987,-0.909791773039717,0.9382562175533367,0.5758137195689256,-0.5471038826038763,-0.33203547836619115,0.12764719740221867,-0.2572561480027778,-0.23697439844996114,0.6393809461228951,0.8801822587401417,-0.7110618526474449],"m_Output":-0.7358147232301574,"m_LearnRate":0.01,"m_Error":-0.3497700195478828,"m_DesiredOutput":0.0,"m_BackPropagatedError":-0.20749288061469974},{"m_Bias":1.0,"m_Inputs":[1.0,1.0,1.0,1.0,1.0,1.0,1.0,1.0,1.0,1.0,0.9192387461662293,1.0,1.0,0.6499999761581421,1.0,1.0,0.9192386865615845,0.6399317979812622,1.0,1.0,0.05249999836087227,1.0,1.0,1.0],"m_Weights":[0.6726707611013785,0.5518340687098493,0.7304559545086218,0.7176163031792047,-0.925374947797304,-0.3054607453567335,-0.9239922216382778,-0.7826724906374274,-0.5122465987482132,0.7544506692203691,-0.7047072395040412,0.6121156222382186,-0.36338665213882107,0.8691957396633958,0.9264693721786922,-0.4436835481305644,0.9148749364752074,-0.7615221052357961,0.07128393624166628,0.8582118951302031,0.557065377335813,-0.2725879230891907,0.14973758312192934,-0.38260128959158037,0.41623480821710509],"m_Output":0.9817719762461772,"m_LearnRate":0.01,"m_Error":0.019159129629003944,"m_DesiredOutput":0.0,"m_BackPropagatedError":0.0007346545744651359},{"m_Bias":1.0,"m_Inputs":[1.0,1.0,1.0,1.0,1.0,1.0,1.0,1.0,1.0,1.0,0.9192387461662293,1.0,1.0,0.6499999761581421,1.0,1.0,0.9192386865615845,0.6399317979812622,1.0,1.0,0.05249999836087227,1.0,1.0,1.0],"m_Weights":[-0.9167358407434438,0.8707191401610882,0.6866953800165071,-0.6723773614367729,-0.5240057800503463,-0.3094788719484314,0.7296938962401636,-0.501049234595669,-0.6937702673131632,0.004296053287814959,0.39181088229975155,-0.2807717965857606,0.47153415972681797,-0.14641093657125116,-0.3044245189400147,-0.8916802963974425,-0.13508701910494506,-0.7343650506046865,0.7817805874692535,0.8817568822294434,-0.6208857889612461,-0.024051728020527957,-0.22944385922671138,-0.17388506457021866,-0.41864278255322898],"m_Output":-0.993044627670931,"m_LearnRate":0.01,"m_Error":-0.13919041131501379,"m_DesiredOutput":0.0,"m_BackPropagatedError":-0.0009977209871461536},{"m_Bias":1.0,"m_Inputs":[1.0,1.0,1.0,1.0,1.0,1.0,1.0,1.0,1.0,1.0,0.9192387461662293,1.0,1.0,0.6499999761581421,1.0,1.0,0.9192386865615845,0.6399317979812622,1.0,1.0,0.05249999836087227,1.0,1.0,1.0],"m_Weights":[-0.12174241754255129,-0.4947247911600614,-0.40604068580854738,-0.9685540922143222,-0.17654665209291488,-0.046407779525777247,-0.5931319783398982,0.1211111981091536,-0.5937937244922347,0.9705948066333293,-0.21508055740218794,-0.5931594052822234,0.8869047153853854,-1.0183109610742965,-0.03230582702976104,-0.44057850637819709,0.142657085582505,-0.7105471130098187,-0.2630624367952175,-0.43670653068718975,0.7961300641107898,-0.5759116170740571,0.3708742418106172,-0.6392964651802375,0.7973597353571151],"m_Output":-0.9981159832180002,"m_LearnRate":0.01,"m_Error":0.7009529207600871,"m_DesiredOutput":0.0,"m_BackPropagatedError":0.0032922961580512889},{"m_Bias":1.0,"m_Inputs":[1.0,1.0,1.0,1.0,1.0,1.0,1.0,1.0,1.0,1.0,0.9192387461662293,1.0,1.0,0.6499999761581421,1.0,1.0,0.9192386865615845,0.6399317979812622,1.0,1.0,0.05249999836087227,1.0,1.0,1.0],"m_Weights":[-0.1964845096629126,-0.4321720631518517,0.4423463754927076,-0.15253819583337753,0.13510236552686689,0.19099988165845364,0.1915684543239042,-0.030793491568429363,0.8442780776932017,0.6681421163711523,-0.6924111953653455,0.2455029385592725,-0.38189548913270629,0.5904410698714255,-0.8442284675191356,0.025192443446280797,0.6964459457225839,0.12552931420574957,-0.03736513881268515,0.9687678713684597,0.7560417119707038,-0.05906192461504532,-0.6499555673104706,-0.1489622272358217,0.39265445254113809],"m_Output":0.9948747116217486,"m_LearnRate":0.01,"m_Error":-0.18400020685417479,"m_DesiredOutput":0.0,"m_BackPropagatedError":-0.0018213917767947535},{"m_Bias":1.0,"m_Inputs":[1.0,1.0,1.0,1.0,1.0,1.0,1.0,1.0,1.0,1.0,0.9192387461662293,1.0,1.0,0.6499999761581421,1.0,1.0,0.9192386865615845,0.6399317979812622,1.0,1.0,0.05249999836087227,1.0,1.0,1.0],"m_Weights":[0.20286900154805943,-0.3091747418051265,1.000911763892884,-0.7707387989995168,-0.22065252916749929,-0.5379219201237222,0.13836137363443533,-0.7606426401504104,-0.781897722975163,-0.8471688683013745,-0.46312710313415869,0.05535052604106896,-0.5532945881959859,0.41833533931222796,-0.08543106113782521,0.7123736136972296,0.5478797794255573,-0.7818174865016626,-0.5423095504723581,-0.19696817831957867,0.49981673942599999,-0.27332033900030386,-0.17944014609547327,-0.26341737455603139,0.6450149615220734],"m_Output":-0.9926841777137553,"m_LearnRate":0.01,"m_Error":0.21204585331651935,"m_DesiredOutput":0.0,"m_BackPropagatedError":0.0048662906844973859},{"m_Bias":1.0,"m_Inputs":[1.0,1.0,1.0,1.0,1.0,1.0,1.0,1.0,1.0,1.0,0.9192387461662293,1.0,1.0,0.6499999761581421,1.0,1.0,0.9192386865615845,0.6399317979812622,1.0,1.0,0.05249999836087227,1.0,1.0,1.0],"m_Weights":[-0.7977117351703136,0.37812557801661159,-0.45576273573232425,-0.5134272160004224,-0.8444896069318236,0.7731284647825748,-0.7648217538778904,-0.4874443315692028,0.40290481450111145,0.8050883674586792,-0.6364555410321825,0.05312842446502891,-0.37235659286893527,-0.16980848054846235,0.058925551467843079,0.018941182698374225,-0.18141048440643083,-0.8150999241109528,0.31455439840942997,0.46762058475037668,0.8715086159303501,0.09493538231668414,0.572363405980448,0.9273773724597152,-0.8444523505369679],"m_Output":-0.8634983443396174,"m_LearnRate":0.01,"m_Error":0.21123247024897083,"m_DesiredOutput":0.0,"m_BackPropagatedError":0.04179383531003884},{"m_Bias":1.0,"m_Inputs":[1.0,1.0,1.0,1.0,1.0,1.0,1.0,1.0,1.0,1.0,0.9192387461662293,1.0,1.0,0.6499999761581421,1.0,1.0,0.9192386865615845,0.6399317979812622,1.0,1.0,0.05249999836087227,1.0,1.0,1.0],"m_Weights":[-0.7553303468044585,-0.19477940425644797,0.8637067526518357,1.0435432588313647,0.8446521005145589,-0.4261111374308038,0.9850149986249958,0.33738981571565976,-0.2908688362296859,-0.36304610162886105,0.14654622238914989,-0.3474257584182457,0.860609529797439,-0.7441812282105453,-0.5797248643570657,-0.6353366593468633,-0.4054595302825762,0.028404209769789698,0.6734271395771602,-0.38950219884184819,-0.32731590146555508,0.0066214958642143348,0.390291964383618,0.3941508444816089,0.8980997055636117],"m_Output":0.96355049091563,"m_LearnRate":0.01,"m_Error":-0.0504829540761883,"m_DesiredOutput":0.0,"m_BackPropagatedError":-0.0062059578369735089},{"m_Bias":1.0,"m_Inputs":[1.0,1.0,1.0,1.0,1.0,1.0,1.0,1.0,1.0,1.0,0.9192387461662293,1.0,1.0,0.6499999761581421,1.0,1.0,0.9192386865615845,0.6399317979812622,1.0,1.0,0.05249999836087227,1.0,1.0,1.0],"m_Weights":[-0.367286749791844,-0.512093620270803,0.48346700269299938,0.21907115189210284,0.7487648935663269,0.10192807597980583,0.7986779558735495,-0.393251632792045,-0.669177835535812,-0.996949433700273,0.07813080831647793,-0.5529650831480093,-0.44008581066812488,0.6373540047405762,0.3335037310247032,-0.49071515067634488,0.8331352321438877,-0.9506846232547552,-0.6353297474812973,-0.9383206230534104,-0.5605521001144048,0.11309137563443789,-0.8478583673674918,-0.057615128409928429,0.18045765482638047],"m_Output":-0.9989141229365155,"m_LearnRate":0.01,"m_Error":0.14751226149772457,"m_DesiredOutput":0.0,"m_BackPropagatedError":0.000548386573716005},{"m_Bias":1.0,"m_Inputs":[1.0,1.0,1.0,1.0,1.0,1.0,1.0,1.0,1.0,1.0,0.9192387461662293,1.0,1.0,0.6499999761581421,1.0,1.0,0.9192386865615845,0.6399317979812622,1.0,1.0,0.05249999836087227,1.0,1.0,1.0],"m_Weights":[0.4476449783977895,-0.8336080364527356,-0.9347366064288101,0.4215131794047149,0.588558053833982,0.29177550310074787,0.40189537776588649,-0.5356625853166822,-0.7039645547127427,0.18474439993382103,1.0405676795886039,-0.5909485963220891,-0.9218825332326984,-0.10035206237742568,0.45231274666712409,0.25940934950453539,1.0007336392191522,0.4383474816215457,-0.9021075864280301,0.31189335839307277,0.9132162133745574,0.9290416846446472,0.39031247795431786,-0.6837074876463933,0.9779755033887463],"m_Output":0.9727754941356418,"m_LearnRate":0.01,"m_Error":-0.01859207469744431,"m_DesiredOutput":0.0,"m_BackPropagatedError":-0.00047117963900401887},{"m_Bias":1.0,"m_Inputs":[1.0,1.0,1.0,1.0,1.0,1.0,1.0,1.0,1.0,1.0,0.9192387461662293,1.0,1.0,0.6499999761581421,1.0,1.0,0.9192386865615845,0.6399317979812622,1.0,1.0,0.05249999836087227,1.0,1.0,1.0],"m_Weights":[-0.21283568769950973,-0.13643629976716924,-0.06438770286128265,0.2784532827946463,0.3251386902411701,0.5290572102514113,-0.6666624829677981,-0.44748942643513425,-0.9591725071509034,-0.6248666512881282,-0.020874240368505327,0.808974945949336,0.22598066525072126,-0.23987344956055066,-0.2155036483309484,0.7098628579935841,-0.9616937180770435,-0.6578593309212633,-0.47773068830401929,0.36966501476455118,-0.8452329575873695,0.8191013206785672,0.24944366498577329,-0.043485751709883207,-0.14145343445363577],"m_Output":-0.9944342409335876,"m_LearnRate":0.01,"m_Error":0.29890427568485536,"m_DesiredOutput":0.0,"m_BackPropagatedError":0.004951909397806961},{"m_Bias":1.0,"m_Inputs":[1.0,1.0,1.0,1.0,1.0,1.0,1.0,1.0,1.0,1.0,0.9192387461662293,1.0,1.0,0.6499999761581421,1.0,1.0,0.9192386865615845,0.6399317979812622,1.0,1.0,0.05249999836087227,1.0,1.0,1.0],"m_Weights":[-0.46722861603552276,0.7328575439803153,-0.8692005749164047,0.6545186212411522,0.35626383644130746,0.5438031385310864,-0.20403357606844275,0.8402816193494511,0.45940845720292836,-0.15139096195715977,-0.6043523430341675,-0.47693741042273088,0.16155564709923865,-0.06185620053587361,0.677796397198902,0.652941345242255,0.859736225430507,-0.9342235185093144,-0.4655137717201865,-0.49708807319066009,0.4994059588239022,-0.11735883912938182,-0.28385331372173347,0.3601627847582965,0.6201010165956059],"m_Output":0.9849608258701065,"m_LearnRate":0.01,"m_Error":0.28145917225189256,"m_DesiredOutput":0.0,"m_BackPropagatedError":0.005702493489462169},{"m_Bias":1.0,"m_Inputs":[1.0,1.0,1.0,1.0,1.0,1.0,1.0,1.0,1.0,1.0,0.9192387461662293,1.0,1.0,0.6499999761581421,1.0,1.0,0.9192386865615845,0.6399317979812622,1.0,1.0,0.05249999836087227,1.0,1.0,1.0],"m_Weights":[0.8278668457735473,0.5369062908738371,-0.16693323464309277,-0.10941459290238302,0.8182569005983755,-0.054357069478936589,0.6023052421349179,0.9407130457833703,-0.5914967506520116,-0.20155873845655387,0.7722592509159346,-0.7848496164079909,-0.16125673466274438,-0.3129748187732136,-0.1846778700975636,-0.7875724980355459,-0.9905190222727174,0.7504902941362821,0.96440434653894,-0.6463623810005578,0.20956825363405494,-0.15868493984891014,0.39308341247576936,-0.12331130364360969,0.6794071205495056],"m_Output":0.9699710550554003,"m_LearnRate":0.01,"m_Error":0.1739884146987675,"m_DesiredOutput":0.0,"m_BackPropagatedError":0.02267891070009445},{"m_Bias":1.0,"m_Inputs":[1.0,1.0,1.0,1.0,1.0,1.0,1.0,1.0,1.0,1.0,0.9192387461662293,1.0,1.0,0.6499999761581421,1.0,1.0,0.9192386865615845,0.6399317979812622,1.0,1.0,0.05249999836087227,1.0,1.0,1.0],"m_Weights":[-0.6990222572019501,0.7973120300935609,-0.2376906411087724,-0.48687773625552158,0.39353816932270066,0.7240803466452886,0.08399522150544982,-0.21604464779234643,-0.9263155159736828,0.445134130439704,0.9528385390931123,0.8711841409542627,-0.16576607503860167,0.5988200650109459,0.7992519557319427,-0.23809414494896972,-0.5085056644644147,-0.31123046369297427,-0.9062141600786676,0.8212327424706007,0.3831136400454133,-0.03319459278136513,0.25501872407259909,0.6418862892165368,-0.7809617791563582],"m_Output":0.9797095823566268,"m_LearnRate":0.01,"m_Error":0.0039607832223038379,"m_DesiredOutput":0.0,"m_BackPropagatedError":0.00007455525427708288},{"m_Bias":1.0,"m_Inputs":[1.0,1.0,1.0,1.0,1.0,1.0,1.0,1.0,1.0,1.0,0.9192387461662293,1.0,1.0,0.6499999761581421,1.0,1.0,0.9192386865615845,0.6399317979812622,1.0,1.0,0.05249999836087227,1.0,1.0,1.0],"m_Weights":[0.3951119385582627,0.033101604867218057,-0.3338581685916246,-0.0951480156922845,-0.6495574167950701,-0.026939412414081998,-0.8608688705339631,0.9569134026239669,0.1904375693471148,0.5015669323942936,0.19013542912682528,-0.13829574233434878,0.4419192624467316,0.023056909037506829,0.10207236396269536,-0.2921269882207656,0.44462252091414508,-0.2338352826573597,0.2433942526050547,-0.09036486482346204,-0.6908716169939282,0.19458265479865193,-0.8399383717225848,-0.8822056924683969,0.6038365015832128],"m_Output":-0.7972196050697048,"m_LearnRate":0.01,"m_Error":-0.04524538147268713,"m_DesiredOutput":0.0,"m_BackPropagatedError":-0.014006826579271593},{"m_Bias":1.0,"m_Inputs":[1.0,1.0,1.0,1.0,1.0,1.0,1.0,1.0,1.0,1.0,0.9192387461662293,1.0,1.0,0.6499999761581421,1.0,1.0,0.9192386865615845,0.6399317979812622,1.0,1.0,0.05249999836087227,1.0,1.0,1.0],"m_Weights":[-0.22246180188763624,-0.7645741915838649,0.3554727286658452,0.13841636443804462,-0.6016549839592665,0.3795638514523513,-0.41184474880416507,0.1985265157643691,-0.6469092976025913,1.016930090570399,-0.2105039899765637,-0.5280265465995211,0.939166945345793,0.7646462245416267,-0.4699053925255593,0.8637972139817935,0.9825824114238771,0.7024467433679341,-0.8551982137592691,-0.2812483708496586,0.9535213807315269,0.12346972631243872,0.73274967982671,0.03521265880416943,0.19069729948327433],"m_Output":0.998840564998117,"m_LearnRate":0.01,"m_Error":-0.3262813795779397,"m_DesiredOutput":0.0,"m_BackPropagatedError":-0.0003661475675928976},{"m_Bias":1.0,"m_Inputs":[1.0,1.0,1.0,1.0,1.0,1.0,1.0,1.0,1.0,1.0,0.9192387461662293,1.0,1.0,0.6499999761581421,1.0,1.0,0.9192386865615845,0.6399317979812622,1.0,1.0,0.05249999836087227,1.0,1.0,1.0],"m_Weights":[0.9035002832376372,-0.6965463498067367,-0.9485635507998009,-0.3739518310021963,0.8804027795174927,-0.7640798960190444,-0.20823955765053232,-0.5243716652099807,0.33495120088581117,0.6584633817314575,-0.17910612181241113,-0.18874916475386994,-0.10175535905327214,-0.11414477395813849,-0.8678789870192178,-0.28658760316027118,0.736638026567579,0.09211900627911612,0.05630747082366943,-0.646567478185394,-0.754057159626047,0.5789579573538838,0.05838399835355747,-0.24836691307758652,0.11616322273415934],"m_Output":-0.9917676747263179,"m_LearnRate":0.01,"m_Error":-0.14026685764899689,"m_DesiredOutput":0.0,"m_BackPropagatedError":-0.0021955962610601795},{"m_Bias":1.0,"m_Inputs":[1.0,1.0,1.0,1.0,1.0,1.0,1.0,1.0,1.0,1.0,0.9192387461662293,1.0,1.0,0.6499999761581421,1.0,1.0,0.9192386865615845,0.6399317979812622,1.0,1.0,0.05249999836087227,1.0,1.0,1.0],"m_Weights":[-0.5286000644246146,0.5962549455500739,-0.802491244564649,0.5010387002799911,0.8176012288143519,0.7062683832226715,-0.42996874153366818,-0.6019416399325803,0.9933114983729241,-0.523292889045212,0.16770488946389756,-0.4516804235301694,-0.5169799796878644,-0.5990635685790269,0.857542561145016,0.9867385765638392,0.9044275751875666,-0.33846171509675196,-0.8936482612728509,0.7087700388505887,0.036766776054713328,0.08547306505514617,-0.13396175868453906,0.9407392775710167,1.0093233111060407],"m_Output":0.9981644942246877,"m_LearnRate":0.01,"m_Error":0.012606951350214946,"m_DesiredOutput":0.0,"m_BackPropagatedError":0.000021682315705958138},{"m_Bias":1.0,"m_Inputs":[1.0,1.0,1.0,1.0,1.0,1.0,1.0,1.0,1.0,1.0,0.9192387461662293,1.0,1.0,0.6499999761581421,1.0,1.0,0.9192386865615845,0.6399317979812622,1.0,1.0,0.05249999836087227,1.0,1.0,1.0],"m_Weights":[-0.8673538261097927,0.8683349835996328,-0.3940715952347619,-0.4055236629161496,-0.18954057322496135,-0.672300436201789,0.09696814919374614,0.2419888808755392,0.5947794598707538,0.4997147104824018,-0.34135764366825629,-0.3139060179655874,0.04143677102289225,0.5691047668751123,-0.9752268112154842,-0.6628963333445291,-0.4911856699228628,-0.049592571618453647,-0.5265662259592233,0.05334010213723211,-0.81450411066432,0.3391267549181975,-0.19663632830124448,0.2631687679936996,-0.5158685754432383],"m_Output":-0.9985363071285209,"m_LearnRate":0.01,"m_Error":-0.005557177935799032,"m_DesiredOutput":0.0,"m_BackPropagatedError":-0.00002539269076060006},{"m_Bias":1.0,"m_Inputs":[1.0,1.0,1.0,1.0,1.0,1.0,1.0,1.0,1.0,1.0,0.9192387461662293,1.0,1.0,0.6499999761581421,1.0,1.0,0.9192386865615845,0.6399317979812622,1.0,1.0,0.05249999836087227,1.0,1.0,1.0],"m_Weights":[-0.6264203426650031,-0.06302724594661556,0.0001872515549703965,0.0737564646672856,-0.8655501463155775,0.3156517111018856,-0.2661469960627671,-0.7838034481996115,0.45460358953189147,0.5451007476856544,0.7334832762666698,0.8733266880813196,0.7095369849037471,0.0930188903223812,-0.9202069528277678,-0.9809691766784807,0.18769148018053356,-0.21107770941112539,-0.18090839471852225,0.07353470288743849,0.16136172458881729,-0.15238961469798563,-0.05056672674848727,-1.0667344140420255,0.25365581430699976],"m_Output":-0.8381060967793995,"m_LearnRate":0.01,"m_Error":-0.11391522526627956,"m_DesiredOutput":0.0,"m_BackPropagatedError":-0.03902690176353393},{"m_Bias":1.0,"m_Inputs":[1.0,1.0,1.0,1.0,1.0,1.0,1.0,1.0,1.0,1.0,0.9192387461662293,1.0,1.0,0.6499999761581421,1.0,1.0,0.9192386865615845,0.6399317979812622,1.0,1.0,0.05249999836087227,1.0,1.0,1.0],"m_Weights":[-0.5601372381625128,-0.9373261537248542,-0.7169636442936807,-0.20600215538377524,0.772288034953018,-0.2059756705375208,0.050138946924198537,0.3283317413766847,-0.8938315206396612,-0.6231868859933002,0.303040965505636,-0.9636208061487858,-0.9168865281406728,0.4331635901462426,-0.888081814133381,0.866341195894964,-0.5868374135359336,0.5100630151308273,0.9642746722853661,-0.7668303021740633,-0.5629730350410254,-0.2220877895691663,0.7930340212192455,-0.6066737819008158,-0.004696735623724558],"m_Output":-0.9997165574281458,"m_LearnRate":0.01,"m_Error":0.36064917341711408,"m_DesiredOutput":0.0,"m_BackPropagatedError":0.00009020360096193584},{"m_Bias":1.0,"m_Inputs":[1.0,1.0,1.0,1.0,1.0,1.0,1.0,1.0,1.0,1.0,0.9192387461662293,1.0,1.0,0.6499999761581421,1.0,1.0,0.9192386865615845,0.6399317979812622,1.0,1.0,0.05249999836087227,1.0,1.0,1.0],"m_Weights":[0.07628747703079242,-0.3534088385574338,1.034482878928946,-0.7379618060021169,0.3940325693712472,0.6502819449901548,-0.8575651834932992,0.18115324665723218,0.946692020873688,0.7864875937918825,0.4299555039319577,-0.4260673899846767,0.5857816427158481,0.7901664348375082,-0.09685696009860642,-0.1457042273231985,-0.32176051507132788,0.7394354230293907,-0.10890666042487951,-0.11621184026774995,-0.8704534922871956,0.17452484813476894,0.4917130694946782,-0.14806265058715668,0.35873931709018688],"m_Output":0.9974876719549134,"m_LearnRate":0.01,"m_Error":-0.08743234374021693,"m_DesiredOutput":0.0,"m_BackPropagatedError":-0.00040005410590465793},{"m_Bias":1.0,"m_Inputs":[1.0,1.0,1.0,1.0,1.0,1.0,1.0,1.0,1.0,1.0,0.9192387461662293,1.0,1.0,0.6499999761581421,1.0,1.0,0.9192386865615845,0.6399317979812622,1.0,1.0,0.05249999836087227,1.0,1.0,1.0],"m_Weights":[-0.19642717776460739,0.30555870698550688,0.025336992394666637,0.7735715800366623,-0.18221277654458754,0.6744534324230909,-0.7258561496932507,0.8986128653364233,0.8014233966561868,-0.15129699563272529,-0.7213849216441285,0.13659306287040164,0.21708725236799326,-0.1422940359283755,-0.19166705931236906,0.3112436553654897,-0.002760810470277484,-0.7484154752647249,0.7752645432561015,-0.16760758067252966,0.40311646661241276,-0.02317384503844788,0.7684900749025602,0.18294760632740379,0.5491238207679392],"m_Output":0.9979003084365938,"m_LearnRate":0.01,"m_Error":-0.4261880799621232,"m_DesiredOutput":0.0,"m_BackPropagatedError":-0.0034396689833264945},{"m_Bias":1.0,"m_Inputs":[1.0,1.0,1.0,1.0,1.0,1.0,1.0,1.0,1.0,1.0,0.9192387461662293,1.0,1.0,0.6499999761581421,1.0,1.0,0.9192386865615845,0.6399317979812622,1.0,1.0,0.05249999836087227,1.0,1.0,1.0],"m_Weights":[0.9358007998787059,0.18925781525764968,0.07065054947971951,0.6600233384755252,0.03451368647161548,0.818102714105674,0.17094671197967965,0.21271525748421384,-0.0866878711112679,-0.4927593376008488,-0.6839671455449738,0.0034898771872034046,0.3299394218565457,0.03812265380383463,-0.9494319982906011,0.06558719591291795,-0.3718852799842099,0.6847598245179175,-0.0750334052264625,-0.43775002452020808,0.6087639939693184,0.3299198473515537,-0.18864275526726813,0.9781036004892896,0.4358787993408351],"m_Output":0.9971241271484076,"m_LearnRate":0.01,"m_Error":-0.26688952682948388,"m_DesiredOutput":0.0,"m_BackPropagatedError":-0.001437661581055563},{"m_Bias":1.0,"m_Inputs":[1.0,1.0,1.0,1.0,1.0,1.0,1.0,1.0,1.0,1.0,0.9192387461662293,1.0,1.0,0.6499999761581421,1.0,1.0,0.9192386865615845,0.6399317979812622,1.0,1.0,0.05249999836087227,1.0,1.0,1.0],"m_Weights":[0.023741531106941127,-0.09209631659588118,0.6186406385172114,0.9209238743110881,0.8584451112448626,0.8207667192314901,0.503590620215594,0.8511173066402176,-0.7742037018589114,-0.06802928534368723,-0.48400853184553957,0.21385171308435148,-0.7572811702982554,-0.20361714916757518,0.033567436658529948,0.11483543894195261,0.9542715854765334,-0.6828630512618441,-0.6267216263531562,-0.4836426549627749,-0.6683444467970525,0.690991038840595,0.23514136315002635,0.7310996998607329,0.7830432420792768],"m_Output":0.9960317634523324,"m_LearnRate":0.01,"m_Error":0.2586922893132326,"m_DesiredOutput":0.0,"m_BackPropagatedError":0.0012065278417478739},{"m_Bias":1.0,"m_Inputs":[1.0,1.0,1.0,1.0,1.0,1.0,1.0,1.0,1.0,1.0,0.9192387461662293,1.0,1.0,0.6499999761581421,1.0,1.0,0.9192386865615845,0.6399317979812622,1.0,1.0,0.05249999836087227,1.0,1.0,1.0],"m_Weights":[-0.09263114751219746,0.42509614907360007,0.006015838744903565,-0.2308363457119764,1.0508664775082362,-0.31789820444392116,-0.506418825192797,0.21045970855772798,-0.6910740139012737,0.997739329460278,-0.015365926790916656,0.593431898266695,0.33939002176371388,0.12335055032996238,-0.3004271012908262,-0.13784967234113544,0.22141901701706838,0.11124837168066113,-0.8142326699916473,0.6026777291246477,0.9147298555952944,-0.5309353348281647,-0.05023177524902088,0.9607136701814694,0.5390239095908285],"m_Output":0.9995953695879418,"m_LearnRate":0.01,"m_Error":0.6433628028115589,"m_DesiredOutput":0.0,"m_BackPropagatedError":0.00026093998464325887},{"m_Bias":1.0,"m_Inputs":[1.0,1.0,1.0,1.0,1.0,1.0,1.0,1.0,1.0,1.0,0.9192387461662293,1.0,1.0,0.6499999761581421,1.0,1.0,0.9192386865615845,0.6399317979812622,1.0,1.0,0.05249999836087227,1.0,1.0,1.0],"m_Weights":[0.6337878735212505,0.06353174348008625,-0.5703581474070218,0.4822182153609826,0.11454174275916075,0.3456763401261888,0.7196730403980425,0.8546589049622961,-0.8382967947865827,0.10559829320624338,-0.5049726747276878,-0.32967012698125416,0.19838414183492387,-0.861953589573903,-0.5689368189190949,-0.8727932061524619,-0.9076574343528913,-0.9252067709695586,-0.1972495225409278,-0.8200323291921644,0.5316417691191405,-0.33943780975581247,0.26628104083583878,0.6853742683441837,0.7550060797150326],"m_Output":-0.858359279676308,"m_LearnRate":0.01,"m_Error":0.15853387579899692,"m_DesiredOutput":0.0,"m_BackPropagatedError":0.04724837973713161},{"m_Bias":1.0,"m_Inputs":[1.0,1.0,1.0,1.0,1.0,1.0,1.0,1.0,1.0,1.0,0.9192387461662293,1.0,1.0,0.6499999761581421,1.0,1.0,0.9192386865615845,0.6399317979812622,1.0,1.0,0.05249999836087227,1.0,1.0,1.0],"m_Weights":[0.18155766796425683,-0.39717448048979928,0.14859455867820146,-0.8002712718020775,0.9338632369917218,-0.5451258704334041,-0.5481986015135275,0.017219745377309246,0.24583257134089987,-0.6811891160252144,0.5046070899543953,0.9828684764072765,0.6399615069482807,0.1005485721406265,-0.36542241850614018,0.2324759552602957,0.6360652806902878,0.09066902092048972,0.9573313742022757,-0.8482931359356889,-0.8528556397672694,0.9134016899056477,-0.17803095154042737,0.6905261395437221,0.37857508665757869],"m_Output":0.8534127081809364,"m_LearnRate":0.01,"m_Error":0.15112812112650363,"m_DesiredOutput":0.0,"m_BackPropagatedError":0.07952153584539085},{"m_Bias":1.0,"m_Inputs":[1.0,1.0,1.0,1.0,1.0,1.0,1.0,1.0,1.0,1.0,0.9192387461662293,1.0,1.0,0.6499999761581421,1.0,1.0,0.9192386865615845,0.6399317979812622,1.0,1.0,0.05249999836087227,1.0,1.0,1.0],"m_Weights":[0.838718808455365,-0.5611306809282672,-0.8279618189704189,0.7164071970451812,0.9736990283278729,0.031821056376392316,0.8345531447312151,-0.18500058886252128,0.7736707911386969,1.077224896574914,-0.18120550635429148,-0.43515867697897489,0.7866638810633477,-0.6498736943850052,-0.3434432631922952,-0.8732248004897905,0.6732866728184075,1.032601414586396,1.002131353669741,-0.07893660410268708,-0.721370175352417,-0.43024462892858197,0.0679531889842317,-0.7228485390466249,0.0081936981183331],"m_Output":0.9942602015670869,"m_LearnRate":0.01,"m_Error":-0.39248367007813486,"m_DesiredOutput":0.0,"m_BackPropagatedError":-0.010386972104624932},{"m_Bias":1.0,"m_Inputs":[1.0,1.0,1.0,1.0,1.0,1.0,1.0,1.0,1.0,1.0,0.9192387461662293,1.0,1.0,0.6499999761581421,1.0,1.0,0.9192386865615845,0.6399317979812622,1.0,1.0,0.05249999836087227,1.0,1.0,1.0],"m_Weights":[0.9089994839126742,0.5881001462728359,0.29941807257598576,0.5469917042339241,0.5741225117738541,0.2642198715531783,0.7855690267310445,0.4539858326624425,-0.15809628821119543,-0.779894236553601,-0.8877974915520773,-0.5827667520586147,0.29499950722717,0.35967701154467127,0.4013338311515113,0.7908184925989331,0.26989899329902419,0.9512799652773993,0.16470827482348553,0.9213315919797632,-0.284150693796812,0.984179577375592,-0.09388426691409503,0.3566622801284067,-0.8605050396819629],"m_Output":0.9999267185135888,"m_LearnRate":0.01,"m_Error":0.19282593781691768,"m_DesiredOutput":0.0,"m_BackPropagatedError":0.00003249915879327863},{"m_Bias":1.0,"m_Inputs":[1.0,1.0,1.0,1.0,1.0,1.0,1.0,1.0,1.0,1.0,0.9192387461662293,1.0,1.0,0.6499999761581421,1.0,1.0,0.9192386865615845,0.6399317979812622,1.0,1.0,0.05249999836087227,1.0,1.0,1.0],"m_Weights":[-0.3480147820058892,0.980536922229033,-0.05042244298094561,-0.06711106015428839,0.2914039246994701,0.33771820315877007,0.43089735528817577,0.96911170137537,-0.1067396352410781,0.9793962391037058,0.4146770188927452,-0.5017555788253224,0.19477629386032839,-0.800842052766557,-0.2914947540604376,-0.04058821574416181,0.1333313581986635,-0.11780767344286836,1.0316624430051307,-0.42857271936345406,0.679858559452691,-0.6448855991522736,-0.3076159815233832,-0.4050947872775616,0.10646303967443784],"m_Output":0.9930661607311706,"m_LearnRate":0.01,"m_Error":0.4699901430555691,"m_DesiredOutput":0.0,"m_BackPropagatedError":0.015541762471828482},{"m_Bias":1.0,"m_Inputs":[1.0,1.0,1.0,1.0,1.0,1.0,1.0,1.0,1.0,1.0,0.9192387461662293,1.0,1.0,0.6499999761581421,1.0,1.0,0.9192386865615845,0.6399317979812622,1.0,1.0,0.05249999836087227,1.0,1.0,1.0],"m_Weights":[-0.1767204634957875,-0.5729402917732192,0.7124060006553001,-0.8308372181483341,-0.8681308377127925,0.8674192422654147,-0.3602489002754697,0.8670019627050463,0.3572732186661665,-0.0790305048770174,0.23722605879710954,-0.15904047842772715,-0.4599628815889438,0.5648763112759779,-0.09243075784237828,-0.31923355943745176,-0.5297237566693566,-0.5958295275203036,0.33009348560360449,-1.0348917386252808,0.2881898807527498,-0.8830113520970777,0.7557808025580478,-0.5531324124546521,-0.052016474040578488],"m_Output":-0.9442418664802301,"m_LearnRate":0.01,"m_Error":0.19117966958566644,"m_DesiredOutput":0.0,"m_BackPropagatedError":0.015771942328240013},{"m_Bias":1.0,"m_Inputs":[1.0,1.0,1.0,1.0,1.0,1.0,1.0,1.0,1.0,1.0,0.9192387461662293,1.0,1.0,0.6499999761581421,1.0,1.0,0.9192386865615845,0.6399317979812622,1.0,1.0,0.05249999836087227,1.0,1.0,1.0],"m_Weights":[0.5715213867174965,0.07235440114557568,-0.12887368701939265,-0.22618647247171856,-0.5884740025760844,-0.7676331216541799,0.2542097380754254,-0.709477884001095,0.7365587701770829,-0.7062412929084545,-0.3242271753104128,0.5072609041492726,0.5642326232416943,-0.38278130940770579,-1.060821072412415,-0.4335542505504468,-0.5637222262060164,0.6886333720696709,0.03854664477491201,0.2623717794648836,-1.0109655562947582,-0.587399427698507,0.11781958452722874,-0.004495929245984004,0.6870180999920824],"m_Output":-0.9746126936572432,"m_LearnRate":0.01,"m_Error":-0.1269902119192436,"m_DesiredOutput":0.0,"m_BackPropagatedError":-0.006182720719732501},{"m_Bias":1.0,"m_Inputs":[1.0,1.0,1.0,1.0,1.0,1.0,1.0,1.0,1.0,1.0,0.9192387461662293,1.0,1.0,0.6499999761581421,1.0,1.0,0.9192386865615845,0.6399317979812622,1.0,1.0,0.05249999836087227,1.0,1.0,1.0],"m_Weights":[0.08537608154897522,0.8764193856804796,0.21701050607170353,-0.5261954668769651,0.6756310298293198,-0.23267794248269364,-0.313842759932658,0.279028181205718,0.2585803515555743,-0.4687479301944724,-0.23145301390325508,0.7370320519792312,0.09039167580243692,-0.11409286110315371,-0.32616871138485417,0.995277247697428,-0.46419035000753136,-0.25273098538414837,0.3412130389612096,-0.8198450699731198,0.13974375307862295,-0.11982251803620331,0.7895338956687557,0.387386078625795,0.4067246763940068],"m_Output":0.9859411629927414,"m_LearnRate":0.01,"m_Error":-0.17773413056839483,"m_DesiredOutput":0.0,"m_BackPropagatedError":-0.006578651969761251},{"m_Bias":1.0,"m_Inputs":[1.0,1.0,1.0,1.0,1.0,1.0,1.0,1.0,1.0,1.0,0.9192387461662293,1.0,1.0,0.6499999761581421,1.0,1.0,0.9192386865615845,0.6399317979812622,1.0,1.0,0.05249999836087227,1.0,1.0,1.0],"m_Weights":[-0.23053987820411082,-0.6402402753535814,-0.3804886000184077,0.1084601729296432,-0.143430172767392,0.12062039613941282,0.8918277395859529,0.8211368168407696,0.022408996579656623,0.40730914035731127,-0.5576726610019164,-0.934329516146865,0.8300017998795324,-0.892485355697267,0.4785441612136464,-0.9526669172106381,-0.7146388421902568,-0.6693694083706825,-0.9113237921049975,0.18996407542491165,-0.1494885421390678,0.35225553132020295,-0.20295974671207868,-0.5944041984895315,0.2824653515299022],"m_Output":-0.9982233454851959,"m_LearnRate":0.01,"m_Error":0.05447204083290996,"m_DesiredOutput":0.0,"m_BackPropagatedError":0.0004180937065388254},{"m_Bias":1.0,"m_Inputs":[1.0,1.0,1.0,1.0,1.0,1.0,1.0,1.0,1.0,1.0,0.9192387461662293,1.0,1.0,0.6499999761581421,1.0,1.0,0.9192386865615845,0.6399317979812622,1.0,1.0,0.05249999836087227,1.0,1.0,1.0],"m_Weights":[0.5161485536758221,0.7296785911928158,0.8828129015043118,-0.11369776143944144,-0.36414653994097476,-0.7813483086119167,-0.9727723719953882,0.8258409997082205,0.09296370250464413,-0.17188945222742525,-0.6093420866815588,-0.9998529769711898,-0.8915138749904369,-0.6726358374109047,0.3204565649967702,-0.19995991049429255,0.8572819443408405,-1.0060996218515928,0.41999970140071316,-0.8116741135409625,0.863562473947937,-0.3568352925325242,-0.373485296076661,0.7839120977112322,-0.9151556360704233],"m_Output":-0.9912028842779844,"m_LearnRate":0.01,"m_Error":0.29495832860676987,"m_DesiredOutput":0.0,"m_BackPropagatedError":0.003621555833103263},{"m_Bias":1.0,"m_Inputs":[1.0,1.0,1.0,1.0,1.0,1.0,1.0,1.0,1.0,1.0,0.9192387461662293,1.0,1.0,0.6499999761581421,1.0,1.0,0.9192386865615845,0.6399317979812622,1.0,1.0,0.05249999836087227,1.0,1.0,1.0],"m_Weights":[-0.18003641218190645,-0.5061406357542937,0.6383511881125772,-0.8794606245956155,-0.505734525408252,0.42359064131546639,0.5071277647670339,-0.783724744991948,0.8019828045393949,0.40957047456752829,0.4509599047616716,-0.9186838056898544,0.027308580906699233,-0.5616582763445719,0.2553809685023568,-0.577008033594034,-0.717723905029343,-0.17252052545063094,0.26559385581965186,0.13356451163892026,-0.9104240994978184,-0.7935757511991569,-0.9438416490505561,-0.20524432053107223,-0.5517867189104363],"m_Output":-0.9998131423165645,"m_LearnRate":0.01,"m_Error":0.043714537950548058,"m_DesiredOutput":0.0,"m_BackPropagatedError":0.000013039646518701283},{"m_Bias":1.0,"m_Inputs":[1.0,1.0,1.0,1.0,1.0,1.0,1.0,1.0,1.0,1.0,0.9192387461662293,1.0,1.0,0.6499999761581421,1.0,1.0,0.9192386865615845,0.6399317979812622,1.0,1.0,0.05249999836087227,1.0,1.0,1.0],"m_Weights":[0.06249967210032592,0.41922034800906318,0.4720174690474688,-0.7310731654253825,0.5178844543241283,-0.0811700851199957,0.11801213886643203,-0.8794493801286685,-0.21392743045150243,0.8217973845211698,0.7224441371829831,-0.5755852985247149,0.7255852107404107,-0.40109642514466195,0.4634183697828693,-0.08582522761748429,0.8153840177453363,-0.662789144393496,-0.05972147024521374,0.9217767088696107,-0.24183356253106429,-0.137255378970442,0.6211115002996139,-0.792334721306606,0.8025840921087605],"m_Output":0.9912030351733657,"m_LearnRate":0.01,"m_Error":-0.27102386652289947,"m_DesiredOutput":0.0,"m_BackPropagatedError":-0.004505848704654205},{"m_Bias":1.0,"m_Inputs":[1.0,1.0,1.0,1.0,1.0,1.0,1.0,1.0,1.0,1.0,0.9192387461662293,1.0,1.0,0.6499999761581421,1.0,1.0,0.9192386865615845,0.6399317979812622,1.0,1.0,0.05249999836087227,1.0,1.0,1.0],"m_Weights":[0.5864290141814651,0.8065850050466487,0.3569976863181514,-0.3898070816759646,0.9890847359858727,-0.3990993129688177,-0.5803597369607171,-0.11680878961089908,0.6573614112771835,0.45665572349373109,-0.9662310730154692,-0.9515945963428137,0.9810360669606146,-0.635628571698728,-0.4860894789971801,-0.6339102204862257,0.9872401342153786,-0.7774226476409112,-0.4013317030864767,0.5488193591924131,-1.00370817348951,-0.4072749735878879,-0.743570543221081,0.8123132327508831,-0.7699159621414892],"m_Output":-0.8454731909534645,"m_LearnRate":0.01,"m_Error":-0.24935619980964059,"m_DesiredOutput":0.0,"m_BackPropagatedError":-0.09721030605033232},{"m_Bias":1.0,"m_Inputs":[1.0,1.0,1.0,1.0,1.0,1.0,1.0,1.0,1.0,1.0,0.9192387461662293,1.0,1.0,0.6499999761581421,1.0,1.0,0.9192386865615845,0.6399317979812622,1.0,1.0,0.05249999836087227,1.0,1.0,1.0],"m_Weights":[-0.6928286656193108,0.8992596308828491,0.13991203387447583,-0.09719902766104481,0.7233597992782362,-0.800047183820248,0.8094968104661906,0.27720391775593886,-0.5348432936020138,0.908755307336297,0.08478653487552182,0.742256210946068,0.44961074133476505,-0.20622904624653264,0.19860610240137978,0.2651310225308935,0.5661440651467021,-0.9608132357548849,0.11619446375126504,0.4037367004312136,-0.16978435920909613,0.8193152434096578,0.998802122318777,-0.6017055858390191,0.5432638848317412],"m_Output":0.99934570214172,"m_LearnRate":0.01,"m_Error":-0.1569545707767052,"m_DesiredOutput":0.0,"m_BackPropagatedError":-0.00022656002760431434},{"m_Bias":1.0,"m_Inputs":[1.0,1.0,1.0,1.0,1.0,1.0,1.0,1.0,1.0,1.0,0.9192387461662293,1.0,1.0,0.6499999761581421,1.0,1.0,0.9192386865615845,0.6399317979812622,1.0,1.0,0.05249999836087227,1.0,1.0,1.0],"m_Weights":[-0.2045133964435306,-0.35312723121369185,0.0015045898583034446,-0.3273211920618397,0.8254398142904977,0.06340489446898336,0.6680672961235118,0.5832133122654485,-0.5327902839676777,0.6925466502249296,-0.23159829897685989,0.3358126726434497,0.9654248969160505,0.9933785132201646,0.2951443075423518,-0.7199789774358936,-0.17393351292565749,0.5448204313178972,-0.5374400236301679,0.5429846638677861,-0.3344806828794208,-0.40975797932674026,0.4974688208938761,0.4799856628176366,-0.6532712207086097],"m_Output":0.997854905630702,"m_LearnRate":0.01,"m_Error":-0.16297247717534009,"m_DesiredOutput":0.0,"m_BackPropagatedError":-0.0004429227980060849},{"m_Bias":1.0,"m_Inputs":[1.0,1.0,1.0,1.0,1.0,1.0,1.0,1.0,1.0,1.0,0.9192387461662293,1.0,1.0,0.6499999761581421,1.0,1.0,0.9192386865615845,0.6399317979812622,1.0,1.0,0.05249999836087227,1.0,1.0,1.0],"m_Weights":[-0.6475817031071314,-0.5815801866211876,0.04267583678900019,-0.6147634607808603,0.3099296606683717,-0.6463815483825054,0.7981789028443422,-0.3459986287275806,0.22379623098053665,-0.09484216730978287,0.4892699813922449,-0.2794696030506787,-0.4131445081527266,-0.2997794137511882,-0.1821271929201807,0.4525695140020724,-0.8957001431397478,-0.03208917329548026,0.007017968374152717,-0.6038067687188666,0.8719635504715593,0.5297238019474163,-1.00820929299919,0.7549611391700325,0.0916700635169715],"m_Output":-0.9863254054249997,"m_LearnRate":0.01,"m_Error":-0.4759585732989601,"m_DesiredOutput":0.0,"m_BackPropagatedError":-0.012925197552470763},{"m_Bias":1.0,"m_Inputs":[1.0,1.0,1.0,1.0,1.0,1.0,1.0,1.0,1.0,1.0,0.9192387461662293,1.0,1.0,0.6499999761581421,1.0,1.0,0.9192386865615845,0.6399317979812622,1.0,1.0,0.05249999836087227,1.0,1.0,1.0],"m_Weights":[-0.9834260070717787,-0.7276629725389274,0.5480083262684994,-0.07750796691687849,-0.13613247081393416,-0.8594943202606994,0.11938163264579965,0.522350662488493,-0.7393922680537232,0.30927897221681618,-0.533903875370747,-0.6263334042651728,0.08613365354823724,-0.049071969661568879,0.19531185282661862,-0.22244246963199147,-0.4676026691946828,-0.41903323648993259,-0.041415302795012969,0.6310658765024497,0.35378898272982409,-0.8552582241507319,-0.2676092527048334,0.4723664872740498,0.8648472302025744],"m_Output":-0.9681820341643777,"m_LearnRate":0.01,"m_Error":-0.538221311400414,"m_DesiredOutput":0.0,"m_BackPropagatedError":-0.03540424822351187},{"m_Bias":1.0,"m_Inputs":[1.0,1.0,1.0,1.0,1.0,1.0,1.0,1.0,1.0,1.0,0.9192387461662293,1.0,1.0,0.6499999761581421,1.0,1.0,0.9192386865615845,0.6399317979812622,1.0,1.0,0.05249999836087227,1.0,1.0,1.0],"m_Weights":[-0.6154781045273258,0.5043797264985274,-0.6571577366663078,-0.06951056128387,-0.667171473272202,-0.16287385855862689,-0.5713921828900943,0.26597356993156226,0.2589686582461008,0.3535169735575737,-0.8624751407002612,-0.6877648994672252,0.7719911003072235,-0.5987600134179211,-0.24240918615393843,-0.5144318282676336,0.30807935254613608,-0.6812675701765149,0.3705726591589576,-0.5926681823300115,0.10848291942128337,0.08804332120126389,-0.9345091093939902,0.8943650216937512,0.6455373753349145],"m_Output":-0.997333515032317,"m_LearnRate":0.01,"m_Error":0.4169220591591183,"m_DesiredOutput":0.0,"m_BackPropagatedError":0.0016213823083536664},{"m_Bias":1.0,"m_Inputs":[1.0,1.0,1.0,1.0,1.0,1.0,1.0,1.0,1.0,1.0,0.9192387461662293,1.0,1.0,0.6499999761581421,1.0,1.0,0.9192386865615845,0.6399317979812622,1.0,1.0,0.05249999836087227,1.0,1.0,1.0],"m_Weights":[0.3227448692424803,-0.07193671293252918,0.04565671293315313,-0.8794127789221322,0.7267784367629238,0.836503250222736,0.4314239061093052,-0.9500351474365444,-0.055473156896064839,-0.5405773485572903,-0.3902606013216892,-0.25965881744228716,-0.48656251419978116,0.9121644965711648,-0.5347656360924608,-1.001569223250081,0.04792978229869213,0.8230811444175799,0.5290046902485972,-0.054209124191405968,-0.5483991839881509,-0.2901194992921416,-0.9151146192706899,-0.8733200683194715,0.10381215291917509],"m_Output":-0.9932802004573313,"m_LearnRate":0.01,"m_Error":0.08024409558165399,"m_DesiredOutput":0.0,"m_BackPropagatedError":0.000687571555861424},{"m_Bias":1.0,"m_Inputs":[1.0,1.0,1.0,1.0,1.0,1.0,1.0,1.0,1.0,1.0,0.9192387461662293,1.0,1.0,0.6499999761581421,1.0,1.0,0.9192386865615845,0.6399317979812622,1.0,1.0,0.05249999836087227,1.0,1.0,1.0],"m_Weights":[-1.0632602054250507,0.6823051110884565,0.34832252729838128,0.02177428811454077,-0.3177665086767595,0.1750176728697247,0.3601389632486638,-0.6505151224332773,0.16352258456461439,-0.20226250450631876,0.6746950964003051,0.24638556019050918,-0.048220042982631657,0.3204424040388449,0.38781788097246308,-0.37686216975298,-0.892191478488035,-0.33537281883726396,0.7965530295562574,-1.0129454030433769,0.5805802372453923,-0.34544025147716175,-0.758023331070108,-0.22354255932313947,-0.7012253403129974],"m_Output":-0.9783767185280958,"m_LearnRate":0.01,"m_Error":0.04601825117522282,"m_DesiredOutput":0.0,"m_BackPropagatedError":0.0010117085819631262},{"m_Bias":1.0,"m_Inputs":[1.0,1.0,1.0,1.0,1.0,1.0,1.0,1.0,1.0,1.0,0.9192387461662293,1.0,1.0,0.6499999761581421,1.0,1.0,0.9192386865615845,0.6399317979812622,1.0,1.0,0.05249999836087227,1.0,1.0,1.0],"m_Weights":[0.9982405914732562,0.257354516100965,-0.5715779617053628,-0.11327433603112437,0.14810475133399424,-0.3684397250458019,-0.1159763473209103,-0.07059115094378724,0.01656193361386963,0.7510248413106853,-0.8702316861537391,-0.9415656539723162,0.0029380352641000986,-0.7355480202312805,0.23655922205293798,0.2531059633144869,-0.6526223173319349,0.2850768248167477,0.06744135657337787,-0.2972616628639463,-0.30414077062840008,-0.96564450776194,-0.6030508420118734,-0.8427903741109863,-0.6487284957049182],"m_Output":-0.9995715613924036,"m_LearnRate":0.01,"m_Error":-0.2893560502465407,"m_DesiredOutput":0.0,"m_BackPropagatedError":-0.00023413191317854355},{"m_Bias":1.0,"m_Inputs":[1.0,1.0,1.0,1.0,1.0,1.0,1.0,1.0,1.0,1.0,0.9192387461662293,1.0,1.0,0.6499999761581421,1.0,1.0,0.9192386865615845,0.6399317979812622,1.0,1.0,0.05249999836087227,1.0,1.0,1.0],"m_Weights":[-0.7036159003154618,-0.9651205906385234,-0.7490857595100248,-0.8906037323579864,0.4962823632015454,0.292265832587161,0.43447107459380709,-0.4343127842510292,-0.30990741841810257,-0.21299643156036728,-0.9667017376188138,0.0203686667797942,0.5553845590660638,-0.8598652723050537,-0.7082769703273029,-0.09382047708587113,-0.5988899848871033,-0.9291300352857185,0.702784054678983,0.33418874860899547,-0.38522295262289837,0.214091431952744,-0.5254080738516508,-0.3339386599610635,-0.1752920031434306],"m_Output":-0.9999980753801581,"m_LearnRate":0.01,"m_Error":-0.10961741290287799,"m_DesiredOutput":0.0,"m_BackPropagatedError":-2.324185111203262e-7},{"m_Bias":1.0,"m_Inputs":[1.0,1.0,1.0,1.0,1.0,1.0,1.0,1.0,1.0,1.0,0.9192387461662293,1.0,1.0,0.6499999761581421,1.0,1.0,0.9192386865615845,0.6399317979812622,1.0,1.0,0.05249999836087227,1.0,1.0,1.0],"m_Weights":[0.42528596474230909,0.4646770335713723,0.31612359350077459,-0.7148018911888708,0.799867707253432,0.9734861505827466,-0.035987446499038639,-0.626578807654364,-0.45274112571541355,-0.08289163304542266,-0.3678081298714268,-0.293487146838303,-0.10531796735039609,0.6187757776449616,-0.4327734965899349,-0.248449515315635,0.5613600894131718,-0.5646426430559124,0.5794412698960834,0.29296371993305317,-0.674205665944483,-0.1605245503384259,0.24060671086725669,-0.1622002444532549,0.8843210093803555],"m_Output":0.8850772165273239,"m_LearnRate":0.01,"m_Error":-0.08282868523169944,"m_DesiredOutput":0.0,"m_BackPropagatedError":-0.027042622003897476},{"m_Bias":1.0,"m_Inputs":[1.0,1.0,1.0,1.0,1.0,1.0,1.0,1.0,1.0,1.0,0.9192387461662293,1.0,1.0,0.6499999761581421,1.0,1.0,0.9192386865615845,0.6399317979812622,1.0,1.0,0.05249999836087227,1.0,1.0,1.0],"m_Weights":[-0.7733569398456317,0.873848837688673,-0.30304564003397307,-0.2405810082525806,0.6799988523651506,0.12690223718862163,0.47789402002275385,0.5377862128362656,0.23919770223711704,-0.9963833476652998,0.7071067356514366,-0.8876049430666781,-0.7035044040571084,-0.09162615430944318,-0.24186429129330359,0.15357754982347567,-0.3463115211633464,-0.042464506407858409,0.2402960762638401,0.593464977759212,-0.7825294474829025,0.6297433650449769,-0.5074021955225998,0.2588058643761961,-0.3780811849107037],"m_Output":-0.8616129071583677,"m_LearnRate":0.01,"m_Error":0.31430516740668548,"m_DesiredOutput":0.0,"m_BackPropagatedError":0.06601864479629247},{"m_Bias":1.0,"m_Inputs":[1.0,1.0,1.0,1.0,1.0,1.0,1.0,1.0,1.0,1.0,0.9192387461662293,1.0,1.0,0.6499999761581421,1.0,1.0,0.9192386865615845,0.6399317979812622,1.0,1.0,0.05249999836087227,1.0,1.0,1.0],"m_Weights":[0.031932864889776878,-0.18389444727566008,-0.061537615434236709,0.36830476166096368,-0.47410311814547936,-0.47937914855864335,-0.7613317842687053,-0.5764542465266236,-0.664930089145069,0.30769816027910359,0.9033513080048454,-0.8723085375015444,0.3524753218858308,-0.2762502170609627,0.7019934808112851,-0.014254650567402348,-0.04162013147231349,0.458601279367084,0.266703744963878,-0.45134418513875726,-0.5413668331925227,0.07105444347958062,0.25530543333770985,-0.4096656884330681,-1.0182859691471995],"m_Output":-0.9981222623286512,"m_LearnRate":0.01,"m_Error":0.30428377395091069,"m_DesiredOutput":0.0,"m_BackPropagatedError":0.0009104217854118074},{"m_Bias":1.0,"m_Inputs":[1.0,1.0,1.0,1.0,1.0,1.0,1.0,1.0,1.0,1.0,0.9192387461662293,1.0,1.0,0.6499999761581421,1.0,1.0,0.9192386865615845,0.6399317979812622,1.0,1.0,0.05249999836087227,1.0,1.0,1.0],"m_Weights":[0.5481959193584391,0.9467884476822313,0.8756101448523204,0.10075527695613949,0.5788693386123349,-0.28754783656682739,0.45700760183330138,0.477975204745119,-0.7495380275462042,-0.36393713270042546,-0.7668884058888171,-0.38919349163179609,-0.8074087892718898,-0.2474870229838682,0.6432858890565915,0.5907430991326077,0.6951336579138921,-0.9509454784818544,0.6332291690878482,-0.10842608936399496,0.05781709534510654,0.35513651150010785,-0.7229331243454509,0.5150328268513726,-0.2888705854744426],"m_Output":0.804411337857674,"m_LearnRate":0.01,"m_Error":-0.4187787432627811,"m_DesiredOutput":0.0,"m_BackPropagatedError":-0.20734822346915558},{"m_Bias":1.0,"m_Inputs":[1.0,1.0,1.0,1.0,1.0,1.0,1.0,1.0,1.0,1.0,0.9192387461662293,1.0,1.0,0.6499999761581421,1.0,1.0,0.9192386865615845,0.6399317979812622,1.0,1.0,0.05249999836087227,1.0,1.0,1.0],"m_Weights":[0.21177775564584729,-0.9484808809806604,0.17703508891069559,-0.4042733632495613,-0.9025942613770636,-0.9681437971139034,0.56923179078283,-0.6752197083362659,0.44575005452009039,0.09770606279676358,-0.23777963862226546,-0.5175540694798005,0.4145070327202536,-0.15959287113858276,-0.3214896967691822,-0.41701309076259027,-0.296643171522817,0.253158684433329,-0.8261778336474883,0.5770651923778053,-0.539637844599806,-0.09282381466163348,-0.15349552557042135,0.74892497129589,0.12523835082199753],"m_Output":-0.9973957082951289,"m_LearnRate":0.01,"m_Error":0.03454117909615986,"m_DesiredOutput":0.0,"m_BackPropagatedError":0.0003611846898042546},{"m_Bias":1.0,"m_Inputs":[1.0,1.0,1.0,1.0,1.0,1.0,1.0,1.0,1.0,1.0,0.9192387461662293,1.0,1.0,0.6499999761581421,1.0,1.0,0.9192386865615845,0.6399317979812622,1.0,1.0,0.05249999836087227,1.0,1.0,1.0],"m_Weights":[-0.10411653241266962,0.08490741839115325,0.7299733231590164,0.8233584933833045,0.022461173582451929,-0.8199060628437941,0.5450383999351525,-0.6615276176840363,-0.5767998581121518,-0.6987512939121798,-0.33504133677217626,-0.7694686668020209,-0.1580204012756896,-0.9156002516897948,-0.4035775289528487,-0.3998915091726107,-0.7825755275717445,-0.30788994304782615,0.5845632688495331,-0.17702326892067903,0.03209526657461624,-0.7806893207111142,0.1632976805179471,-0.10038105488481508,-0.751954478634101],"m_Output":-0.9999092111890534,"m_LearnRate":0.01,"m_Error":0.12873145786464733,"m_DesiredOutput":0.0,"m_BackPropagatedError":0.000014233832766757663},{"m_Bias":1.0,"m_Inputs":[1.0,1.0,1.0,1.0,1.0,1.0,1.0,1.0,1.0,1.0,0.9192387461662293,1.0,1.0,0.6499999761581421,1.0,1.0,0.9192386865615845,0.6399317979812622,1.0,1.0,0.05249999836087227,1.0,1.0,1.0],"m_Weights":[-0.7131896543820632,-0.9638265772240756,-0.9608762118652211,0.9233895070548224,-0.8219316807269068,-0.7072971848624873,0.2008322643546863,0.4180530033422054,0.4645714579466405,0.19925211582408629,-0.07057372399018666,0.8419925729778274,-0.48549675240414166,-0.5962486888718033,-0.07878472246516397,0.23107880248793187,-0.8769119922244544,-0.0015906436256562602,-0.45697093035668559,-0.9834965919648075,-0.6545044227915787,0.8655851761066516,0.17413938347253928,0.5828194191648479,-0.018460111941888323],"m_Output":-0.9995360687627608,"m_LearnRate":0.01,"m_Error":-0.3322993869027234,"m_DesiredOutput":0.0,"m_BackPropagatedError":-0.00045425870916412844},{"m_Bias":1.0,"m_Inputs":[1.0,1.0,1.0,1.0,1.0,1.0,1.0,1.0,1.0,1.0,0.9192387461662293,1.0,1.0,0.6499999761581421,1.0,1.0,0.9192386865615845,0.6399317979812622,1.0,1.0,0.05249999836087227,1.0,1.0,1.0],"m_Weights":[-0.7363781604789645,-0.7686766743392088,0.26128704259500309,-0.0367758468534445,-0.8990570506155867,-0.30782714846831146,0.9298990761481915,-0.16177853529976295,0.5908177659342491,-0.27754498086890697,-0.8384425870598504,0.5178815192397003,-0.5840768006076965,-0.7454878550106648,-0.9809034649859443,0.4576263685811719,-0.17707990068026287,0.36643292989317369,-0.11372695464502043,0.6714432560107082,-0.25721244611364799,0.7075802755653986,-0.7178977450830819,-0.34544164305876426,0.6009395961458327],"m_Output":-0.9966955205336023,"m_LearnRate":0.01,"m_Error":0.13730082340364464,"m_DesiredOutput":0.0,"m_BackPropagatedError":0.0009969218664840998},{"m_Bias":1.0,"m_Inputs":[1.0,1.0,1.0,1.0,1.0,1.0,1.0,1.0,1.0,1.0,0.9192387461662293,1.0,1.0,0.6499999761581421,1.0,1.0,0.9192386865615845,0.6399317979812622,1.0,1.0,0.05249999836087227,1.0,1.0,1.0],"m_Weights":[-0.18553668528388324,0.19191629620995782,-0.4993205949639262,-0.25759574807994936,0.7812310542651975,-0.700902598123092,-0.29546957674032406,-0.6146780979529196,-0.15177746532981468,0.8615165035291313,-0.9506731397153063,0.8374130784276082,-0.601903537221187,0.3132808614883489,-0.5728168221579202,-0.0789687854180608,-0.04257961193047143,-0.16805627939448648,0.5747862522298828,-0.3064405748278491,0.650293967484612,0.693927024838289,-0.3375499738413161,-0.5632979883702042,-0.548859695364079],"m_Output":-0.9908283132506381,"m_LearnRate":0.01,"m_Error":-0.10042850628371039,"m_DesiredOutput":0.0,"m_BackPropagatedError":-0.0011305246723276018},{"m_Bias":1.0,"m_Inputs":[1.0,1.0,1.0,1.0,1.0,1.0,1.0,1.0,1.0,1.0,0.9192387461662293,1.0,1.0,0.6499999761581421,1.0,1.0,0.9192386865615845,0.6399317979812622,1.0,1.0,0.05249999836087227,1.0,1.0,1.0],"m_Weights":[0.605938936055477,-0.4470152904124768,-0.640069744841612,0.875803720267282,-0.7066553144211942,-0.3828482349353206,0.9445085978606556,-0.3279844853957813,0.3751973295113844,0.26821851713344449,0.49870110285231247,0.3139482645307558,1.0324596385087588,0.8685019387160661,-0.659882054249187,0.3788014573421548,0.09516767793380107,0.5177284477662012,-0.6461848787497995,0.9880007091847282,0.5867827511265663,-0.5909511823319035,-0.9313843424625417,-0.5695597464901269,-0.30538984765139867],"m_Output":0.9959349611867766,"m_LearnRate":0.01,"m_Error":-0.30178201366483006,"m_DesiredOutput":0.0,"m_BackPropagatedError":-0.001416613851946444},{"m_Bias":1.0,"m_Inputs":[1.0,1.0,1.0,1.0,1.0,1.0,1.0,1.0,1.0,1.0,0.9192387461662293,1.0,1.0,0.6499999761581421,1.0,1.0,0.9192386865615845,0.6399317979812622,1.0,1.0,0.05249999836087227,1.0,1.0,1.0],"m_Weights":[0.7638629285679306,-0.2050074957794435,-0.37430146465267519,0.8658457846300328,0.9362906120359971,0.1794491503945245,-0.5185349267556758,-0.883009149116132,-0.6719647699276531,-0.6211484903462112,0.9598399357570906,-0.45071746276133259,-0.414451697242505,-0.17633429025943599,0.37296600586618458,-0.8148737633004731,0.39555755173933096,0.14165812916747878,-0.7977348386651151,0.07873037646710997,0.7333630422839402,0.09393865153760188,0.31891753665539598,0.3605236485062831,0.5156544235769691],"m_Output":0.7070066759284152,"m_LearnRate":0.01,"m_Error":-0.33623994369674989,"m_DesiredOutput":0.0,"m_BackPropagatedError":-0.09576017362576675},{"m_Bias":1.0,"m_Inputs":[1.0,1.0,1.0,1.0,1.0,1.0,1.0,1.0,1.0,1.0,0.9192387461662293,1.0,1.0,0.6499999761581421,1.0,1.0,0.9192386865615845,0.6399317979812622,1.0,1.0,0.05249999836087227,1.0,1.0,1.0],"m_Weights":[-0.38638539547270697,-0.8371100251617929,-0.6118587624198651,-0.4991896583979326,0.0011357980940591279,0.1361959249788199,-0.5450740519052056,0.8705075003993091,0.1732742131131658,-0.4656051735262659,0.7227161614875216,0.2767761505295577,-0.31017881936008137,0.4265809055427388,-1.0348395993045534,-0.05090648821888928,0.17969543904443964,0.5864020746411135,0.24325859906877085,-0.6855581676298795,-0.3539666339773155,-0.5284406444588546,-0.284127604317729,-0.1335229825238606,0.7518433851977125],"m_Output":-0.9292391480737231,"m_LearnRate":0.01,"m_Error":-0.3618959107597814,"m_DesiredOutput":0.0,"m_BackPropagatedError":-0.041436166703262448},{"m_Bias":1.0,"m_Inputs":[1.0,1.0,1.0,1.0,1.0,1.0,1.0,1.0,1.0,1.0,0.9192387461662293,1.0,1.0,0.6499999761581421,1.0,1.0,0.9192386865615845,0.6399317979812622,1.0,1.0,0.05249999836087227,1.0,1.0,1.0],"m_Weights":[-0.8256546607599562,0.15820023048764243,0.8360839867338533,0.30252633614846877,-0.06525512605992109,-0.363769847320824,0.5092632895061231,0.2698843023356499,-0.6724740573472177,0.08016745813526957,-0.018323421830267304,-1.0907808425867898,0.45592308407807616,0.28147599776770895,0.07660589532265065,0.4228836937075153,-0.33549305258750458,0.22083813500440178,-0.7351005303342271,0.6108483805514922,-0.18193634523920072,-0.24621764156732282,0.6550033060484062,-0.8121656450189762,-0.9694196098187766],"m_Output":-0.7140818116450775,"m_LearnRate":0.01,"m_Error":0.008162961568793953,"m_DesiredOutput":0.0,"m_BackPropagatedError":0.005902627890603279},{"m_Bias":1.0,"m_Inputs":[1.0,1.0,1.0,1.0,1.0,1.0,1.0,1.0,1.0,1.0,0.9192387461662293,1.0,1.0,0.6499999761581421,1.0,1.0,0.9192386865615845,0.6399317979812622,1.0,1.0,0.05249999836087227,1.0,1.0,1.0],"m_Weights":[-0.5418614684787652,0.4189825423773539,0.9372427156187014,-0.03867742583120753,-0.22736214826138968,-0.8344640230365078,0.4753264678289235,0.494530893796128,-0.22503383229389824,-0.09364915675422092,-0.9583225876238619,-0.3448211496594147,-0.37141246070020025,-0.6833775776397281,0.8243822829585839,-0.7031793716188172,-0.9096803260025899,-0.646521967342107,-0.6957851082786443,0.055358120770151498,-0.0017864233231693348,0.759204769366824,-0.635111453978837,-0.8132170814662101,-0.045863255668662779],"m_Output":-0.9999653995669112,"m_LearnRate":0.01,"m_Error":-0.3575908284061221,"m_DesiredOutput":0.0,"m_BackPropagatedError":-0.000044657201252430116},{"m_Bias":1.0,"m_Inputs":[1.0,1.0,1.0,1.0,1.0,1.0,1.0,1.0,1.0,1.0,0.9192387461662293,1.0,1.0,0.6499999761581421,1.0,1.0,0.9192386865615845,0.6399317979812622,1.0,1.0,0.05249999836087227,1.0,1.0,1.0],"m_Weights":[-0.7754379040438539,0.358289278529424,-0.3154395907055132,0.4848583108007444,0.17205515969556965,0.5895882455884044,0.6636845504134086,0.791998601615918,0.30458124915660569,-0.3794397869350964,0.39391533970735656,0.5995634074704419,-0.5934547121356546,0.6888227654594419,0.0690525847960568,0.5742627897451491,-0.35888233870431365,-0.22209946657220087,-0.5102013602758289,0.22050065145619913,-0.11361114844614168,1.0216181110259053,0.08103667319831828,-0.5078318109139587,0.3378642717825719],"m_Output":0.9916356283106802,"m_LearnRate":0.01,"m_Error":-0.4672836491987533,"m_DesiredOutput":0.0,"m_BackPropagatedError":-0.005052646717615209},{"m_Bias":1.0,"m_Inputs":[1.0,1.0,1.0,1.0,1.0,1.0,1.0,1.0,1.0,1.0,0.9192387461662293,1.0,1.0,0.6499999761581421,1.0,1.0,0.9192386865615845,0.6399317979812622,1.0,1.0,0.05249999836087227,1.0,1.0,1.0],"m_Weights":[-0.23709897863389457,-0.6489041407658945,0.3955807329861819,0.12715245586639027,0.10998527592102024,-0.23315351775284089,0.07498105886044963,0.8329754463777224,-0.890776094686019,-0.23407803998063546,0.02298873725345333,-0.024821040457269715,-0.7951259281947163,0.8870836282090573,0.4032455660825843,-0.44386661424814757,0.07495951675237177,0.42902784020225878,0.8777496293456836,-0.3316182555811158,-0.1712063977146467,0.8619784458312412,-0.16598748197984498,0.37355326272488578,0.6462154511157188],"m_Output":0.5609964110765211,"m_LearnRate":0.01,"m_Error":-0.1622734769146552,"m_DesiredOutput":0.0,"m_BackPropagatedError":-0.14894114036745038},{"m_Bias":1.0,"m_Inputs":[1.0,1.0,1.0,1.0,1.0,1.0,1.0,1.0,1.0,1.0,0.9192387461662293,1.0,1.0,0.6499999761581421,1.0,1.0,0.9192386865615845,0.6399317979812622,1.0,1.0,0.05249999836087227,1.0,1.0,1.0],"m_Weights":[-0.508399075250239,0.0927002487921547,-0.9803994335481573,0.09150092590093337,-0.7874998347298441,-0.8979999018572978,-0.7191990629190399,-0.8062990684687618,-0.8948999263361857,-0.6591990845421145,0.23800093451339075,-0.8115998820456005,-0.43139908792291006,-0.8273991054058019,0.7805009232353765,-0.817399890613142,0.7859009267577177,-0.7422990694365877,-0.10789927542628666,-0.9452990684548412,-0.47279908111636329,-0.6325991479578069,-0.07629984528348249,-0.027699203501162816,-0.4243991182939942],"m_Output":-0.9999999965693037,"m_LearnRate":0.01,"m_Error":-0.41760552485250537,"m_DesiredOutput":0.0,"m_BackPropagatedError":-3.1400791838346906e-9},{"m_Bias":1.0,"m_Inputs":[1.0,1.0,1.0,1.0,1.0,1.0,1.0,1.0,1.0,1.0,0.9192387461662293,1.0,1.0,0.6499999761581421,1.0,1.0,0.9192386865615845,0.6399317979812622,1.0,1.0,0.05249999836087227,1.0,1.0,1.0],"m_Weights":[0.7510602759329672,-0.41399834786864866,0.11561846960080093,0.7540574284068632,-0.49636590035401409,-0.1328034112007444,0.5076825432615559,-0.9792163851108666,0.4851006381436711,-0.4216668712943248,0.6067810466173688,0.03871412230716641,-0.3326578933138263,0.794150750546549,-0.40222351346762916,-0.3369775986651752,-0.28045832734524486,-0.9690846414832185,0.41133974862900177,-0.8382630105156407,-0.6794898561270597,-0.5790843977004199,0.22112410935078456,-0.9488714402169359,-0.5923875403817636],"m_Output":-0.995960917938871,"m_LearnRate":0.01,"m_Error":-0.4277789763259182,"m_DesiredOutput":0.0,"m_BackPropagatedError":-0.002438124093709285},{"m_Bias":1.0,"m_Inputs":[1.0,1.0,1.0,1.0,1.0,1.0,1.0,1.0,1.0,1.0,0.9192387461662293,1.0,1.0,0.6499999761581421,1.0,1.0,0.9192386865615845,0.6399317979812622,1.0,1.0,0.05249999836087227,1.0,1.0,1.0],"m_Weights":[-0.08006680460684797,0.48181426842476696,0.8199589507916765,0.1951375135335302,0.028641965498288879,-1.0089627623053635,-0.8539549591141712,-0.00489540803603199,-0.5869781931953874,-0.4447785770622473,0.45694693995864069,0.10891592102260013,-0.602882857329028,0.5372309926959838,0.4684455523226828,0.6730592089675512,-0.8618224207476205,0.06997456119067931,0.546760850100498,-0.8652555172052195,0.08585662814530974,0.03030859067302275,-0.582466651049466,-0.7873808262358348,0.33239724605815809],"m_Output":-0.9779384801821769,"m_LearnRate":0.01,"m_Error":-0.3637936156405453,"m_DesiredOutput":0.0,"m_BackPropagatedError":-0.010108770743783247},{"m_Bias":1.0,"m_Inputs":[1.0,1.0,1.0,1.0,1.0,1.0,1.0,1.0,1.0,1.0,0.9192387461662293,1.0,1.0,0.6499999761581421,1.0,1.0,0.9192386865615845,0.6399317979812622,1.0,1.0,0.05249999836087227,1.0,1.0,1.0],"m_Weights":[0.8727369990236682,-0.6179582269873908,0.5879919715198331,-0.11533949204143461,-0.6735889417468286,0.4174547417034662,0.3961036312197622,0.14716178358047303,0.41650660149294418,0.4632925077932532,0.3664864052972843,0.7022662217111765,-0.16050175019604105,-0.5352111967734126,-0.47936699023301829,0.5442868484141177,1.0454708862104694,-0.8037505463095466,0.3818652278825836,0.15014938646664226,0.5469673050081835,-0.5964610838909249,-0.49133600049017009,1.007742679766873,-0.5046207156152786],"m_Output":0.9987078442483253,"m_LearnRate":0.01,"m_Error":0.6449919002040013,"m_DesiredOutput":0.0,"m_BackPropagatedError":0.0023044545041289584},{"m_Bias":1.0,"m_Inputs":[1.0,1.0,1.0,1.0,1.0,1.0,1.0,1.0,1.0,1.0,0.9192387461662293,1.0,1.0,0.6499999761581421,1.0,1.0,0.9192386865615845,0.6399317979812622,1.0,1.0,0.05249999836087227,1.0,1.0,1.0],"m_Weights":[-0.8003308280858611,0.4062882983630026,0.6716122343431995,0.9322412248614287,0.25178705231635775,0.9255502846426407,0.1263933298494575,0.6133587617021903,0.9290923674405663,0.3450251450726753,0.8454442641967649,-0.3129952597230112,-0.8054125536672568,-0.6206608776957812,0.138119688724905,-0.8649880168998257,-0.8418091174562357,0.11178997904817369,-0.88048375248262,-0.8243925559293621,-0.8584873201227227,0.4359150573817535,-0.2896167950746949,0.22064507240846666,-0.21422005473161066],"m_Output":-0.45280411550822577,"m_LearnRate":0.01,"m_Error":0.07354861168683683,"m_DesiredOutput":0.0,"m_BackPropagatedError":0.0723066018238988},{"m_Bias":1.0,"m_Inputs":[1.0,1.0,1.0,1.0,1.0,1.0,1.0,1.0,1.0,1.0,0.9192387461662293,1.0,1.0,0.6499999761581421,1.0,1.0,0.9192386865615845,0.6399317979812622,1.0,1.0,0.05249999836087227,1.0,1.0,1.0],"m_Weights":[0.1718408611464106,-0.0008792314416886172,0.14402403467253334,0.22170153916232653,0.9455386814837296,0.5325607611644301,0.8919415577390673,0.6230463425266742,-0.5725292872338351,-0.9175152247168049,0.9507927448798635,0.7792621892791234,0.1927637891242631,-0.906100105052493,0.7045975501269486,-0.7529610662587668,-0.9242761493341029,-0.07787028487337872,0.1280771317404071,-0.3350899236609609,-0.2129469445305426,0.7561922851335674,0.9274455072245621,-0.7826512623390776,-0.043820216506864777],"m_Output":0.8803412127271805,"m_LearnRate":0.01,"m_Error":0.20862091419016516,"m_DesiredOutput":0.0,"m_BackPropagatedError":0.05267108995241335},{"m_Bias":1.0,"m_Inputs":[1.0,1.0,1.0,1.0,1.0,1.0,1.0,1.0,1.0,1.0,0.9192387461662293,1.0,1.0,0.6499999761581421,1.0,1.0,0.9192386865615845,0.6399317979812622,1.0,1.0,0.05249999836087227,1.0,1.0,1.0],"m_Weights":[0.4611526677931214,0.3471073598497907,-0.5684050532098608,0.8543850564434241,-0.5757297632781055,-0.1305089017662181,-0.23176714149861978,-0.5148825240802771,0.2821506612722464,-0.7634409317824017,-0.00004297972068214553,1.1072623035985967,-0.6147476008514903,0.9115144636084415,0.8912594904915843,0.9261203371542263,0.1868636301552956,0.919631361414031,-0.7278539382965621,0.23640667985689962,-0.49443178084822439,-0.1194178399099943,0.07546471569330034,-0.5236430399468787,0.9828921247528956],"m_Output":0.992875958547408,"m_LearnRate":0.01,"m_Error":0.16362151436500367,"m_DesiredOutput":0.0,"m_BackPropagatedError":0.001257455602027142},{"m_Bias":1.0,"m_Inputs":[1.0,1.0,1.0,1.0,1.0,1.0,1.0,1.0,1.0,1.0,0.9192387461662293,1.0,1.0,0.6499999761581421,1.0,1.0,0.9192386865615845,0.6399317979812622,1.0,1.0,0.05249999836087227,1.0,1.0,1.0],"m_Weights":[-0.9939112886613095,-0.4755944773430629,0.5699331221277106,-0.6104208814153291,0.9530957202277013,0.39591052176306759,0.06230034353027305,-0.09302862971301783,-0.676612793254798,-0.39744050244441916,-0.7244155288118284,0.5474379649530736,0.7950486069336601,-0.8520745615540143,0.3248900408525394,0.2919611414276202,0.2364465600054435,-1.0082476473195175,0.9559334464735225,-0.2712366383674576,-0.8190286117707853,0.716726550829093,-0.08613563256727082,0.2713735747150986,-0.19719767542910852],"m_Output":-0.9749683253102555,"m_LearnRate":0.01,"m_Error":-0.18917049454874525,"m_DesiredOutput":0.0,"m_BackPropagatedError":-0.0042217881833338049},{"m_Bias":1.0,"m_Inputs":[1.0,1.0,1.0,1.0,1.0,1.0,1.0,1.0,1.0,1.0,0.9192387461662293,1.0,1.0,0.6499999761581421,1.0,1.0,0.9192386865615845,0.6399317979812622,1.0,1.0,0.05249999836087227,1.0,1.0,1.0],"m_Weights":[0.6923267722154018,0.9495961453285828,0.7121386970599712,0.036685333536407137,-0.5289601936833166,-0.5338979295494942,-0.7885233515887717,0.9572892699838198,0.7962942215101805,-0.6695683131033148,-0.7741330910157686,0.0991722979007717,0.9896914897388086,0.18729758388883956,-0.29123479411221128,0.816458626770051,0.0627546164099733,-0.9607366947300272,0.45773090481508896,0.5323175131049592,-0.6677251222379,0.289907826443974,0.7530808230520422,-0.15213676725367304,0.8632032166007063],"m_Output":0.9983871302739955,"m_LearnRate":0.01,"m_Error":0.12850152482024833,"m_DesiredOutput":0.0,"m_BackPropagatedError":0.0006104512657623254},{"m_Bias":1.0,"m_Inputs":[1.0,1.0,1.0,1.0,1.0,1.0,1.0,1.0,1.0,1.0,0.9192387461662293,1.0,1.0,0.6499999761581421,1.0,1.0,0.9192386865615845,0.6399317979812622,1.0,1.0,0.05249999836087227,1.0,1.0,1.0],"m_Weights":[0.24320945000311496,-0.05796086513790267,0.09634393887451988,0.6708182137485158,0.8162115725270621,-0.6767562665192312,0.655066565237255,-0.6809900939700528,0.72513572992787,-0.6681303626085144,0.4438183513397525,0.3922352249908589,0.9405657572684815,0.8822680083018327,-0.9362675208733918,-0.8833402597139496,0.5971784295757151,-0.9564109578009283,0.7868273692692325,0.1657327847044995,-0.7440106987171311,0.26375222848427695,-0.10669330216591594,0.3113105582468328,0.0027406481926138899],"m_Output":0.9717446161231749,"m_LearnRate":0.01,"m_Error":-0.31222168300751265,"m_DesiredOutput":0.0,"m_BackPropagatedError":-0.03257333108223157},{"m_Bias":1.0,"m_Inputs":[1.0,1.0,1.0,1.0,1.0,1.0,1.0,1.0,1.0,1.0,0.9192387461662293,1.0,1.0,0.6499999761581421,1.0,1.0,0.9192386865615845,0.6399317979812622,1.0,1.0,0.05249999836087227,1.0,1.0,1.0],"m_Weights":[0.13516671085173025,0.6601284107431373,0.4306053529900528,0.758903399070587,-0.5620607956890684,-0.6198347903571529,-0.8181892430803024,-0.15516223040031253,0.15168762950839424,0.27940698969332236,0.5458938553519526,0.15588103683237929,-0.6846215780454239,-0.9811109237753376,-0.9713236555313348,-0.3979509646419019,-0.1783854139765441,-0.7298373038126523,-0.1052711019634508,0.2430834939983582,-0.5744887258735076,0.15729001762149798,-0.8149783399673065,0.40128311647059919,0.4509712532486507],"m_Output":-0.9945112243605654,"m_LearnRate":0.01,"m_Error":-0.5243610893734185,"m_DesiredOutput":0.0,"m_BackPropagatedError":-0.006290961130287001},{"m_Bias":1.0,"m_Inputs":[1.0,1.0,1.0,1.0,1.0,1.0,1.0,1.0,1.0,1.0,0.9192387461662293,1.0,1.0,0.6499999761581421,1.0,1.0,0.9192386865615845,0.6399317979812622,1.0,1.0,0.05249999836087227,1.0,1.0,1.0],"m_Weights":[-0.17071930305107733,0.4788038107067233,-0.8750602945471119,0.7624454866315379,0.7461781008975713,1.047586272460461,-0.855192625765734,0.8149483711628924,-0.19771593134034777,-0.32463509882183497,-0.23756348921546259,-0.7758928001308801,-0.4388569159371333,0.2895459551646221,0.8901672714155854,0.3738764331878448,-0.37142042250207388,-0.25081395861048419,-0.36612779847517526,-0.4231403198771883,-0.017140155442330577,0.30601588218483535,1.0436021268529306,0.792255578829198,-0.42972316246597488],"m_Output":0.8905677716616717,"m_LearnRate":0.01,"m_Error":0.02092241368980441,"m_DesiredOutput":0.0,"m_BackPropagatedError":0.003271829900396208},{"m_Bias":1.0,"m_Inputs":[1.0,1.0,1.0,1.0,1.0,1.0,1.0,1.0,1.0,1.0,0.9192387461662293,1.0,1.0,0.6499999761581421,1.0,1.0,0.9192386865615845,0.6399317979812622,1.0,1.0,0.05249999836087227,1.0,1.0,1.0],"m_Weights":[0.31967376743583217,-0.10629429621871722,0.9068129318082981,-1.0383741710788368,-0.5327670842728725,0.9619258344414071,0.44395636623087256,-1.0172744598836559,-0.7788849557435592,0.7468905031151276,0.08740000376007808,-0.9086452323253671,0.07005176669088331,0.5048193895175438,0.29829287043307059,0.3957256640934598,0.38034388627208368,0.6633686999863064,0.387094149649785,0.3730155387880389,-0.5276885037242766,-0.6806797242061523,-0.02568317381273049,0.09785621089440865,0.9482970148095062],"m_Output":0.9833545179840355,"m_LearnRate":0.01,"m_Error":0.027363225118402197,"m_DesiredOutput":0.0,"m_BackPropagatedError":0.0012472134190999168},{"m_Bias":1.0,"m_Inputs":[1.0,1.0,1.0,1.0,1.0,1.0,1.0,1.0,1.0,1.0,0.9192387461662293,1.0,1.0,0.6499999761581421,1.0,1.0,0.9192386865615845,0.6399317979812622,1.0,1.0,0.05249999836087227,1.0,1.0,1.0],"m_Weights":[0.8661901421736774,-0.6051388943349257,0.594442090465407,-0.1910557000152575,-0.47516721746752729,0.42558130229656607,0.21390561517817945,-0.723530260450023,0.19396689782641914,-0.7105676728870946,-0.08964731677659153,-0.9149363112184979,0.7364230203445167,-0.8361138137097045,-0.41283589984478777,0.08913802459710446,-0.9024805773723882,-0.8630643795633252,0.4824999518537514,-0.3462463230752222,0.053928348239771817,0.35779532921555737,0.15294742208224566,0.14286540877691318,-0.05951753400034304],"m_Output":-0.9954819132550851,"m_LearnRate":0.01,"m_Error":-0.2270923970717379,"m_DesiredOutput":0.0,"m_BackPropagatedError":-0.0013624459035167336},{"m_Bias":1.0,"m_Inputs":[1.0,1.0,1.0,1.0,1.0,1.0,1.0,1.0,1.0,1.0,0.9192387461662293,1.0,1.0,0.6499999761581421,1.0,1.0,0.9192386865615845,0.6399317979812622,1.0,1.0,0.05249999836087227,1.0,1.0,1.0],"m_Weights":[0.5204310475821136,0.6173638436767431,-0.4395476972763027,-0.6889321449523448,-0.9442196169853303,0.03467926656148811,0.9748266581247682,-0.1260065472535143,-0.9733265881194346,-0.40934303150196,0.5438210291390837,0.8203893047627933,0.09724166606694293,0.7538256506823533,-0.7673682920265774,0.8012347208908487,0.8538248676887661,0.900624080459414,0.23419240582098847,-0.5893895382289186,0.3788994982219108,0.6082497632233207,0.5273028285869897,-0.1886285571051955,-0.7124263086527741],"m_Output":0.9799644936586954,"m_LearnRate":0.01,"m_Error":0.15865189127766775,"m_DesiredOutput":0.0,"m_BackPropagatedError":0.007668931877417049},{"m_Bias":1.0,"m_Inputs":[1.0,1.0,1.0,1.0,1.0,1.0,1.0,1.0,1.0,1.0,0.9192387461662293,1.0,1.0,0.6499999761581421,1.0,1.0,0.9192386865615845,0.6399317979812622,1.0,1.0,0.05249999836087227,1.0,1.0,1.0],"m_Weights":[-0.7800603429687999,-0.9962590779918502,0.3518198687443986,-0.7566207728803376,-0.18613722584581844,-0.5493311835837316,0.19312639795402104,-0.63905802261522,0.8685336660413007,0.02571478519837829,0.7626468880188659,-0.2490875826513073,-0.9950794980738758,0.11473706583789935,0.24273460392909436,-0.11381485183323866,0.16112597232096413,0.7350822663143816,0.4607136186760075,-0.0014758324530446028,0.21544134533273777,-0.04388796075198072,-0.6589748548950564,0.1906637494201447,-0.1535832522429103],"m_Output":-0.9673655712904263,"m_LearnRate":0.01,"m_Error":-0.03475209054522732,"m_DesiredOutput":0.0,"m_BackPropagatedError":-0.0015263329913979228},{"m_Bias":1.0,"m_Inputs":[1.0,1.0,1.0,1.0,1.0,1.0,1.0,1.0,1.0,1.0,0.9192387461662293,1.0,1.0,0.6499999761581421,1.0,1.0,0.9192386865615845,0.6399317979812622,1.0,1.0,0.05249999836087227,1.0,1.0,1.0],"m_Weights":[0.28428192490527967,0.40033925291993319,0.9664960010547095,-0.1728360932352589,0.6095269558440049,0.9230583873331221,-0.8945259041042675,0.7791509195874642,-1.011983268906666,0.7225545990471332,-0.18852867577728647,-0.4911296186104846,-0.4779109833873517,0.2295726660250224,-0.9298814464041014,-0.7750390793856365,0.3750078823547671,0.20232447655883635,-0.34736308872441737,-0.6304780249469665,0.08383825423461455,0.8557608387431476,-0.2507498244393896,0.9994023743101468,0.49176201046466397],"m_Output":0.8886930486383161,"m_LearnRate":0.01,"m_Error":0.14644260391861708,"m_DesiredOutput":0.0,"m_BackPropagatedError":0.023821585091977919},{"m_Bias":1.0,"m_Inputs":[1.0,1.0,1.0,1.0,1.0,1.0,1.0,1.0,1.0,1.0,0.9192387461662293,1.0,1.0,0.6499999761581421,1.0,1.0,0.9192386865615845,0.6399317979812622,1.0,1.0,0.05249999836087227,1.0,1.0,1.0],"m_Weights":[-0.8061465974960366,0.9056052361670088,1.0025476379170413,0.7560104792971294,0.03326362775995196,0.30872124407073689,0.8070732625136179,-0.7569641756925344,0.3865127791661058,0.6890184748009038,0.1738448161610769,0.31060147107591948,0.7222717831319417,-0.5675561610338938,0.25510908590207678,0.8435061386674339,0.1238727512700367,-0.8781270978732474,0.553053417196362,-0.467649800637022,-0.4204462718595939,-0.21172144125139043,-0.267183226625826,0.5998019390255855,-0.06021498035719842],"m_Output":0.9993196015576024,"m_LearnRate":0.01,"m_Error":-0.1474603347095951,"m_DesiredOutput":0.0,"m_BackPropagatedError":-0.00032054466656753324},{"m_Bias":1.0,"m_Inputs":[1.0,1.0,1.0,1.0,1.0,1.0,1.0,1.0,1.0,1.0,0.9192387461662293,1.0,1.0,0.6499999761581421,1.0,1.0,0.9192386865615845,0.6399317979812622,1.0,1.0,0.05249999836087227,1.0,1.0,1.0],"m_Weights":[1.0369453074792268,0.8913332352744241,0.8502810591011352,0.08793649120023668,1.0392880370832849,0.543122367294408,-0.13826627214793184,-0.890126913301912,0.44115645096032665,0.5714476343803794,-0.8552694354802808,-0.7943654995801576,-0.8877445584247499,0.13073736570518799,-0.49628287660675826,0.13761086686641994,-0.5732582244754859,0.29499733463926128,0.5816851639555577,0.0264616257951638,0.056110345350939967,0.7392074101323881,-0.09982273611751459,0.564943918300595,-0.36917207664772008],"m_Output":0.9754121163486894,"m_LearnRate":0.01,"m_Error":0.050008248079719628,"m_DesiredOutput":0.0,"m_BackPropagatedError":0.003923874718151764},{"m_Bias":1.0,"m_Inputs":[1.0,1.0,1.0,1.0,1.0,1.0,1.0,1.0,1.0,1.0,0.9192387461662293,1.0,1.0,0.6499999761581421,1.0,1.0,0.9192386865615845,0.6399317979812622,1.0,1.0,0.05249999836087227,1.0,1.0,1.0],"m_Weights":[0.9771605008804833,0.7546440348782663,0.2550855124067341,0.4992929789248478,-0.08671862967946116,0.39637705936420938,0.16488426859036535,-0.5841519253561361,-0.16974629974108003,-0.004202873246733564,0.3930664893134875,0.943308783237744,0.18844031393696757,0.43067713462175158,-0.8535696497013848,-0.6598014981243737,0.26029317282419536,-0.7226612885450563,-0.16397230739178579,0.08919344791527657,0.6726028063124564,-0.019864945042695194,-0.018875862163172047,0.0315012077150176,0.34230978354650407],"m_Output":0.9980809846488001,"m_LearnRate":0.01,"m_Error":-0.005553296060324064,"m_DesiredOutput":0.0,"m_BackPropagatedError":-0.000018531963233967478},{"m_Bias":1.0,"m_Inputs":[1.0,1.0,1.0,1.0,1.0,1.0,1.0,1.0,1.0,1.0,0.9192387461662293,1.0,1.0,0.6499999761581421,1.0,1.0,0.9192386865615845,0.6399317979812622,1.0,1.0,0.05249999836087227,1.0,1.0,1.0],"m_Weights":[-0.9532917072354484,0.3843897864956633,0.08015311783884614,-0.5137192365788529,0.7805022062509901,-0.76930759062442,0.01719334114321394,-0.8057915249245691,-0.6258541180114496,0.8275587332104403,0.6062946034866587,0.46833337928842186,-0.5917167010830481,-0.6429965295705596,-0.9191271803708114,-0.1664259768197382,0.6013113894951574,0.19509292770385013,-1.0385314998209339,-0.07295782721003366,0.04261747271520864,0.08781210815063008,0.6678115372732543,0.267373754297672,-0.4697149144283677],"m_Output":-0.962889382910485,"m_LearnRate":0.01,"m_Error":0.3893826475072211,"m_DesiredOutput":0.0,"m_BackPropagatedError":0.06336380120027854},{"m_Bias":1.0,"m_Inputs":[1.0,1.0,1.0,1.0,1.0,1.0,1.0,1.0,1.0,1.0,0.9192387461662293,1.0,1.0,0.6499999761581421,1.0,1.0,0.9192386865615845,0.6399317979812622,1.0,1.0,0.05249999836087227,1.0,1.0,1.0],"m_Weights":[0.6069113208690045,0.3041112155572503,0.8612945607346463,-0.6572055798375209,-0.24352375610413214,-0.0724874248235382,-0.29949974389416997,-0.8678436508326674,-0.9243268751563949,-0.3988214135542321,0.7867806157948483,-1.0364240907995293,0.7193880376132763,