{"m_LearnRate":0.02,"m_Inputs":[0.02500000037252903,1.0,1.0,0.02548978105187416,1.0,1.0,0.027059802785515786,1.0,1.0,0.030067244544625284,1.0,1.0,0.0353553369641304,1.0,1.0,1.0,1.0,1.0,1.0,1.0,1.0,1.0,1.0,1.0,1.0,1.0,1.0,1.0,1.0,1.0,1.0,1.0,0.9962543249130249,1.0,1.0,0.6862319707870483,1.0,1.0,0.5391689538955689,1.0,1.0,0.15785303711891175,1.0,1.0,0.1420639604330063,1.0,1.0,0.13382132351398469,1.0,1.0,0.13124999403953553,1.0,1.0,0.13382132351398469,1.0,1.0,0.1420639604330063,1.0,1.0,0.15785303711891175,1.0,1.0,1.0,1.0,1.0,1.0,1.0,1.0,1.0,1.0,1.0,1.0,1.0,1.0,1.0,1.0,1.0,1.0,1.0,1.0,1.0,1.0,1.0,1.0,0.0353553369641304,1.0,1.0,0.030067244544625284,1.0,1.0,0.027059802785515786,1.0,1.0,0.02548978105187416,1.0,1.0],"m_HiddenLayer":[{"m_Bias":1.0,"m_Inputs":[1.0,1.0,1.0,1.0,1.0,1.0,1.0,1.0,1.0,1.0,1.0,1.0,1.0,1.0,1.0,1.0,1.0,1.0,1.0,1.0,1.0,1.0,1.0,1.0,1.0,1.0,1.0,1.0,1.0,1.0,1.0,1.0,1.0,1.0,1.0,1.0,1.0,1.0,0.8927224278450012,1.0,1.0,0.15785303711891175,1.0,1.0,0.1420639604330063,1.0,1.0,0.13382132351398469,1.0,1.0,0.13124999403953553,1.0,1.0,0.13382132351398469,1.0,1.0,0.1420639604330063,1.0,1.0,0.15785303711891175,1.0,1.0,1.0,1.0,1.0,1.0,1.0,1.0,1.0,1.0,1.0,1.0,1.0,1.0,1.0,1.0,1.0,1.0,1.0,1.0,1.0,1.0,1.0,1.0,1.0,1.0,1.0,1.0,1.0,1.0,1.0,1.0,1.0,1.0,1.0,1.0],"m_Weights":[0.6444001264928287,-0.24029610573852859,0.7877001264928288,-0.7919910847599981,0.9743420449189332,-0.7542998735071712,-0.230135914697779,0.12926861801369175,-0.7657998735071712,-0.2372790695674771,0.5275687154091083,-0.40859987350717266,0.29676576789524769,-0.04863338302484904,-0.8890998735071712,-0.11112938882595333,0.33709784436280745,-0.8898998735071713,0.4929806796621042,-0.6135021627133243,0.5432001264928288,-0.7844140603603925,0.4881978335930709,-0.09379987350717127,-0.8401234634985394,0.8238062204395946,0.7761001264928288,-0.25882275533085877,0.08059783359307216,0.28550859963190797,0.4115765365014462,-0.7711021627133243,0.08591296785122268,-0.7358271186556568,0.8041974449301576,-0.0042856183091782439,0.4625623811038642,0.3293183745265094,-0.48178494760578047,0.5043819314539815,0.5932189698043394,-0.47858457981867849,-0.8075646156875201,-0.49868126631547068,0.27142600927740309,0.702019757523357,0.9412292730050043,0.08774881687050118,-0.548288114604309,0.001373711689231313,-0.41754406819409425,0.4865091795086942,-0.024770645263108089,0.35474881687050027,-0.9678884794178444,0.4296183508261978,0.27222600927740306,-0.11848097495526165,-0.9508810872895943,-0.8486845798188237,-0.5304665999484233,-0.9703800993084903,-0.9505849476051564,-0.05059987350716941,0.35220012649283358,0.2994143816937963,0.5062978316375679,0.033700126492834447,0.1480129678559262,0.11589778861235836,0.42720012649283359,-0.9916914003595835,0.5926977661510058,0.9890143010302993,-0.20609987350254706,0.022597759144043773,-0.9770998735071659,-0.012599873502808026,0.6355042248804971,-0.5423998735071651,0.8832001264963556,-0.3108313444794755,-0.7107998735071659,-0.9201998735049345,-0.29613603388705947,0.9246359550932568,0.2543001264929694,0.73186401608946,-0.7683424280281033,-0.6248998735071712,0.7240147705745209,-0.41896775355143836,0.28100012649282737,-0.6324887045827217,0.03487913666968454,0.5643001264928288,-0.5273905188078664],"m_Output":-0.9729683291886793,"m_LearnRate":0.02,"m_Error":1.7748546827800677e-14,"m_DesiredOutput":0.0,"m_BackPropagatedError":5.910393201669242e-17},{"m_Bias":1.0,"m_Inputs":[1.0,1.0,1.0,1.0,1.0,1.0,1.0,1.0,1.0,1.0,1.0,1.0,1.0,1.0,1.0,1.0,1.0,1.0,1.0,1.0,1.0,1.0,1.0,1.0,1.0,1.0,1.0,1.0,1.0,1.0,1.0,1.0,1.0,1.0,1.0,1.0,1.0,1.0,0.8927224278450012,1.0,1.0,0.15785303711891175,1.0,1.0,0.1420639604330063,1.0,1.0,0.13382132351398469,1.0,1.0,0.13124999403953553,1.0,1.0,0.13382132351398469,1.0,1.0,0.1420639604330063,1.0,1.0,0.15785303711891175,1.0,1.0,1.0,1.0,1.0,1.0,1.0,1.0,1.0,1.0,1.0,1.0,1.0,1.0,1.0,1.0,1.0,1.0,1.0,1.0,1.0,1.0,1.0,1.0,1.0,1.0,1.0,1.0,1.0,1.0,1.0,1.0,1.0,1.0,1.0,1.0],"m_Weights":[0.24369960872803396,0.14929960727992393,0.9719996087280337,-0.8035003919711342,-0.09240039107581631,0.9395996087280337,0.33649974151520048,0.5743996088877384,-0.42600039127196567,0.8944998760494818,-0.013700391112755516,-0.43920039127196566,0.010299918973219962,0.4068996036142692,-0.7153003912719663,0.24669994000990015,0.5915996034270245,-0.7319003912719663,0.7810999502729547,0.7405996034105877,0.9695996087280338,-0.754600043323556,0.42729960340200759,-0.9550003912719662,0.7743999600366285,-0.19810039659720017,-0.22720039127196607,0.3915999610796805,-0.15370039659799276,-0.2727003939318855,0.2249999600366297,-0.045800396589413049,0.2294996046968872,-0.45020004330500576,-0.22170039200547887,0.8372996042531258,0.6625999502984424,-0.7397003953069534,-0.025300395957385658,-0.2513003912462463,-0.0482003909220125,-0.49540039607281918,-0.870900391077682,-0.9706003913828245,-0.7329003856445173,0.1702996089275964,0.2205996117068655,-0.03260036273105079,0.4386996089298712,0.3331995940742577,0.6884996444169137,-0.901300391069182,0.2527996108529609,0.8228996372689504,-0.49770039106978117,-0.0018003912550693664,0.7218996143554827,0.9268996089282938,-0.578000391255121,-0.8944003960728186,0.16669960892460884,0.9447996087447869,-0.27200039595738498,0.8465996087280338,-0.3305003912719657,-0.967900395746875,0.331199597172821,-0.5395003912719663,-0.3715003953031126,-0.5526004030438223,0.5840996087280337,0.33129960606811328,0.29329959684307857,0.03239960866992493,-0.21130039127196605,0.4649995968077968,-0.8837003912719663,0.3978996087280343,0.7778995968457493,-0.39590039127196566,0.5812996087280338,0.8053995947606446,0.9528996087280337,0.5130996087280337,0.038799594620638349,0.12619960890616636,0.7012996087280338,0.4065996060066719,-0.9526003910286335,0.7799996087280338,-0.8846003919497231,0.7355999396016553,0.8381996087280337,-0.13090039196243054,0.5818999440563076,0.006899608728033284,0.7764996080309351],"m_Output":0.99999998821632,"m_LearnRate":0.02,"m_Error":-7.009411179397365e-15,"m_DesiredOutput":0.0,"m_BackPropagatedError":-3.984403913403753e-21},{"m_Bias":1.0,"m_Inputs":[1.0,1.0,1.0,1.0,1.0,1.0,1.0,1.0,1.0,1.0,1.0,1.0,1.0,1.0,1.0,1.0,1.0,1.0,1.0,1.0,1.0,1.0,1.0,1.0,1.0,1.0,1.0,1.0,1.0,1.0,1.0,1.0,1.0,1.0,1.0,1.0,1.0,1.0,0.8927224278450012,1.0,1.0,0.15785303711891175,1.0,1.0,0.1420639604330063,1.0,1.0,0.13382132351398469,1.0,1.0,0.13124999403953553,1.0,1.0,0.13382132351398469,1.0,1.0,0.1420639604330063,1.0,1.0,0.15785303711891175,1.0,1.0,1.0,1.0,1.0,1.0,1.0,1.0,1.0,1.0,1.0,1.0,1.0,1.0,1.0,1.0,1.0,1.0,1.0,1.0,1.0,1.0,1.0,1.0,1.0,1.0,1.0,1.0,1.0,1.0,1.0,1.0,1.0,1.0,1.0,1.0],"m_Weights":[-0.7198952272659269,0.3503444681025851,-0.7672952272659269,0.8305132565494273,-0.24706824530395719,-0.6634952272659269,-0.015197755227989923,0.7446315717082719,-0.6451952272659269,-0.19905294430942553,-0.7840617107406034,0.03180477273407132,0.03265871257946814,-0.12255169612105561,-0.678295227265927,-0.8497767467121818,0.8156029657917113,-0.47809522726592876,0.3642242830594875,0.9896029601889788,0.21260477273407259,-0.18917785847919289,0.5410029573545249,-0.6715952272659269,0.9270971230812825,-0.5892831772342003,-0.15379522726592743,-0.665593979439106,0.8461029573545249,0.4907197709015997,-0.5733028769187285,0.448102960188977,0.7794275039515354,0.6908029224824219,0.8321254383481563,-0.9642699760622718,0.5445017734430047,-0.23187941839674479,-0.18096875689867226,0.46271218113753345,-0.039550162072440418,0.7616319116418069,-0.32670275432820508,-0.6843770970132603,0.47859578875028638,-0.6359462079383244,0.008418205617773055,-0.10406516037650843,0.782886456929857,0.5761540123180426,-0.9818217828076656,-0.663740048486112,-0.7814319135242712,0.01293483962349167,-0.4469215649038649,0.4714173518687357,0.8142957887502874,0.89573768569194,0.9112200949628924,-0.6553680883584403,0.48185118173077159,-0.34387508175654088,0.898331243102378,-0.13819522726593054,-0.6210952272659296,-0.2322699760575798,0.25877369014485215,0.3466047727340677,0.045827503958605627,-0.7074619049170513,-0.39619522726593228,0.05061977091806024,0.7096239221061518,0.8929148384315889,0.02800477274444289,0.4576506964211239,-0.8760952272659296,0.2202047727431963,-0.14336540619112723,0.5498047727340689,0.400604772739197,0.95262968550277,-0.4617952272659323,-0.7404952272635812,0.4741491707688939,-0.9254657200140204,0.22750477273422133,-0.24105943176092144,0.12147163283063774,-0.6431952272659269,-0.7868971357894193,0.6385642506619786,-0.15169522726592744,-0.5341096644926429,0.9741793960319206,-0.7000952272659269,0.8547315824084765],"m_Output":0.942639917889431,"m_LearnRate":0.02,"m_Error":-2.907994756107964e-14,"m_DesiredOutput":0.0,"m_BackPropagatedError":-1.886249434690404e-14},{"m_Bias":1.0,"m_Inputs":[1.0,1.0,1.0,1.0,1.0,1.0,1.0,1.0,1.0,1.0,1.0,1.0,1.0,1.0,1.0,1.0,1.0,1.0,1.0,1.0,1.0,1.0,1.0,1.0,1.0,1.0,1.0,1.0,1.0,1.0,1.0,1.0,1.0,1.0,1.0,1.0,1.0,1.0,0.8927224278450012,1.0,1.0,0.15785303711891175,1.0,1.0,0.1420639604330063,1.0,1.0,0.13382132351398469,1.0,1.0,0.13124999403953553,1.0,1.0,0.13382132351398469,1.0,1.0,0.1420639604330063,1.0,1.0,0.15785303711891175,1.0,1.0,1.0,1.0,1.0,1.0,1.0,1.0,1.0,1.0,1.0,1.0,1.0,1.0,1.0,1.0,1.0,1.0,1.0,1.0,1.0,1.0,1.0,1.0,1.0,1.0,1.0,1.0,1.0,1.0,1.0,1.0,1.0,1.0,1.0,1.0],"m_Weights":[0.8269990981209642,0.9503551403755149,-0.2797009018790385,0.13570957214680838,0.6731610473780688,0.8593990981209642,0.5209445778234587,-0.007829012389706569,-0.023200901879038416,-0.3427606731733119,-0.6624360349953493,0.9941990981209642,0.12545372157216226,0.3601501132297659,-0.3965009018790385,0.06290785554859665,-0.6282024137982284,-0.046500901879038509,0.5478910513350993,-0.8718024184861913,0.6482990981209642,0.39926465243196437,-0.688702420933287,0.5495990981209642,-0.5063390417410023,-0.7683990615894961,-0.3016009018790385,-0.9274432176797282,-0.023102420933289244,-0.7882978084634322,0.23666095825890219,0.9278975815138086,-0.26249621334749209,0.5957754946476493,-0.6837900573306895,0.29240430133150727,-0.8528039353924239,-0.5584794825124498,0.7513045427510117,-0.8899520667976884,0.045166546104118767,0.2909046751369563,-0.4824374672735209,0.444854117501078,-0.08648737204567973,-0.20578734082141157,-0.9741450949078613,0.02022989350918811,0.6395387565778213,-0.41172403668045107,-0.5021647204202956,0.5425469156482471,-0.5540890668105972,-0.8069701064908093,-0.7633612174069463,-0.5642890667222319,0.6472126279543227,0.18291271141240107,-0.35598910330572205,0.4485046751368977,0.17316277140690104,0.45041083236828008,-0.9775954572486473,-0.22550090187903858,0.42269909812101749,-0.5830956986646499,0.25102047653603246,0.5323990981210193,0.04920378665886703,0.3051358986337289,-0.07530090187898213,0.9398021915449345,0.1959873355367123,0.4487884823014337,0.09309909812811695,-0.6488590096551959,-0.10470090187898212,-0.1263009018721853,-0.37011007641503,0.7129990981210193,-0.7846009018731492,0.6726670873013273,-0.5534009018789816,-0.6074009018751615,0.7088379514256212,0.7135929073068444,0.4913990981212083,-0.44534249487722146,0.38012840872310285,0.8918990981209641,0.6605224556189868,-0.018508099523933814,0.8068990981209642,-0.6817664899680918,-0.04865672315194928,0.6035990981209641,0.28399148622596817],"m_Output":0.9674611657357448,"m_LearnRate":0.02,"m_Error":-5.5443845273084637e-14,"m_DesiredOutput":0.0,"m_BackPropagatedError":-4.88529509435384e-14},{"m_Bias":1.0,"m_Inputs":[1.0,1.0,1.0,1.0,1.0,1.0,1.0,1.0,1.0,1.0,1.0,1.0,1.0,1.0,1.0,1.0,1.0,1.0,1.0,1.0,1.0,1.0,1.0,1.0,1.0,1.0,1.0,1.0,1.0,1.0,1.0,1.0,1.0,1.0,1.0,1.0,1.0,1.0,0.8927224278450012,1.0,1.0,0.15785303711891175,1.0,1.0,0.1420639604330063,1.0,1.0,0.13382132351398469,1.0,1.0,0.13124999403953553,1.0,1.0,0.13382132351398469,1.0,1.0,0.1420639604330063,1.0,1.0,0.15785303711891175,1.0,1.0,1.0,1.0,1.0,1.0,1.0,1.0,1.0,1.0,1.0,1.0,1.0,1.0,1.0,1.0,1.0,1.0,1.0,1.0,1.0,1.0,1.0,1.0,1.0,1.0,1.0,1.0,1.0,1.0,1.0,1.0,1.0,1.0,1.0,1.0],"m_Weights":[0.7557734424030649,-0.9590781568016534,-0.4880265575969352,0.5421507887222102,-0.48997751726331648,0.9863734424030649,-0.6672427986155638,0.6859641083294065,-0.42662655759693476,-0.6554468588515513,0.01395980966152096,0.1152734424030647,0.8832516458633579,0.5571344334528691,-0.2111265575969359,-0.4505665810706001,-0.05364447297909967,0.24847344240306419,0.4973619247787921,0.019155471471205534,0.645273442403065,0.06564483510264586,0.7302554424726732,-0.059126557596934987,-0.2732456610914814,-0.8249445630091854,0.17277344240306409,0.6805517809041437,0.9623554424726731,-0.8516355564685171,-0.08604566109148952,-0.484744528528794,0.5049598044774278,0.10336463943302062,0.15802231403890094,-0.14464169729531249,-0.8459049192825655,-0.8061235322722784,0.7282575896474224,0.7226048396678773,-0.8622937258438825,-0.27064280136352306,0.17503658450275012,0.38285334375372528,-0.49974475597427689,0.4638061934156572,0.5119634930011833,-0.6425486600451695,-0.10925680860523136,-0.5618262982334076,-0.11814987793794353,0.08875613238097666,0.46904149226520966,-0.3941486600451714,0.6577452322391687,-0.2952811355464518,-0.6751447559742738,0.5902102910566199,-0.1714812759499144,-0.6510428013635211,-0.16735663971771543,-0.3343815228260835,0.7376575896474394,-0.5596265575969273,0.4440734424033247,-0.4873416972977237,0.6086489602796752,-0.20642655759667534,-0.5896401955220963,0.9316297750755478,-0.5894265575966748,-0.2319355564725004,0.518163145352393,0.7910525953140859,-0.10182655759653359,-0.08628883584335702,0.9105734424033252,-0.6399265575965143,-0.5614368518932538,0.2829734424033279,-0.3211265575964613,-0.18593177655005567,-0.19012655759667602,0.5286734424034214,0.2658073624058119,0.8489958297376196,0.058673442403087718,-0.08451125184866849,0.4702746961032311,-0.528326557596935,-0.45269138867606048,-0.4145997853758307,0.38057344240306525,0.39603364380707686,-0.09005331203072217,0.48627344240306527,0.008546712057881],"m_Output":0.37464838996155849,"m_LearnRate":0.02,"m_Error":-7.776551160882918e-14,"m_DesiredOutput":0.0,"m_BackPropagatedError":-7.512508990080215e-14},{"m_Bias":1.0,"m_Inputs":[1.0,1.0,1.0,1.0,1.0,1.0,1.0,1.0,1.0,1.0,1.0,1.0,1.0,1.0,1.0,1.0,1.0,1.0,1.0,1.0,1.0,1.0,1.0,1.0,1.0,1.0,1.0,1.0,1.0,1.0,1.0,1.0,1.0,1.0,1.0,1.0,1.0,1.0,0.8927224278450012,1.0,1.0,0.15785303711891175,1.0,1.0,0.1420639604330063,1.0,1.0,0.13382132351398469,1.0,1.0,0.13124999403953553,1.0,1.0,0.13382132351398469,1.0,1.0,0.1420639604330063,1.0,1.0,0.15785303711891175,1.0,1.0,1.0,1.0,1.0,1.0,1.0,1.0,1.0,1.0,1.0,1.0,1.0,1.0,1.0,1.0,1.0,1.0,1.0,1.0,1.0,1.0,1.0,1.0,1.0,1.0,1.0,1.0,1.0,1.0,1.0,1.0,1.0,1.0,1.0,1.0],"m_Weights":[-0.2689999698401932,0.9415000303829361,0.9875000301598065,0.834400030351262,-0.2819999698381551,0.9471000301598065,-0.061899969714817298,-0.9614999698385485,-0.8862999698401936,0.5494000302173356,0.6809000301614466,0.7076000301598064,-0.27729996972342588,-0.20589999918208766,0.9648000301598064,0.13040003012025756,0.5455000006554204,0.6700000301598065,0.9983000302047455,0.855700000563937,-0.7910999698401936,0.15840003020559074,0.5989000005161781,0.45390003015980687,-0.2888999697938831,0.32790000050463427,0.9386000301598064,0.40290003020625517,0.8267000005161781,0.3874000153369192,-0.8590999697938837,-0.11789999943606011,0.41190000769550169,0.9241000302056829,0.16400000065452575,-0.5969999947774455,-0.5468999697950546,0.43300000096374388,0.9453000040494769,-0.13189996984023978,0.8563000303107106,0.4747000034062104,0.15270003016287704,-0.7196999696825642,0.3623000030425899,0.1914000301630783,-0.2725999696921974,0.6621000028564553,-0.43429996983684457,0.437900030338814,0.8195000027983902,0.7091000301632114,-0.10489996969194826,0.6150000028564553,-0.21719996983679627,0.5725000303171733,-0.6573999969574101,-0.4664999698368305,0.12320003031668998,0.39010000340621039,-0.9915999698368928,0.5351000303158318,-0.7882999959505231,-0.27379996984019319,0.4084000301598068,-0.20129999477744826,-0.7043999954730179,-0.2013999698401912,0.6300000076955012,0.5617000040464041,-0.32269996984019319,-0.8874999846630883,0.7247000037955186,0.13020003015751714,0.9994000301598064,-0.2658999962827492,-0.9942999698401935,0.3186000301598068,-0.9083999962018988,0.5196000301598064,-0.3995999698401932,-0.7234999959217594,-0.1627999698401912,-0.6111999698401935,0.5678000045639899,-0.5682999698361633,0.9869000301598064,0.7969000301992676,0.14120003017817049,0.5915000301598065,-0.9396999696546007,0.9195000300136715,-0.6901999698401936,-0.44479996965112059,-0.1403999700026402,-0.6788999698401935,0.263000030350696],"m_Output":0.99999999993868,"m_LearnRate":0.02,"m_Error":6.61601839337196e-14,"m_DesiredOutput":0.0,"m_BackPropagatedError":1.4821389673876943e-23},{"m_Bias":1.0,"m_Inputs":[1.0,1.0,1.0,1.0,1.0,1.0,1.0,1.0,1.0,1.0,1.0,1.0,1.0,1.0,1.0,1.0,1.0,1.0,1.0,1.0,1.0,1.0,1.0,1.0,1.0,1.0,1.0,1.0,1.0,1.0,1.0,1.0,1.0,1.0,1.0,1.0,1.0,1.0,0.8927224278450012,1.0,1.0,0.15785303711891175,1.0,1.0,0.1420639604330063,1.0,1.0,0.13382132351398469,1.0,1.0,0.13124999403953553,1.0,1.0,0.13382132351398469,1.0,1.0,0.1420639604330063,1.0,1.0,0.15785303711891175,1.0,1.0,1.0,1.0,1.0,1.0,1.0,1.0,1.0,1.0,1.0,1.0,1.0,1.0,1.0,1.0,1.0,1.0,1.0,1.0,1.0,1.0,1.0,1.0,1.0,1.0,1.0,1.0,1.0,1.0,1.0,1.0,1.0,1.0,1.0,1.0],"m_Weights":[-0.5667515961406425,-0.11929959231045999,-0.42965159614064327,-0.10137819546251387,0.9355440467815848,-0.9611515961406425,0.00670450488271858,-0.23265226751791796,0.7138484038593574,0.9872132629966424,0.771647734557367,0.6224484038593575,-0.9477409970826137,0.5732858736547631,0.03084840385935712,-0.5501756575086662,0.610085103790563,-0.2035515961406427,0.740804863020824,-0.29561571261616045,0.8296484038593575,0.16724341874744887,-0.016716138791226376,-0.1813515961406427,-0.49233704191032198,0.6639858825646297,-0.9546515961406425,0.5102692298899767,-0.23561613879122624,0.809318559519919,0.17836295808975753,-0.7228157126161598,0.6848516228392995,0.4800427861125995,0.5846150393489255,-0.5466700393044104,0.5369031612191929,-0.37140420027364187,-0.3217803147864926,-0.7487522066900725,0.8383512210520447,0.6349140505674028,0.8675211456149589,-0.5460604492254928,-0.7712301860686115,-0.8118799649444464,0.09538499192886865,-0.9685029104319283,0.043119379757981388,0.481843845697249,-0.2869632061984518,0.7723189198480934,0.13145624257948786,0.6300970895680716,0.4469190071158999,0.27437325533177767,0.9017698139313886,0.7585192868586541,-0.5965252759432917,-0.7220859494326352,1.000319822713609,0.5088773065682976,-0.9906803147862405,0.9112484038593575,-0.17825159614063447,0.5008299606592237,0.9402564595608297,-0.4156515961406348,0.9940516228460029,-0.41991650893472856,-0.07935159614063468,-0.013581440535974035,-0.8792546019426917,0.4942543405575313,-0.12875159613264126,-0.8026664852991076,0.3043484038593652,-0.4637515961330219,-0.4075529433461748,-0.6757515961406345,-0.4283515961342416,-0.9827176518984819,-0.5281515961406346,0.28694840386351447,0.10006884000176004,0.40902792679941615,0.14974840385962175,-0.9373853636035283,-0.9641235228331356,-0.6819515961406425,-0.44545489203427088,0.7829773844846618,-0.7664515961406425,-0.596828073173114,-0.7423293085965927,-0.6624515961406425,0.6283337225793217],"m_Output":-0.9960406824515997,"m_LearnRate":0.02,"m_Error":7.453845043680249e-14,"m_DesiredOutput":0.0,"m_BackPropagatedError":4.627159323519333e-17},{"m_Bias":1.0,"m_Inputs":[1.0,1.0,1.0,1.0,1.0,1.0,1.0,1.0,1.0,1.0,1.0,1.0,1.0,1.0,1.0,1.0,1.0,1.0,1.0,1.0,1.0,1.0,1.0,1.0,1.0,1.0,1.0,1.0,1.0,1.0,1.0,1.0,1.0,1.0,1.0,1.0,1.0,1.0,0.8927224278450012,1.0,1.0,0.15785303711891175,1.0,1.0,0.1420639604330063,1.0,1.0,0.13382132351398469,1.0,1.0,0.13124999403953553,1.0,1.0,0.13382132351398469,1.0,1.0,0.1420639604330063,1.0,1.0,0.15785303711891175,1.0,1.0,1.0,1.0,1.0,1.0,1.0,1.0,1.0,1.0,1.0,1.0,1.0,1.0,1.0,1.0,1.0,1.0,1.0,1.0,1.0,1.0,1.0,1.0,1.0,1.0,1.0,1.0,1.0,1.0,1.0,1.0,1.0,1.0,1.0,1.0],"m_Weights":[0.9664396279489685,0.6425927192976675,-0.2620603720510316,-0.7360354020532494,-0.47462536102101407,-0.9526603720510315,-0.5209657322795478,-0.42605713771698208,0.7366396279489685,0.6674391386069359,0.6503428522854138,-0.2310603720510327,0.26536517490983799,0.9803941946946483,0.3758396279489683,0.17214713525744344,-0.9103098268933851,0.7166396279489685,0.989800850142313,0.047489709696412727,-0.2673603720510318,-0.18200175174469886,0.42098946775317166,-0.6385603720510314,0.8924081794850935,-0.44350577459194998,0.6863396279489685,-0.9643921063037588,0.14738946775317075,-0.2369299346814037,0.7276081794850933,0.2464897096964115,-0.4563657949157609,-0.42108961733680386,0.3490052263027017,-0.09287742428423192,0.8717882246893474,-0.9242907800627014,-0.9402829763165207,0.9866616050156944,-0.9880183079778796,-0.2736860208159136,0.39049551616264369,0.7650726187029039,0.5126722430493282,0.3168938528960277,-0.2033525486911516,-0.6490974655518647,0.20689720339363394,-0.3784810968648997,-0.8427568205394229,-0.285270536359521,-0.718410506067356,0.30340253444813466,-0.07600276849706927,0.15889583193679014,-0.768727756950672,-0.6026060906656652,-0.6279055782289387,0.9785139791840084,-0.6183040071700858,-0.5560080577737832,0.4363170236839926,-0.016360372051053994,0.9399396279489686,-0.5862774242969708,-0.7933380613817617,-0.3132603720510331,-0.36076579489712248,-0.5504738530515906,0.31033962794896699,-0.983729934694474,0.6374464384743881,-0.9865905120246511,0.041639627970858957,-1.013240818366403,0.4483396279489669,0.6648396279699245,-0.170649838317807,-0.40356037205104047,0.7712396279669279,0.32025561907232,-0.1502603720510338,-0.46676037203922779,-0.407986524549683,0.03640102497580438,-0.024460372050281673,0.25528624840426547,0.680294791672372,-0.7969603720510315,-0.30433932708223007,0.4971918641149062,0.7219396279489686,-0.8988589462283768,0.6257722438032254,0.5826396279489686,0.3100352217256924],"m_Output":-0.9625712799958437,"m_LearnRate":0.02,"m_Error":6.468572823427941e-14,"m_DesiredOutput":0.0,"m_BackPropagatedError":2.8105570375082039e-18},{"m_Bias":1.0,"m_Inputs":[1.0,1.0,1.0,1.0,1.0,1.0,1.0,1.0,1.0,1.0,1.0,1.0,1.0,1.0,1.0,1.0,1.0,1.0,1.0,1.0,1.0,1.0,1.0,1.0,1.0,1.0,1.0,1.0,1.0,1.0,1.0,1.0,1.0,1.0,1.0,1.0,1.0,1.0,0.8927224278450012,1.0,1.0,0.15785303711891175,1.0,1.0,0.1420639604330063,1.0,1.0,0.13382132351398469,1.0,1.0,0.13124999403953553,1.0,1.0,0.13382132351398469,1.0,1.0,0.1420639604330063,1.0,1.0,0.15785303711891175,1.0,1.0,1.0,1.0,1.0,1.0,1.0,1.0,1.0,1.0,1.0,1.0,1.0,1.0,1.0,1.0,1.0,1.0,1.0,1.0,1.0,1.0,1.0,1.0,1.0,1.0,1.0,1.0,1.0,1.0,1.0,1.0,1.0,1.0,1.0,1.0],"m_Weights":[-0.6066159189213373,0.8235779226799246,0.09608408107866075,0.06807860312766276,-0.8942162903696727,0.7086840810786628,-0.28552118897839925,0.3111840661803921,-0.8621159189213372,0.0340790561745143,-0.7352159337735542,-0.7411159189213372,-0.10602298230595798,0.7099073839773801,-0.4363159189213394,0.5249813261551674,0.775122327723071,-0.7955159189213372,0.022681059424536248,0.5936308181233168,-0.09971591892133926,-0.6353189972272806,-0.09416474946014356,0.43538408107866058,-0.01811924965330225,0.01063565459634615,-0.5665159189213372,0.7897807383977479,0.8149352505398586,-0.7070409997822177,0.5726807503466963,-0.6121691818766832,0.4582677913328638,-0.28671923675574659,0.04182248627222625,0.8276971732131114,0.7468807679316379,0.5153078318755775,0.652005983791187,0.6210838225806686,-0.8805158960432351,0.20876565099559789,-0.5376167193902364,0.9840839331736798,-0.30260058174714879,-0.024216766701624163,-0.23381544018684997,-0.5174832310408739,-0.8935167806244937,0.9544830813179622,0.9363221815397824,0.8709832111754391,-0.4130154172493565,0.9784167689591261,-0.6160167862497946,-0.9741159640133424,-0.07980058174714906,0.6577832220038051,-0.9167159638739589,0.09756565099561442,0.2722832378137943,-0.07811596362888276,0.4985059837911159,0.8434840810786628,0.45858408107865658,0.8791971736335849,-0.197735326021223,-0.8222159189213426,-0.3326322086672745,-0.262090693366937,0.7752840810786574,-0.7417409991096778,-0.4455673928826482,0.39878453288195117,0.4685840810786628,0.6935398758712889,0.8993840810786574,-0.08391591892133803,-0.25996814664011227,-0.9968159189213426,-0.7611159189213382,0.9531050985394196,0.6803840810786574,0.8547840810786614,-0.6427402176855952,0.6987836839331534,0.7952840810786627,0.4773788655891606,-0.6736163442495986,0.010284081078661094,-0.09522122871726728,-0.9138154751265293,0.4263840810786606,-0.44832132833309165,-0.6541158091281492,0.19468408107866179,0.7072786193414367],"m_Output":0.9999781142086532,"m_LearnRate":0.02,"m_Error":-1.222759928233009e-14,"m_DesiredOutput":0.0,"m_BackPropagatedError":-9.837942048086361e-20},{"m_Bias":1.0,"m_Inputs":[1.0,1.0,1.0,1.0,1.0,1.0,1.0,1.0,1.0,1.0,1.0,1.0,1.0,1.0,1.0,1.0,1.0,1.0,1.0,1.0,1.0,1.0,1.0,1.0,1.0,1.0,1.0,1.0,1.0,1.0,1.0,1.0,1.0,1.0,1.0,1.0,1.0,1.0,0.8927224278450012,1.0,1.0,0.15785303711891175,1.0,1.0,0.1420639604330063,1.0,1.0,0.13382132351398469,1.0,1.0,0.13124999403953553,1.0,1.0,0.13382132351398469,1.0,1.0,0.1420639604330063,1.0,1.0,0.15785303711891175,1.0,1.0,1.0,1.0,1.0,1.0,1.0,1.0,1.0,1.0,1.0,1.0,1.0,1.0,1.0,1.0,1.0,1.0,1.0,1.0,1.0,1.0,1.0,1.0,1.0,1.0,1.0,1.0,1.0,1.0,1.0,1.0,1.0,1.0,1.0,1.0],"m_Weights":[-0.38299910018777247,-0.47519558406323689,-0.1838991001877712,-0.8259639152715844,-0.4122957466825811,0.8127008998122244,0.3691359588223222,-0.8215329668308213,0.6749008998122243,0.31713560305499,0.1874634285507654,-0.4945991001877725,-0.3089652300324139,-0.8742427967611182,-1.0003991001877857,-0.08169942829936881,-0.9217989867516994,-0.1456991001877712,0.319700261942581,0.2395010136000329,0.6394008998122244,0.4866002499834222,0.7578010137836359,-0.9202991001877756,0.32050589249909636,0.8494005789259553,0.6531008998122244,0.8287059595725194,0.6871010137836358,-0.17139954197990757,-1.0016941075009079,0.050901013600033257,-0.7280997697334574,0.9818063214775199,0.2813001864161969,-0.6084998434436434,0.9205165864251821,0.8281021274814182,0.6513001215896831,-0.8630779735476355,-0.6897974450089407,0.6764001024153523,-0.31943105192401385,-0.6192984467553221,-0.3920999347644869,-0.027401650153426737,0.6343943320652012,-0.11539999791445056,-0.09418630022616513,0.16693043986092444,0.3471999823856002,0.6980184898452748,0.025094160054223229,0.9542000020855469,-0.9314862979404153,0.1285023555820845,-0.2360999347644846,-0.2639016455640533,-0.14839764891782537,-0.26489989758463769,-0.8407310443337672,0.5385023431698174,-0.5116998784103493,-0.15569910018775935,0.31680089981222755,-0.8665998434437913,-0.768501304231059,-0.29279910018777247,-0.15859976973363905,0.6060986544462064,-0.004199100187770627,-0.7518995419802742,0.20099863287383308,0.18090088614153164,-0.07269910018792578,0.9609986261441754,-0.1943991001877712,0.3752008998120792,0.46979829800823028,-0.6523991001877717,-0.7869991001879009,-0.23347400659809806,-0.07749910018777054,-0.4817991001878549,0.4795304757162302,-0.6988370254579356,-0.9761991001877804,-0.684165213602555,0.9141692209110036,-0.8491991001877757,0.6257350072730656,0.18526669335765096,-0.02539910018777077,-0.08566435325916318,0.978404198674271,-0.2301991001877712,0.18623598058685995],"m_Output":-0.9241019418858909,"m_LearnRate":0.02,"m_Error":-1.597982492611637e-14,"m_DesiredOutput":0.0,"m_BackPropagatedError":-1.1075364236038062e-14},{"m_Bias":1.0,"m_Inputs":[1.0,1.0,1.0,1.0,1.0,1.0,1.0,1.0,1.0,1.0,1.0,1.0,1.0,1.0,1.0,1.0,1.0,1.0,1.0,1.0,1.0,1.0,1.0,1.0,1.0,1.0,1.0,1.0,1.0,1.0,1.0,1.0,1.0,1.0,1.0,1.0,1.0,1.0,0.8927224278450012,1.0,1.0,0.15785303711891175,1.0,1.0,0.1420639604330063,1.0,1.0,0.13382132351398469,1.0,1.0,0.13124999403953553,1.0,1.0,0.13382132351398469,1.0,1.0,0.1420639604330063,1.0,1.0,0.15785303711891175,1.0,1.0,1.0,1.0,1.0,1.0,1.0,1.0,1.0,1.0,1.0,1.0,1.0,1.0,1.0,1.0,1.0,1.0,1.0,1.0,1.0,1.0,1.0,1.0,1.0,1.0,1.0,1.0,1.0,1.0,1.0,1.0,1.0,1.0,1.0,1.0],"m_Weights":[0.8342834561121076,0.06351576233271918,-0.5259165438878923,-0.2608751591465807,-0.0730844563928324,-0.9571165438878924,0.297724216665328,-0.829200437931333,0.09868345611211198,-0.504876681608542,0.843899512283771,0.0264834561121117,-0.8944775285254861,-0.6774799494239869,0.3882834561121092,0.26428230867860927,-0.49639580498819776,-0.4783165438878908,0.39088215755697705,-0.38429574068370589,0.9696834561121076,0.3644821332108898,0.016504292802138513,-0.8907165438878923,0.9153845320163276,-0.20609572927431653,-0.3098165438878908,0.980084557517256,0.8114042928021346,0.27309383762107999,-0.7137154679836724,0.203304259316296,-0.8428008107254924,-0.2255152748037098,-0.027395946697850169,-0.6870990789826577,-0.0031105780299944855,0.6098039669931741,0.2874017424274137,-0.2752070996374812,0.6259834956865127,-0.6512978071454046,-0.6178059247105585,0.8060835347260907,-0.818797430276273,0.2906980287132213,0.8086806216260974,0.829602967402035,-0.7611999066980728,0.9210157045683927,-0.5276969085407657,-0.6059992605826234,-0.4124193819252254,-0.844597032597965,0.2179000962946439,-0.53061648377069,-0.953297430276273,-0.6353019652779588,-0.1767164839565141,-0.8672978071454043,0.35259408572284475,0.317283515716737,-0.6409982575725901,0.8251834561121333,-0.7916165438878924,-0.35979907897947996,-0.13099941591886397,0.3306834561121092,0.34949918927449416,0.07510090520559104,-0.7330165438878924,-0.1065061623738557,0.23400107284870814,-0.3343165784372664,-0.01071654388790618,0.6207011251461857,-0.0179165438878883,0.2099834561120949,0.9278010557544661,-0.37541654388788228,-0.015116543887899011,-0.13977116346575964,0.7411834561121077,0.8899834561121013,-0.19946694737223709,0.8921014068294116,-0.38471654388789136,-0.998481939186392,0.5565062822346695,-0.4972165438878908,-0.7340764415702743,-0.36789686977932387,-0.21391654388788906,0.15442431268920785,0.3721142840244302,-0.6916165438878924,0.9893247183613928],"m_Output":-0.9938038588917191,"m_LearnRate":0.02,"m_Error":2.1780780451378276e-14,"m_DesiredOutput":0.0,"m_BackPropagatedError":7.29549057829739e-17},{"m_Bias":1.0,"m_Inputs":[1.0,1.0,1.0,1.0,1.0,1.0,1.0,1.0,1.0,1.0,1.0,1.0,1.0,1.0,1.0,1.0,1.0,1.0,1.0,1.0,1.0,1.0,1.0,1.0,1.0,1.0,1.0,1.0,1.0,1.0,1.0,1.0,1.0,1.0,1.0,1.0,1.0,1.0,0.8927224278450012,1.0,1.0,0.15785303711891175,1.0,1.0,0.1420639604330063,1.0,1.0,0.13382132351398469,1.0,1.0,0.13124999403953553,1.0,1.0,0.13382132351398469,1.0,1.0,0.1420639604330063,1.0,1.0,0.15785303711891175,1.0,1.0,1.0,1.0,1.0,1.0,1.0,1.0,1.0,1.0,1.0,1.0,1.0,1.0,1.0,1.0,1.0,1.0,1.0,1.0,1.0,1.0,1.0,1.0,1.0,1.0,1.0,1.0,1.0,1.0,1.0,1.0,1.0,1.0,1.0,1.0],"m_Weights":[-0.44329831770131897,0.5976009772894156,0.540901682298677,-0.5786039884387878,-0.5220983917324968,-0.5199983177013231,0.16349765351863985,0.6539016674203662,0.5788016822986769,0.15979934519868167,0.9219016674663564,0.16600168229867882,0.5969997384011752,0.4872993872976712,-0.16339831770132119,-0.5632946255215621,-0.8013006104509948,0.1477016822986788,-0.5078926678410741,0.5760993824399443,-0.5309983177013231,0.024707438085852224,-0.6837006212710595,-0.975098317701323,-0.13249253887059313,0.7741993783386869,-0.15329831770132119,-0.1907925220139448,0.6348993787289405,-0.8926994689694058,-0.9203925388705905,0.2934993824399484,-0.3191000624646774,0.6313074034166667,-0.5744005700104078,0.6125997454682489,-0.6128927125883134,-0.7966014769451544,-0.49280034563865529,-0.6194982983643629,-0.4219994006167082,-0.7637003955979043,0.22200163294764445,-0.2673996214878038,-0.3063003218094198,-0.16429840009075245,0.9597006863460769,0.015799886847267576,0.42950158727647277,-0.8043993994001152,-0.41230004806125888,-0.9930984245685516,-0.11969931339147357,-0.26750011315272978,0.5206015757477572,0.5320004004618446,0.2812996781905802,0.5160015767617087,0.5539004044241124,-0.296300395597901,0.6333015787039592,-0.6457995886088972,-0.9811003456386575,0.47140168229868109,0.08020168229867336,-0.3717002545320992,-0.5149997836223376,0.9656016822986716,0.06159993753532185,0.2239001888938067,-0.9504983177013284,0.9952005310300347,-0.35949982545417827,-0.8883979211152925,-0.0018983177013174964,-0.767399829930143,0.8026016822986716,0.5836016822986807,0.3312001751329906,-0.9682983177013285,0.8144016822986793,0.830800170414465,0.37960168229867488,0.43920168229868108,0.5196001948965396,-0.9274026667133037,-0.5867983177013231,0.9483016593993253,-0.8894030015367827,-0.10639831770132097,-0.668803814783187,-0.12889450604354739,-0.3504983177013189,0.8033960821536961,-0.2527943114934975,-0.7762983177013231,-0.7827039716544254],"m_Output":-0.9999988176366629,"m_LearnRate":0.02,"m_Error":-2.1675422850942375e-14,"m_DesiredOutput":0.0,"m_BackPropagatedError":-1.295641010396764e-19},{"m_Bias":1.0,"m_Inputs":[1.0,1.0,1.0,1.0,1.0,1.0,1.0,1.0,1.0,1.0,1.0,1.0,1.0,1.0,1.0,1.0,1.0,1.0,1.0,1.0,1.0,1.0,1.0,1.0,1.0,1.0,1.0,1.0,1.0,1.0,1.0,1.0,1.0,1.0,1.0,1.0,1.0,1.0,0.8927224278450012,1.0,1.0,0.15785303711891175,1.0,1.0,0.1420639604330063,1.0,1.0,0.13382132351398469,1.0,1.0,0.13124999403953553,1.0,1.0,0.13382132351398469,1.0,1.0,0.1420639604330063,1.0,1.0,0.15785303711891175,1.0,1.0,1.0,1.0,1.0,1.0,1.0,1.0,1.0,1.0,1.0,1.0,1.0,1.0,1.0,1.0,1.0,1.0,1.0,1.0,1.0,1.0,1.0,1.0,1.0,1.0,1.0,1.0,1.0,1.0,1.0,1.0,1.0,1.0,1.0,1.0],"m_Weights":[0.7504982749815788,0.6522981913866159,-0.9347017250184211,-0.6493017479728996,0.9940982010258879,0.9541982749815789,-0.7944017478883599,-0.8539017783413285,-0.40760172501842298,0.36629825234615567,-0.23140177817650504,0.734398274981579,0.28799824912671409,0.7294000036924875,0.6976982749815789,-0.8152017303261728,0.5221000663272015,-0.11070172501842388,0.8023982677241683,-0.025399928118429447,-0.42030172501842297,0.9517982675881023,0.00750007478135423,-0.7849017250184212,-0.46330173456674997,0.8550000755949708,-0.8321017250184211,-0.10740173461437144,0.17830007478135549,0.3456991750743709,-0.16300173456675047,0.364300071881572,-0.22560036091449596,-0.984801734651661,-0.9479999337591537,0.9312997892506946,0.26579825915042107,0.681000038497333,0.8202998604837102,0.8765982635205164,0.17399825456451804,0.2930998995449393,-0.0729018063760701,-0.29380174963689506,0.6444999214563701,-0.7861018079490117,-0.1775017485941183,0.1640999323900304,-0.3665018087535717,-0.3137017487403631,0.12739993580080154,-0.08590180900976446,-0.055301748942125399,0.2489999323900304,0.6375981912388379,0.7986982508783119,-0.355300078543629,0.8500981920357443,0.8138982509528172,-0.86100010045506,0.7861981935622385,0.31289825108381977,-0.03230013951629065,0.24669827498157669,-0.47070172501842297,0.4042997892509732,-0.040000161370944458,0.27279827498157707,0.6772996390855012,0.7662998679451749,-0.08110172501842387,0.8409991750748125,0.06889988324965488,0.9257982754441898,0.8005982749815789,0.2864998880239993,0.024698274981575609,-0.6987017250184211,-0.42950011683283487,-0.6773017250184211,0.032398274981575717,0.003799867680535533,-0.7410017250184211,-0.5080017250184211,-0.7818001616785689,0.9227982210321661,-0.5805017250184211,0.5252982746807848,-0.6225017794374058,-0.7467017250184211,0.28649825275554127,0.4156982215520973,0.8669982749815789,0.6811982523347916,-0.909701798932439,0.8609982749815789,-0.6747017479049585],"m_Output":0.9999993962730945,"m_LearnRate":0.02,"m_Error":-9.571936977636641e-14,"m_DesiredOutput":0.0,"m_BackPropagatedError":-2.0882539396046328e-18},{"m_Bias":1.0,"m_Inputs":[1.0,1.0,1.0,1.0,1.0,1.0,1.0,1.0,1.0,1.0,1.0,1.0,1.0,1.0,1.0,1.0,1.0,1.0,1.0,1.0,1.0,1.0,1.0,1.0,1.0,1.0,1.0,1.0,1.0,1.0,1.0,1.0,1.0,1.0,1.0,1.0,1.0,1.0,0.8927224278450012,1.0,1.0,0.15785303711891175,1.0,1.0,0.1420639604330063,1.0,1.0,0.13382132351398469,1.0,1.0,0.13124999403953553,1.0,1.0,0.13382132351398469,1.0,1.0,0.1420639604330063,1.0,1.0,0.15785303711891175,1.0,1.0,1.0,1.0,1.0,1.0,1.0,1.0,1.0,1.0,1.0,1.0,1.0,1.0,1.0,1.0,1.0,1.0,1.0,1.0,1.0,1.0,1.0,1.0,1.0,1.0,1.0,1.0,1.0,1.0,1.0,1.0,1.0,1.0,1.0,1.0],"m_Weights":[0.6612315398683057,-0.8422527102099564,-0.7788684601316943,0.23449662802021258,0.5305261959665784,0.4677315398683043,-0.1519767732394647,0.7482609116109151,0.2672315398683043,0.826152343163388,-0.0002388700710722596,0.4293315398683043,-0.6679942621228956,-0.2450807571153975,-0.6756684601316942,0.26085671375930488,0.4720895854130564,0.08743153986830552,-0.23617410832830408,0.03488976539315897,-0.5433684601316943,0.00983516007285938,-0.41261014064061199,-0.034368460131694259,0.41603329157735288,-0.12372727073793906,0.40493153986830429,-0.5387652809664184,0.4841898593593882,0.9548410303791826,0.3690332915773618,0.816389765393159,0.9205459227007974,-0.057372048900178367,0.3260722422920012,-0.8947524890720682,-0.6882909915462433,0.05083156900297119,0.46364827175143266,0.4979141249954958,0.37230535470359579,-0.29445131104619418,-0.08738166157196376,-0.9400821326499045,0.3814580276638977,-0.9423880337578042,-0.9942363860741215,0.4602780541809658,-0.07629045080061206,-0.8749009770444254,-0.6432156984555131,-0.44459141005908167,0.2888335410670664,-0.21192194581903288,0.8303092498348556,-0.36716909203780698,0.551358027663898,0.23621136517316147,0.8000309099154709,-0.3646513110458946,-0.9565845828400016,-0.6317690866500141,-0.754951728249788,0.2932315398683047,-0.5615684601316943,0.16444751093247629,0.5057394752508865,0.3707315398683056,0.4105459226971942,-0.7837603983780717,-0.06986846013169329,-0.5968589696172738,0.6210962817628136,0.2463594618243203,0.6429315398672373,0.7484451591159652,-0.9225684601316943,-0.49026846013279309,0.5814830660075205,0.33863153986830565,-0.1502684601328893,0.9417242218714599,0.5176315398683057,0.348031539867423,0.5949053541201643,-0.20627048682661262,-0.49166846013175227,0.1131885341315153,0.09238206105903806,-0.3266684601316957,-0.46539617256200746,0.05582589729668053,0.23063153986830593,-0.1910004428123093,0.435342295305598,-0.014668460131694188,-0.5589026766807034],"m_Output":0.9921384561087705,"m_LearnRate":0.02,"m_Error":3.02585054077008e-14,"m_DesiredOutput":0.0,"m_BackPropagatedError":1.3119203620477165e-15},{"m_Bias":1.0,"m_Inputs":[1.0,1.0,1.0,1.0,1.0,1.0,1.0,1.0,1.0,1.0,1.0,1.0,1.0,1.0,1.0,1.0,1.0,1.0,1.0,1.0,1.0,1.0,1.0,1.0,1.0,1.0,1.0,1.0,1.0,1.0,1.0,1.0,1.0,1.0,1.0,1.0,1.0,1.0,0.8927224278450012,1.0,1.0,0.15785303711891175,1.0,1.0,0.1420639604330063,1.0,1.0,0.13382132351398469,1.0,1.0,0.13124999403953553,1.0,1.0,0.13382132351398469,1.0,1.0,0.1420639604330063,1.0,1.0,0.15785303711891175,1.0,1.0,1.0,1.0,1.0,1.0,1.0,1.0,1.0,1.0,1.0,1.0,1.0,1.0,1.0,1.0,1.0,1.0,1.0,1.0,1.0,1.0,1.0,1.0,1.0,1.0,1.0,1.0,1.0,1.0,1.0,1.0,1.0,1.0,1.0,1.0],"m_Weights":[0.6166860862611756,0.6172860753733841,-0.7858139137388245,-0.43477353834782936,-0.3662139137411443,-0.9532139137388245,-0.27897335724220248,0.18398608625999764,0.9507860862611756,-0.05187278686363098,-0.9603139137400005,0.14218608626117736,-0.9043717058494621,-0.4447544841953735,0.03868608626117759,0.6685860916970761,-0.5386393572578156,0.7826860862611755,-0.8848139108342176,-0.1495307542727334,-0.10581391373882265,0.71138608922024,0.6444737368484447,-0.3468139137388224,-0.6265139107514559,-0.7218538222335068,-0.2656139137388224,0.6622860892574114,0.8744737368484448,0.17104716164270548,-0.2075139107514533,0.8110692457272646,-0.34325118398242879,0.28778608922010887,-0.5231346730512592,-0.0918241117817838,0.3641860891653028,-0.21054859151290016,-0.7682163968006125,0.8921860862689238,-0.1900106008943379,-0.8201573303782159,0.6415860862464694,0.8590855346840964,-0.5154237383001658,0.984486086240526,0.010187376591333147,-0.8633062018756536,0.5094860862402102,0.40048886341851588,-0.21210073136121214,0.0399860862400355,0.33328613023004419,-0.8464062018756534,0.560486086240096,0.9024860828945639,0.9751762616998343,0.5580860862402964,-0.8110139170950296,-0.6420573303777082,0.30948608624068299,0.0559860829232687,0.3118836031973578,-0.22181391373882265,-0.8472139137388263,-0.7692241113616202,-0.5128863887351054,-0.19501391373882444,-0.9223511839864975,-0.867540876171295,-0.6985139137388262,0.6703471623084637,0.552982883668981,-0.7798139133276522,-0.9651139137388315,-0.2836097042777907,-0.9331139137388262,0.7797860862611686,-0.8292394161031881,-0.6139139137388262,0.26228608626116919,-0.4001859952598082,-0.8501139137388263,-0.5317139137388285,-0.616238837059465,0.749686082038558,-0.5278139137388246,-0.4992698359431847,0.7243860764497047,-0.43121391373882247,-0.069771709845683,0.8032860921692344,-0.40511391373882246,0.8709272061358241,-0.4202139021231728,0.7510860862611756,-0.1349733618706929],"m_Output":-0.999999997893591,"m_LearnRate":0.02,"m_Error":-6.505212130136682e-14,"m_DesiredOutput":0.0,"m_BackPropagatedError":-2.0677854712909383e-23},{"m_Bias":1.0,"m_Inputs":[1.0,1.0,1.0,1.0,1.0,1.0,1.0,1.0,1.0,1.0,1.0,1.0,1.0,1.0,1.0,1.0,1.0,1.0,1.0,1.0,1.0,1.0,1.0,1.0,1.0,1.0,1.0,1.0,1.0,1.0,1.0,1.0,1.0,1.0,1.0,1.0,1.0,1.0,0.8927224278450012,1.0,1.0,0.15785303711891175,1.0,1.0,0.1420639604330063,1.0,1.0,0.13382132351398469,1.0,1.0,0.13124999403953553,1.0,1.0,0.13382132351398469,1.0,1.0,0.1420639604330063,1.0,1.0,0.15785303711891175,1.0,1.0,1.0,1.0,1.0,1.0,1.0,1.0,1.0,1.0,1.0,1.0,1.0,1.0,1.0,1.0,1.0,1.0,1.0,1.0,1.0,1.0,1.0,1.0,1.0,1.0,1.0,1.0,1.0,1.0,1.0,1.0,1.0,1.0,1.0,1.0],"m_Weights":[-0.13630258524063744,0.7064969260211459,-0.7461025852406376,0.5000974914439913,-0.7946030722077231,-0.9411025852406376,0.37969749128703225,0.09929739381180676,0.11659741475936239,0.4896974906300087,0.11329739387655746,-0.8836025852406376,-0.15320251112604128,0.8357835929583551,-0.8069025852406376,0.39009741436788389,0.8030835380713312,0.0934974147593624,-0.28760258532068846,-0.09371650495570445,-0.15860258524063745,-0.60300258532219,-0.5966165273697168,0.7564974147593624,0.9840974109709122,0.08088347234801573,0.5070974147593624,0.19999741092538349,-0.5015165273697169,0.07429044910741306,0.6797974109709122,0.6405834950442958,-0.715913141788514,0.8490974106943422,0.20657877308362983,-0.9234143038833148,0.9177972535281657,-0.11069541767911735,0.06018514486799152,-0.4582028200269354,-0.22639425285198423,0.3723848425860909,0.26817340534880898,-0.736717948722545,0.36218467075097596,-0.6122270448042367,-0.11899741127863935,-0.2637154188244957,-0.25952727980904385,-0.5837029584190794,-0.20481544676771205,-0.21912735312633864,0.8707976296057682,-0.15191541882449584,-0.9729272798174368,-0.5331024088583152,0.3033846707509759,-0.5024270448210847,0.5162975905964726,0.12478484258608971,-0.44792659467899717,-0.8200024103621959,-0.399014855132007,-0.9575025852406423,0.8101974147593624,0.4729856961145575,0.8322708829886864,-0.002002585240637609,-0.3705131417885096,-0.8834333641639584,0.47259741475936359,-0.08600955089599136,-0.9667355813809108,-0.8292025850965391,-0.8670025852406336,0.4690637269448853,0.12909741475936258,-0.8597025852406337,-0.6056355762150993,0.5965974147593609,-0.7998025852406341,-0.22923345858316186,-0.5403025852406376,-0.9178025852406355,-0.7208292267833307,-0.10080260350998095,0.7700974147593624,0.4361972977371901,0.8222973996553952,-0.26010258524063648,-0.22660251089550688,0.42039739724287286,0.37329741475936359,0.9356974904969462,0.9899969279680526,-0.4062025852406364,-0.22840250878298158],"m_Output":-0.9884311437021297,"m_LearnRate":0.02,"m_Error":-1.1110036941802528e-14,"m_DesiredOutput":0.0,"m_BackPropagatedError":-4.936640086921553e-19},{"m_Bias":1.0,"m_Inputs":[1.0,1.0,1.0,1.0,1.0,1.0,1.0,1.0,1.0,1.0,1.0,1.0,1.0,1.0,1.0,1.0,1.0,1.0,1.0,1.0,1.0,1.0,1.0,1.0,1.0,1.0,1.0,1.0,1.0,1.0,1.0,1.0,1.0,1.0,1.0,1.0,1.0,1.0,0.8927224278450012,1.0,1.0,0.15785303711891175,1.0,1.0,0.1420639604330063,1.0,1.0,0.13382132351398469,1.0,1.0,0.13124999403953553,1.0,1.0,0.13382132351398469,1.0,1.0,0.1420639604330063,1.0,1.0,0.15785303711891175,1.0,1.0,1.0,1.0,1.0,1.0,1.0,1.0,1.0,1.0,1.0,1.0,1.0,1.0,1.0,1.0,1.0,1.0,1.0,1.0,1.0,1.0,1.0,1.0,1.0,1.0,1.0,1.0,1.0,1.0,1.0,1.0,1.0,1.0,1.0,1.0],"m_Weights":[0.240748763356081,-0.5320250966459786,0.9043487633560824,-0.42941964597286427,0.8980594058294328,-0.8781512366439176,-0.3609060994736617,-0.040939994237888108,0.8962487633560824,-0.23729395358358683,0.7150599710108698,-0.26975123664391967,-0.42690172602605877,0.3522633619961975,0.178248763356081,-0.8819747386668723,0.9341483970348367,-0.060251236643918768,0.7954639285601289,0.7346462254297336,-0.4660512366439197,0.7775510888742712,-0.0746549083634146,0.7180487633560824,-0.5892555530197222,0.19014485409714264,0.9047487633560823,0.35774235671049639,-0.933454908363413,0.5554969377458968,-0.8877555530197242,-0.8048537745702664,0.5537155662202685,-0.28794884553515118,0.9201717692984147,0.7013568676719163,-0.48053623478610499,0.05144979241355627,-0.6685709799773191,-0.3208562620219995,0.8504635728548441,0.15251374952779429,-0.5868157544613374,-0.83316421737348,-0.9157025275293925,-0.26411241362888246,0.2802138744933759,0.41627633587010295,0.625188430781605,0.3261763125432526,0.4677697422225933,0.025889008877102289,-0.7759852474704024,-0.11232366412989685,-0.7323111102429314,0.4776290271723964,0.5565974724706074,-0.7985114920903923,-0.8258712209299551,-0.27828625047220748,-0.7677122235296097,0.29562834282273406,-0.09377097997732152,-0.6445512366439176,-0.3353512366439858,0.5336568675642778,0.17871260077552118,0.8752487633560167,0.4491155662199102,0.47878131503433826,0.6130487633560167,-0.10660306242727823,-0.38993942709080778,0.13206598174589694,0.8996487633547827,0.3831229066444386,0.3801487633560133,-0.22545123664499745,0.6354606705038205,0.6906487633560167,0.9266487633557099,-0.5097245736358422,0.7483487633560166,-0.24995123664395486,-0.9098942452914665,0.10223196806780091,0.9871487633560789,-0.3190585512380384,-0.5396596401001983,-0.5441512366439176,-0.8399267520225866,-0.6660986140115501,-0.10275123664391868,0.6250774589998818,-0.5380048626969289,-0.42965123664391965,-0.7384203314411382],"m_Output":0.9992512024809298,"m_LearnRate":0.02,"m_Error":-3.776451863024749e-14,"m_DesiredOutput":0.0,"m_BackPropagatedError":-2.0294375964192583e-17},{"m_Bias":1.0,"m_Inputs":[1.0,1.0,1.0,1.0,1.0,1.0,1.0,1.0,1.0,1.0,1.0,1.0,1.0,1.0,1.0,1.0,1.0,1.0,1.0,1.0,1.0,1.0,1.0,1.0,1.0,1.0,1.0,1.0,1.0,1.0,1.0,1.0,1.0,1.0,1.0,1.0,1.0,1.0,0.8927224278450012,1.0,1.0,0.15785303711891175,1.0,1.0,0.1420639604330063,1.0,1.0,0.13382132351398469,1.0,1.0,0.13124999403953553,1.0,1.0,0.13382132351398469,1.0,1.0,0.1420639604330063,1.0,1.0,0.15785303711891175,1.0,1.0,1.0,1.0,1.0,1.0,1.0,1.0,1.0,1.0,1.0,1.0,1.0,1.0,1.0,1.0,1.0,1.0,1.0,1.0,1.0,1.0,1.0,1.0,1.0,1.0,1.0,1.0,1.0,1.0,1.0,1.0,1.0,1.0,1.0,1.0],"m_Weights":[-0.9432086265093778,0.5014239173507951,-0.4502086265093775,0.5439849011999534,0.40342797356963908,0.9664913734906223,-0.86701566167958,0.7184235593960551,-0.4261086265093775,-0.5978161868573041,0.09092345990665533,-0.012208626509377829,-0.12907993188005219,-0.903370742157472,-0.21810862650937819,-0.4475567213194664,-0.517502620895008,-0.20520862650937819,0.7285559860695698,0.5462973977264226,-0.8440086265093777,-0.7477428025346359,0.5616974074226263,0.5462913734906223,-0.4906924376491344,0.4140974078412741,-0.007108626509377838,0.33080836730304827,0.27839740742262655,0.995694388426392,-0.0027924376491331329,-0.3307026022735772,0.3283959426656084,0.13381065176430435,0.30661782557888209,0.25659644548593177,0.08176343700073183,-0.8701656547709664,-0.4934033162341701,-0.4802771219844359,0.598572261940607,0.014896814428630548,0.5121765437593391,-0.316862018088874,-0.12050016511823048,0.6766841845377518,0.5725078744705383,-0.6574936838218125,0.36158832573544039,0.7649348189309099,-0.6020916619512913,-0.18641013725002954,-0.28331802459598245,0.007306316178188489,-0.911011316709714,0.8038062817002882,0.9385998348817677,0.0030849024422534888,0.03390623561773079,0.9882968144286295,-0.02692233987112021,-0.1985938454108661,-0.5609033162341707,-0.42270862650937748,0.404291373490635,-0.5792035545131667,0.6587277307531998,0.7363913734906347,-0.2109040573344434,0.5246321621202571,0.46999137349063499,-0.6483056115722382,-0.7123655244931506,0.2080855457375718,0.9467913734904981,0.14043519718127987,-0.260508626509365,-0.12230862650948482,-0.33386552646986708,-0.16800862650936564,0.8406913734905713,-0.3501649130209952,0.9686913734906347,0.5128913734906042,0.597131130747913,-0.8169761611882627,0.9517913734906219,-0.679705001231352,0.04422402018280987,0.5019913734906223,0.3171850993480367,-0.9219778939074366,0.09519137349062212,-0.4825150182747605,0.5463265122798159,-0.2036086265093782,-0.4251150796428829],"m_Output":0.994918721382105,"m_LearnRate":0.02,"m_Error":8.474155291481301e-14,"m_DesiredOutput":0.0,"m_BackPropagatedError":3.4633767066871879e-16},{"m_Bias":1.0,"m_Inputs":[1.0,1.0,1.0,1.0,1.0,1.0,1.0,1.0,1.0,1.0,1.0,1.0,1.0,1.0,1.0,1.0,1.0,1.0,1.0,1.0,1.0,1.0,1.0,1.0,1.0,1.0,1.0,1.0,1.0,1.0,1.0,1.0,1.0,1.0,1.0,1.0,1.0,1.0,0.8927224278450012,1.0,1.0,0.15785303711891175,1.0,1.0,0.1420639604330063,1.0,1.0,0.13382132351398469,1.0,1.0,0.13124999403953553,1.0,1.0,0.13382132351398469,1.0,1.0,0.1420639604330063,1.0,1.0,0.15785303711891175,1.0,1.0,1.0,1.0,1.0,1.0,1.0,1.0,1.0,1.0,1.0,1.0,1.0,1.0,1.0,1.0,1.0,1.0,1.0,1.0,1.0,1.0,1.0,1.0,1.0,1.0,1.0,1.0,1.0,1.0,1.0,1.0,1.0,1.0,1.0,1.0],"m_Weights":[-0.06645804480350974,0.27795591876889527,-0.5421580448035072,-0.9829924379232318,0.8353427725588246,0.5524419551964929,0.836153442076492,-0.7062574501234251,-0.9546580448035071,-0.4744991827656708,0.5076425480383676,0.05964195519649015,-0.05187708499334994,0.06334168390682579,0.05994195519649015,-0.663482442340982,-0.799058910422231,-0.8532580448035072,-0.6771339004812167,-0.16815891310623233,-0.07465804480350974,-0.019720323789671865,0.22044108549252659,-0.5318580448035072,0.3380868620344056,-0.3087584975339296,0.28624195519648995,-0.793010925735342,0.39104108549252655,0.25564199890797897,0.7696868620344067,0.6611410868937705,0.14954202147222518,-0.4348202183027347,0.8050419597674102,0.5988420287393876,-0.7922337501245235,-0.18589439950983917,-0.9955579679003688,0.09614173337258096,-0.8681857099852403,0.21814203394230045,0.5506454603485416,0.657046806452646,-0.5568335429123256,0.2597457355317182,-0.9042674424407652,-0.5622801371336729,-0.7437541801774362,0.7411402166569072,-0.10656347695198706,-0.630154121861077,0.22294779113061564,0.9636198628663272,0.6486458665276642,0.9531447214419914,-0.9434335429123255,0.9888458293069886,-0.3213552871087141,0.14314203394229309,-0.7346542419902353,0.6287446978562794,-0.09815796790033993,-0.21125804480351008,-0.24485804480351318,0.8456420287393872,0.9090730100986928,-0.6178580448035098,0.2574420214723606,0.4600717174746472,-0.8721580448035098,0.38584199890805329,-0.8586289573360409,0.22513726749063196,-0.30085804480346509,0.706170832152481,0.42804195519648638,0.5624419551965469,-0.9760286358901962,-0.9232580448035098,-0.40545804480343286,-0.15242932247883249,0.9491419551964901,0.648941955196556,-0.638628198791532,0.3982549673359553,-0.5627580448035023,0.18514066615409553,-0.08510061683980934,0.8509419551964929,0.5414055530402755,-0.7820030874836559,-0.8653580448035072,-0.1395932545908406,-0.16943942155638853,-0.4977580448035101,-0.6844926321078503],"m_Output":-0.9998463626626798,"m_LearnRate":0.02,"m_Error":6.694778733962413e-14,"m_DesiredOutput":0.0,"m_BackPropagatedError":1.6480195385384038e-17},{"m_Bias":1.0,"m_Inputs":[1.0,1.0,1.0,1.0,1.0,1.0,1.0,1.0,1.0,1.0,1.0,1.0,1.0,1.0,1.0,1.0,1.0,1.0,1.0,1.0,1.0,1.0,1.0,1.0,1.0,1.0,1.0,1.0,1.0,1.0,1.0,1.0,1.0,1.0,1.0,1.0,1.0,1.0,0.8927224278450012,1.0,1.0,0.15785303711891175,1.0,1.0,0.1420639604330063,1.0,1.0,0.13382132351398469,1.0,1.0,0.13124999403953553,1.0,1.0,0.13382132351398469,1.0,1.0,0.1420639604330063,1.0,1.0,0.15785303711891175,1.0,1.0,1.0,1.0,1.0,1.0,1.0,1.0,1.0,1.0,1.0,1.0,1.0,1.0,1.0,1.0,1.0,1.0,1.0,1.0,1.0,1.0,1.0,1.0,1.0,1.0,1.0,1.0,1.0,1.0,1.0,1.0,1.0,1.0,1.0,1.0],"m_Weights":[-0.23729345796404373,-0.10113340536167737,-0.4016934579640449,0.3514005181107263,0.7100156160530463,0.18110654203595628,-0.2025045448192698,0.6120163369399196,0.5083065420359558,-0.7695049182134536,0.996622797943493,0.2652065420359551,0.9447630884347691,-0.47582851457880356,-0.5049934579640442,0.9673424598474332,-0.39685428190550206,-0.4505934579640449,0.42073109583358139,0.6807467697676547,0.2538065420359553,-0.5695271969040078,0.3580473190043117,0.4093065420359551,-0.2736434801772704,0.4685473772714417,0.4073065420359551,0.9210530720211089,0.9117473190043124,0.2522768577850265,0.28335651982273038,-0.6035532302323453,-0.8019353419109292,0.39307202916394998,-0.3315385812427604,-0.33750692711480037,0.4291099031748055,-0.27157907341348239,-0.11689344744339403,0.6675579920434446,0.15482998913929098,-0.9622860557511273,-0.14848932318034453,0.17158580614741288,-0.5584205519483634,0.9182268931740156,-0.025944824737506989,0.3282156909453281,0.04468051614524271,-0.7455337879606372,0.5350581925446772,-0.6907374625870071,0.4140074892274462,-0.17508430905467146,0.059875394892920329,-0.6646938592927536,0.5463794480516366,0.18561661063935079,-0.3725938580522134,-0.7525860557511258,0.770495560428907,-0.12189385587092533,0.7039065525566007,-0.7428934579640442,-0.051793457964045299,0.6036930729373042,0.0695353680008359,-0.4475934579640462,0.8590646580892012,0.8349584067518329,-0.4617934579640462,0.8758768578687608,0.6687704340767549,0.75024705253153,-0.4734934579635369,0.21857418608116076,0.5734065420359541,-0.8129934579636206,-0.029729654608306758,-0.19669345796404526,-0.5051934579638977,-0.9183442943858704,-0.12849345796404505,0.6579065420359701,0.7196322281512981,-0.0328687238236487,-0.0169934579640429,0.374303197446897,-0.6737805531438792,-0.6664934579640441,0.11710070572885967,-0.7614103931219484,-0.8985934579640441,-0.3634994041975309,0.8924092494002301,-0.7224934579640442,-0.6653994640594747],"m_Output":0.9922315049489155,"m_LearnRate":0.02,"m_Error":2.0898748214464519e-14,"m_DesiredOutput":0.0,"m_BackPropagatedError":5.748930639590028e-15},{"m_Bias":1.0,"m_Inputs":[1.0,1.0,1.0,1.0,1.0,1.0,1.0,1.0,1.0,1.0,1.0,1.0,1.0,1.0,1.0,1.0,1.0,1.0,1.0,1.0,1.0,1.0,1.0,1.0,1.0,1.0,1.0,1.0,1.0,1.0,1.0,1.0,1.0,1.0,1.0,1.0,1.0,1.0,0.8927224278450012,1.0,1.0,0.15785303711891175,1.0,1.0,0.1420639604330063,1.0,1.0,0.13382132351398469,1.0,1.0,0.13124999403953553,1.0,1.0,0.13382132351398469,1.0,1.0,0.1420639604330063,1.0,1.0,0.15785303711891175,1.0,1.0,1.0,1.0,1.0,1.0,1.0,1.0,1.0,1.0,1.0,1.0,1.0,1.0,1.0,1.0,1.0,1.0,1.0,1.0,1.0,1.0,1.0,1.0,1.0,1.0,1.0,1.0,1.0,1.0,1.0,1.0,1.0,1.0,1.0,1.0],"m_Weights":[-0.38922024730860907,-0.7650854105759701,-0.15012024730861105,-0.14118034988988924,-0.566150875542241,0.4810797526913909,0.22110413913346345,0.7282199979454492,0.6708797526913878,-0.34675215302006387,0.6758201826525043,-0.6900202473086122,0.8545316823443896,-0.2261355118821667,0.37107975269139095,-0.7640218870453559,0.8361228780963231,0.7644797526913878,0.7125399465236825,-0.9813776083200861,-0.9422202473086122,-0.44294455852829137,0.9910221381892252,-0.367420247308609,0.7125128737064497,-0.7638777580482892,0.5373797526913878,-0.264968352264039,-0.6890778618107747,0.7864011347626742,0.049512873706341799,0.8668223916799136,-0.7390393931143633,-0.09894763423252104,-0.015942626928119296,0.9747475045876494,-0.8512862873966016,0.9638573687602027,-0.9158586920155929,-0.3772244310715516,0.6664108362529339,0.9529379100269173,-0.9441461365017604,-0.6716572048393574,0.33042391199953827,0.07225247608428484,-0.503336869125408,0.5830151945810371,0.7538004512766476,-0.9715806842149987,-0.7113251339227635,-0.12024951501009637,-0.7868256662484375,-0.7176848054189629,-0.7154032549234296,-0.9295883322280386,-0.7435760880004655,-0.7860549652852048,0.17061682396579587,-0.790362089973089,0.9406290876717378,-0.49087410971415298,0.4292413079846053,0.8965797526913901,0.6271797526913878,0.8209475045697531,-0.9329583218080984,-0.023520247308610598,0.8000606068979665,0.4145553308169302,-0.8973202473086122,0.8880011347410581,0.6986146628403246,0.09632769183153968,-0.6366202472903596,-0.8768668281621392,-0.5080202473086122,0.6688797527082263,0.320514801681982,-0.3694202473086086,0.7558797527036911,0.9721435439055735,-0.028520247308610567,-0.7064202473013325,0.5153142677023606,-0.847441774578855,0.66667975269185,0.990197498068622,-0.4008187040781395,-0.07392024730861098,0.723251158493265,0.9285040176261691,-0.19982024730861107,0.8791137576424449,-0.3177821541593973,0.16887975269138898,-0.4717579733653773],"m_Output":0.9635551077534492,"m_LearnRate":0.02,"m_Error":-8.156555546991591e-14,"m_DesiredOutput":0.0,"m_BackPropagatedError":-5.868318349111621e-16},{"m_Bias":1.0,"m_Inputs":[1.0,1.0,1.0,1.0,1.0,1.0,1.0,1.0,1.0,1.0,1.0,1.0,1.0,1.0,1.0,1.0,1.0,1.0,1.0,1.0,1.0,1.0,1.0,1.0,1.0,1.0,1.0,1.0,1.0,1.0,1.0,1.0,1.0,1.0,1.0,1.0,1.0,1.0,0.8927224278450012,1.0,1.0,0.15785303711891175,1.0,1.0,0.1420639604330063,1.0,1.0,0.13382132351398469,1.0,1.0,0.13124999403953553,1.0,1.0,0.13382132351398469,1.0,1.0,0.1420639604330063,1.0,1.0,0.15785303711891175,1.0,1.0,1.0,1.0,1.0,1.0,1.0,1.0,1.0,1.0,1.0,1.0,1.0,1.0,1.0,1.0,1.0,1.0,1.0,1.0,1.0,1.0,1.0,1.0,1.0,1.0,1.0,1.0,1.0,1.0,1.0,1.0,1.0,1.0,1.0,1.0],"m_Weights":[-0.8396354772715038,-0.30629560406340997,0.49526452272849927,0.011651673595990925,0.5025067827688179,0.7685645227284962,-0.6539559932697419,0.9132318049951768,-0.6136354772715038,0.18794221793724845,0.1030306696941304,0.9047645227284962,-0.8317075689943722,0.5696282689831235,-0.4264354772715002,-0.09900693360862198,-0.46911779366592845,-0.5601354772715038,0.9750228825308753,0.5285924933773325,0.1216645227284993,-0.6275760233041484,0.45649786341795808,-0.8597354772715038,-0.9440678402106677,-0.6410235146463125,-0.13993547727150155,0.6637324309874199,-0.8334021365820457,0.07550530675774694,0.791832159789463,-0.5943075066226675,0.18285115431551769,0.5670321582323131,-0.702375893521028,-0.061875111232478078,0.7788539738381652,0.5815503958893115,-0.7835452635730345,-0.8421958215123301,-0.4147801296369356,-0.6565740605156895,0.08490235357240983,-0.06704601078189948,-0.4732513906280158,-0.9524700946505679,-0.6051209311188887,0.32273077120115709,0.11824467939957252,-0.01243935528839197,-0.7647747935646291,0.4079497524052537,-0.337724917022125,0.6062307712011514,0.3753453563736509,0.7752739434021562,0.22894860937198256,0.3424312645891255,-0.0559304132382621,0.13522593948471829,-0.10409572860678691,-0.3294380736749497,0.7384547364248698,0.2984645227284986,0.38306452272849758,-0.31107511074557805,-0.27852875510166105,-0.4119354772715024,0.26305115427944128,0.6354813550896875,0.10816452272849767,-0.06259469247848974,-0.776308957302202,0.8031622443549811,-0.07313547731218627,-0.22127473954092814,0.27476452272849757,-0.4917354773103216,0.6138732919621895,-1.0042354772715077,0.9443645226956552,0.5379060300451903,-0.46713547727150248,0.16506452270707523,-0.16095133874622156,-0.6274770191388369,0.7244645227271344,0.5633669559967285,-0.8201556623312101,-0.4966354772715002,0.6943796264298101,-0.5765176934831056,-0.37893547727150025,0.0662630360108644,0.24968075040676125,0.9010645227284962,-0.4100456244922561],"m_Output":-0.9449427806250568,"m_LearnRate":0.02,"m_Error":2.897710397233407e-14,"m_DesiredOutput":0.0,"m_BackPropagatedError":3.3500993865747107e-15},{"m_Bias":1.0,"m_Inputs":[1.0,1.0,1.0,1.0,1.0,1.0,1.0,1.0,1.0,1.0,1.0,1.0,1.0,1.0,1.0,1.0,1.0,1.0,1.0,1.0,1.0,1.0,1.0,1.0,1.0,1.0,1.0,1.0,1.0,1.0,1.0,1.0,1.0,1.0,1.0,1.0,1.0,1.0,0.8927224278450012,1.0,1.0,0.15785303711891175,1.0,1.0,0.1420639604330063,1.0,1.0,0.13382132351398469,1.0,1.0,0.13124999403953553,1.0,1.0,0.13382132351398469,1.0,1.0,0.1420639604330063,1.0,1.0,0.15785303711891175,1.0,1.0,1.0,1.0,1.0,1.0,1.0,1.0,1.0,1.0,1.0,1.0,1.0,1.0,1.0,1.0,1.0,1.0,1.0,1.0,1.0,1.0,1.0,1.0,1.0,1.0,1.0,1.0,1.0,1.0,1.0,1.0,1.0,1.0,1.0,1.0],"m_Weights":[0.7770712786237486,0.5422053674658276,0.8296712786237486,0.3359675802307381,0.8034688444478163,-0.9487287213762514,0.4920265941451172,0.8699290486575393,0.2884712786237491,0.19272571734666847,-0.14527700297787486,-0.3315287213762509,-0.39520025949777429,-0.5068759192878428,-0.2903287213762509,0.7286699529674011,-0.061016932606598819,0.17997127862375018,0.3572525741418889,-0.8717168960535114,-0.4375287213762509,-0.5402058971765174,0.0038831227567807928,-0.04632872137624988,0.13608192945867135,-0.5989175090908685,-0.25082872137625075,0.9175726313208116,-0.32351687724322039,-0.6932235368082809,0.13388192945869385,-0.45411689605351099,0.017879135151771455,-0.8348861723922517,0.4965211198099811,-0.033220006021630287,0.7678809750405314,-0.3345796679651385,-0.8586196062876276,0.47313482073517096,0.050639468479589767,0.2951806129088725,0.5511621888720122,0.1920683729645179,-0.13016635675016145,-0.09306666384166712,0.5795572523114114,-0.989769275581118,-0.001828026986235536,-0.3054590126244598,0.680098618409451,0.89981629886846,0.8884920163927695,0.7708307244188818,-0.9591264560063849,0.3133511608853155,-0.4722663567501618,-0.1177635096024759,-0.8122710327477583,0.39208061290888515,0.30817396045623626,0.5630899433933578,0.18358039371224517,-0.026328721376249494,-0.9587287213762497,-0.7011200060225515,0.6305191369261288,-0.5775287213762497,-0.01262086485318186,0.7225913012721088,0.9516712786237503,-0.7351235368120804,0.018172360386407486,0.879231710756069,0.07397127861695789,0.24673525600500804,-0.08222872137624819,0.8129712786174145,-0.936628121081441,-0.7614287213762496,-0.18542872138111314,-0.27992405125342975,-0.07092872137624812,0.9771712786207656,-0.3917388033168138,0.2503663097461029,-0.3491287213764404,0.24083542700476094,-0.8589632450710166,-0.8183287213762515,-0.5610834266121287,-0.10488128452604215,-0.5224287213762514,-0.2506344609847403,-0.8289816692104668,0.4823712786237491,-0.8881566792947413],"m_Output":-0.9629255782776774,"m_LearnRate":0.02,"m_Error":2.945544891984441e-14,"m_DesiredOutput":0.0,"m_BackPropagatedError":9.236452977835468e-16},{"m_Bias":1.0,"m_Inputs":[1.0,1.0,1.0,1.0,1.0,1.0,1.0,1.0,1.0,1.0,1.0,1.0,1.0,1.0,1.0,1.0,1.0,1.0,1.0,1.0,1.0,1.0,1.0,1.0,1.0,1.0,1.0,1.0,1.0,1.0,1.0,1.0,1.0,1.0,1.0,1.0,1.0,1.0,0.8927224278450012,1.0,1.0,0.15785303711891175,1.0,1.0,0.1420639604330063,1.0,1.0,0.13382132351398469,1.0,1.0,0.13124999403953553,1.0,1.0,0.13382132351398469,1.0,1.0,0.1420639604330063,1.0,1.0,0.15785303711891175,1.0,1.0,1.0,1.0,1.0,1.0,1.0,1.0,1.0,1.0,1.0,1.0,1.0,1.0,1.0,1.0,1.0,1.0,1.0,1.0,1.0,1.0,1.0,1.0,1.0,1.0,1.0,1.0,1.0,1.0,1.0,1.0,1.0,1.0,1.0,1.0],"m_Weights":[-0.436878611391176,0.14169142356579313,-0.429378611391176,0.24972420019614209,0.15599341319454497,0.02272138860882404,0.24842363858249454,-0.2605070495978647,0.415021388608824,-0.14557694571041253,-0.9925078890187036,-0.303378611391176,-0.23307798598518127,-0.6117094297505279,-0.28547861139117605,-0.20828117612325557,0.9416213235057467,-0.422778611391176,-0.4369829510162583,-0.37337867669611876,0.20612138860882393,-0.6451830323781349,-0.20277867680151727,0.6476213886088263,-0.5965830667351133,-0.7116786762762539,-0.19467861139117607,0.30361692011387617,0.05652132319848304,0.7869213565330281,-0.7109830667351133,0.7083213233038838,0.5912213399974954,0.15531697634716216,-0.6379787029624406,-0.3211786653539487,0.5126170635386714,-0.0037786162391673088,0.6661213321072895,0.7155213987274222,0.6879214742464078,0.245221330715134,0.21115811039273206,-0.6033786033528319,-0.34897877131887097,-0.45013744745335046,0.37422148858081558,0.8010210068754193,0.7239648703100724,-0.8895784895007114,-0.45667906231790358,-0.8284344061386154,0.6151214698423695,-0.13687899312457917,-0.09483512894246589,-0.7919785299785522,-0.6561787713188694,-0.07713744595258275,-0.1539785302302086,-0.13287866928486603,-0.7827418842428233,0.9444214693273029,0.6824213321072895,0.6277213886088263,-0.434978611391176,-0.701378665353956,0.10502090732342558,0.6113213886088263,-0.9742786600025035,-0.9645791016999973,0.278821388608824,-0.05497864346698984,-0.08927910641065577,-0.15277875490590404,-0.06167861139117753,0.9605208921198264,0.14362138860882393,-0.5997786113911742,-0.0036791059795454499,0.8534213886088263,-0.08627861139117603,0.003921082290224545,0.5796213886088263,-0.05427861139117551,0.24332112120133995,-0.8823072887141442,-0.9071786113911731,-0.27217838333842639,-0.7497054687160485,-0.8462786113911737,-0.6653758859035611,-0.41000813772104696,-0.8500786113911737,-0.20137583480420113,0.4983920240729642,0.7431213886088263,0.5625241918743456],"m_Output":-0.9999650451806873,"m_LearnRate":0.02,"m_Error":-1.0203314286402435e-13,"m_DesiredOutput":0.0,"m_BackPropagatedError":-1.2675070002025254e-15},{"m_Bias":1.0,"m_Inputs":[1.0,1.0,1.0,1.0,1.0,1.0,1.0,1.0,1.0,1.0,1.0,1.0,1.0,1.0,1.0,1.0,1.0,1.0,1.0,1.0,1.0,1.0,1.0,1.0,1.0,1.0,1.0,1.0,1.0,1.0,1.0,1.0,1.0,1.0,1.0,1.0,1.0,1.0,0.8927224278450012,1.0,1.0,0.15785303711891175,1.0,1.0,0.1420639604330063,1.0,1.0,0.13382132351398469,1.0,1.0,0.13124999403953553,1.0,1.0,0.13382132351398469,1.0,1.0,0.1420639604330063,1.0,1.0,0.15785303711891175,1.0,1.0,1.0,1.0,1.0,1.0,1.0,1.0,1.0,1.0,1.0,1.0,1.0,1.0,1.0,1.0,1.0,1.0,1.0,1.0,1.0,1.0,1.0,1.0,1.0,1.0,1.0,1.0,1.0,1.0,1.0,1.0,1.0,1.0,1.0,1.0],"m_Weights":[0.5830956338165493,0.8315957596799455,-0.6477043661834507,0.4444993104220246,0.7628957672730706,0.7752956338165493,0.6882992985660458,-0.16840425937596954,0.5981956338165493,0.2604992627011013,-0.23210425970612059,0.9246956338165493,-0.05560080736191796,0.0642957398115189,0.9435956338165493,0.926195627096673,-0.007504366084750593,0.9533956338165494,0.21299562328663233,-0.6352043660844503,-0.26330436618344696,-0.6156043769107946,-0.5525043660842907,-0.7943043661834507,-0.6228043756876867,0.3611956309783178,0.8718956338165493,0.7006956242963665,-0.31090436608428687,-0.20490436950269723,-0.8879043756876867,0.3490956339155535,0.19509562878623616,-0.6020043754853769,0.5607956301303894,-0.43120437176747158,-0.3558043667041325,-0.5908032811580739,0.15099562796985817,0.2288956478440612,0.8914967276791029,-0.8857043721741836,0.64529575715087,-0.14290328263807684,0.3250956283871502,-0.19670424053378036,0.30589672344966459,0.08959562975102319,-0.6087042393255784,-0.3363021070129412,0.15759563017648862,-0.15450423894798305,-0.7147032864549434,0.37849562975102,-0.17400423932457735,0.19859672273939064,0.38399562838715026,-0.8534042405317888,0.06729671937343623,-0.5984043721741835,0.9032957571557803,0.9875967134549528,-0.857504372030146,-0.1970043661834445,0.14839563381655553,0.4187956282325271,-0.270404366044406,-0.45370436618344697,0.5034956287862329,0.37469563395820018,0.281895633816553,-0.4167043695027018,-0.19770436604043976,0.9839956337843098,-0.5267043661834506,-0.3777043660400144,-0.26100436618344699,0.5903956338165494,-0.119504368302069,0.5737956338165493,-0.9448043661834507,-0.21770343367183216,0.30929563381655308,-0.9747043661834507,0.6374967177815056,0.2664971139072198,0.06369563381655517,0.8165967894879503,0.5718971879836768,-0.6379043661834507,0.1847991978362241,-0.5024042318903609,0.34179563381655306,-0.25070073534358297,0.3255957648280475,0.9037956338165494,0.9717992995399077],"m_Output":0.9999994186623167,"m_LearnRate":0.02,"m_Error":-7.594071034454804e-14,"m_DesiredOutput":0.0,"m_BackPropagatedError":-3.4628820809501936e-18},{"m_Bias":1.0,"m_Inputs":[1.0,1.0,1.0,1.0,1.0,1.0,1.0,1.0,1.0,1.0,1.0,1.0,1.0,1.0,1.0,1.0,1.0,1.0,1.0,1.0,1.0,1.0,1.0,1.0,1.0,1.0,1.0,1.0,1.0,1.0,1.0,1.0,1.0,1.0,1.0,1.0,1.0,1.0,0.8927224278450012,1.0,1.0,0.15785303711891175,1.0,1.0,0.1420639604330063,1.0,1.0,0.13382132351398469,1.0,1.0,0.13124999403953553,1.0,1.0,0.13382132351398469,1.0,1.0,0.1420639604330063,1.0,1.0,0.15785303711891175,1.0,1.0,1.0,1.0,1.0,1.0,1.0,1.0,1.0,1.0,1.0,1.0,1.0,1.0,1.0,1.0,1.0,1.0,1.0,1.0,1.0,1.0,1.0,1.0,1.0,1.0,1.0,1.0,1.0,1.0,1.0,1.0,1.0,1.0,1.0,1.0],"m_Weights":[-0.1515318654310746,0.715161092689905,0.9125681345689263,-0.9200371506995942,-0.233956987868142,0.5922681345689262,0.0228626566720074,0.3882911399856242,-0.41943186543107699,-0.9506375030814699,-0.6922098584518722,-0.08853186543107465,-0.7900306321581438,-0.5339073957330264,0.7998681345689263,0.2722776662525626,0.499772376000508,-0.6473318654310737,0.12718450050162923,-0.31552761084821059,-0.8766318654310737,0.17178480733995425,0.8880723960143616,-0.6387318654310737,-0.08081307708265415,-0.019330438367370394,0.14766813456892537,-0.8039130032199958,-0.20952760398563906,0.24776701279418948,-0.9408130770826582,-0.3353276108482106,-0.4242335657007076,-0.343213090931542,0.9026989525562985,0.8879662339055304,-0.01953053310179986,0.5007205782023344,0.301966119926233,0.20244502916419955,-0.7025244477476912,-0.35013394257551719,0.06997100042830958,0.23080933164608376,-0.23123343120636495,-0.08191955290180779,0.3739152777000095,0.9087677462082989,0.39788537730594977,0.24035434726762046,0.8545681135080903,-0.5903130792485578,-0.7890318497829373,0.23176774620829639,0.8613853852327673,0.6828682396050856,0.8330665687936365,0.5579804630137832,0.1669682392804096,0.7913660574245404,-0.548628965627035,-0.16703176129047959,-0.3963338800739784,0.3390681345689499,0.9963681345689263,0.6490662339055137,-0.6638246976950603,0.5593681345689263,-0.43103356570118558,0.91226669479852,-0.7019318654310738,0.9996670127933941,0.05090999663687615,0.9309678578907046,-0.6082318654313752,0.4737923092631929,-0.8914318654310738,-0.33533186543132406,0.5928078128501205,-0.9921318654310649,0.6124681345688448,0.23916259343783975,-0.19503186543107466,0.5588681345689236,0.3935705343005175,0.6565885221602832,-0.5401318654310738,0.35016304766241887,-0.1976097275394528,-0.7736318654310738,-0.9388369894564916,0.4294906142430576,-0.6544318654310737,0.5168629146546196,-0.2419575107656058,0.4721681345689231,-0.9476371350572084],"m_Output":0.9867765373916334,"m_LearnRate":0.02,"m_Error":4.8333288985610588e-14,"m_DesiredOutput":0.0,"m_BackPropagatedError":2.516245558284756e-15},{"m_Bias":1.0,"m_Inputs":[1.0,1.0,1.0,1.0,1.0,1.0,1.0,1.0,1.0,1.0,1.0,1.0,1.0,1.0,1.0,1.0,1.0,1.0,1.0,1.0,1.0,1.0,1.0,1.0,1.0,1.0,1.0,1.0,1.0,1.0,1.0,1.0,1.0,1.0,1.0,1.0,1.0,1.0,0.8927224278450012,1.0,1.0,0.15785303711891175,1.0,1.0,0.1420639604330063,1.0,1.0,0.13382132351398469,1.0,1.0,0.13124999403953553,1.0,1.0,0.13382132351398469,1.0,1.0,0.1420639604330063,1.0,1.0,0.15785303711891175,1.0,1.0,1.0,1.0,1.0,1.0,1.0,1.0,1.0,1.0,1.0,1.0,1.0,1.0,1.0,1.0,1.0,1.0,1.0,1.0,1.0,1.0,1.0,1.0,1.0,1.0,1.0,1.0,1.0,1.0,1.0,1.0,1.0,1.0,1.0,1.0],"m_Weights":[0.7303669843413315,0.23316357031431646,0.11966698434133233,-0.42443443638131247,0.8149514452360388,0.33966698434133166,0.4791744172745471,-0.060233110392339677,0.8548669843413315,0.3521833493771823,-0.7200331100995108,-0.16003301565866716,-0.6189091114115901,0.5742669115006333,0.16826698434133287,0.9586958036705688,0.15906700554217075,-0.8212330156586686,0.20580944956809228,-0.9720329943920937,0.04476698434133253,0.9396102457314625,-0.6599329943577729,0.18906698434133285,-0.00819884161563811,-0.2427329945251555,-0.6574330156586685,0.8569011719286647,-0.13123299435777265,0.6539669947915958,0.5400011583843621,0.17306700560790759,-0.08053299982112333,0.4274000315762571,-0.6281327938961026,0.42516700192280079,-0.5272030623630705,0.4258662493206413,0.7911670027507229,0.8989539891784831,0.3193656081546182,-0.38723299679527709,0.5381506549586987,-0.7023345368978348,-0.8264319164373944,-0.49624991236107077,-0.5853345825937661,-0.3542295543853177,-0.11355019373059458,0.46416704031929809,0.18017118246784095,0.33164963903826408,0.5456654697536093,0.4378704456146823,0.0012496903772889917,0.7906654392524568,-0.10703191643739188,0.9305498549488304,0.5837654440284599,0.057567003204722657,-0.002949829810246156,0.6221654524262758,-0.929032997249277,-0.7992330156586686,0.8121669843413315,0.1067670019228047,0.9203705145234629,-0.04643301565866836,0.202267000178881,0.7430705807094353,0.4858669843413303,0.7330669947916148,-0.6125293847383593,0.3066682522413689,-0.291533015658652,-0.5680293739595806,-0.5986330156586686,-0.9576330156586546,0.015370615123975522,-0.5121330156586685,-0.6575330156586631,0.6967705270028162,-0.029633015658668186,0.4044669843413321,-0.5262295479071139,-0.7918331110908184,0.6272669843413316,0.48156691777318647,-0.5739331130350698,-0.41893301565866838,-0.46793439287467089,-0.45791119114367948,0.8419669843413314,-0.2665344186956289,-0.09812633689994145,0.6970669843413315,-0.4583344321762278],"m_Output":0.9998571570615157,"m_LearnRate":0.02,"m_Error":1.3329887878037327e-14,"m_DesiredOutput":0.0,"m_BackPropagatedError":6.433112650898324e-19},{"m_Bias":1.0,"m_Inputs":[1.0,1.0,1.0,1.0,1.0,1.0,1.0,1.0,1.0,1.0,1.0,1.0,1.0,1.0,1.0,1.0,1.0,1.0,1.0,1.0,1.0,1.0,1.0,1.0,1.0,1.0,1.0,1.0,1.0,1.0,1.0,1.0,1.0,1.0,1.0,1.0,1.0,1.0,0.8927224278450012,1.0,1.0,0.15785303711891175,1.0,1.0,0.1420639604330063,1.0,1.0,0.13382132351398469,1.0,1.0,0.13124999403953553,1.0,1.0,0.13382132351398469,1.0,1.0,0.1420639604330063,1.0,1.0,0.15785303711891175,1.0,1.0,1.0,1.0,1.0,1.0,1.0,1.0,1.0,1.0,1.0,1.0,1.0,1.0,1.0,1.0,1.0,1.0,1.0,1.0,1.0,1.0,1.0,1.0,1.0,1.0,1.0,1.0,1.0,1.0,1.0,1.0,1.0,1.0,1.0,1.0],"m_Weights":[0.33729999998311618,-0.5146000000181737,0.0667999999831167,-0.41659999999012389,0.4609999999832067,0.4433999999831162,0.14330000000937799,0.9782999999831401,0.4469999999831162,-0.05579999999129875,-0.7610000000168599,-0.27060000001688386,-0.43079999999244758,0.3892999999752447,-0.1495000000168832,-0.08490000001869834,0.09589999997517716,-0.2849000000168838,0.300299999979292,-0.348200000024848,-0.33360000001688386,0.7269999999792195,0.6038999999751381,0.47949999998311618,-0.561200000020781,-0.47250000002486328,-0.37890000001688386,0.21099999997920935,-0.056300000024860189,0.891099999979127,0.6539999999792191,-0.595200000024849,0.01129999997707286,0.8901999999792593,0.06409999997497969,0.5568999999764058,0.9485999999793415,0.9045000000050564,-0.11860000002390832,-0.7466000000168451,0.827000000013515,0.4261999999759184,0.02679999998325482,0.26400000001288778,0.38829999997574357,-0.24780000001673428,0.8568000000135487,0.1917999999755257,0.6814999999832674,0.6270000000120931,-0.25390000002454307,-0.9816000000167301,0.6016000000130551,0.04529999997552559,0.8752999999832692,0.6102000000130641,-0.1185000000242562,0.5872999999832682,-0.8554999999870286,-0.06650000002408138,-0.17780000001673319,0.9323000000128086,0.03449999997609184,0.5557999999831151,0.2901999999831162,0.8341999999764059,0.7179999999750674,-0.32100000001688386,-0.6748000000229287,0.29359999997491706,-0.033500000016883187,0.19129999997912876,0.833699999974838,0.04679999998286046,-0.17530000001688324,0.24009999997481433,-0.29980000001688386,-0.6601000000168849,-0.9089000000251608,0.6865999999831152,-0.3293000000168838,0.4291999999749731,0.5293999999831152,0.31669999998311618,0.1448999999751337,0.6355999999831417,-0.1969000000168832,0.9659999999831845,-0.9852000000168579,0.45379999998311618,-0.3245999999909434,-0.6388000000178989,0.7598999999831152,0.9479000000095419,0.4310999999821531,0.8945999999831151,-0.6082999999902043],"m_Output":0.9999999999977758,"m_LearnRate":0.02,"m_Error":-9.087078210019761e-14,"m_DesiredOutput":0.0,"m_BackPropagatedError":-4.291524168229761e-25},{"m_Bias":1.0,"m_Inputs":[1.0,1.0,1.0,1.0,1.0,1.0,1.0,1.0,1.0,1.0,1.0,1.0,1.0,1.0,1.0,1.0,1.0,1.0,1.0,1.0,1.0,1.0,1.0,1.0,1.0,1.0,1.0,1.0,1.0,1.0,1.0,1.0,1.0,1.0,1.0,1.0,1.0,1.0,0.8927224278450012,1.0,1.0,0.15785303711891175,1.0,1.0,0.1420639604330063,1.0,1.0,0.13382132351398469,1.0,1.0,0.13124999403953553,1.0,1.0,0.13382132351398469,1.0,1.0,0.1420639604330063,1.0,1.0,0.15785303711891175,1.0,1.0,1.0,1.0,1.0,1.0,1.0,1.0,1.0,1.0,1.0,1.0,1.0,1.0,1.0,1.0,1.0,1.0,1.0,1.0,1.0,1.0,1.0,1.0,1.0,1.0,1.0,1.0,1.0,1.0,1.0,1.0,1.0,1.0,1.0,1.0],"m_Weights":[0.47089326861598826,0.973793288327198,0.5540932686159886,0.034097475855146209,0.17769328839246779,-0.1334067313840115,-0.6121025366949977,-0.3396067116575917,0.5546932686159886,-0.815402576711346,-0.4453067117185677,-0.7795067313840114,-0.36480265323589985,-0.09000485514694419,-0.4584067313840117,0.49609326833140546,-0.5422048645270308,-0.7373067313840114,0.3928932679101692,-0.5971048587385226,0.7177932686159886,-0.5891067321030625,0.6545951442832315,0.03099326861598856,0.7519932678937106,-0.33580494454314227,-0.1287067313840115,-0.38190673210840078,-0.39480485571676945,0.4312941038075102,0.8856932678937106,0.6156951412614774,-0.07000546564185149,-0.15160673209910653,0.2291951622304767,-0.6340053263091972,-0.4630067320808237,-0.3476048634898386,0.4929947397830721,-0.43740673138063165,0.14139331573754986,-0.3437052239746785,0.5900932859378244,0.45089331018083236,-0.7516051911615173,0.7453932862670485,0.3794936215574415,-0.45630515371953397,-0.8662067135625482,-0.13490625192672313,0.30209485796062848,0.6851932864911573,-0.9619063924057034,0.49169484628046608,-0.32620671356174926,0.05999332095193127,-0.6808051911615172,-0.47700671373134825,0.2820933207901557,-0.48660522397467689,0.9951932859437803,0.7697933205057023,-0.9449052602169332,-0.8767067313840115,-0.7011067313840114,-0.061105326308928,0.29039484240440929,0.7867932686159886,0.6807945343581343,-0.8245051280893495,-0.04090673138401148,0.8052941038079169,-0.23040511268560763,-0.16970673145564897,0.2613932686159874,0.06149489211970092,-0.1793067313840115,-0.7963067313840127,-0.21750518180062498,-0.9935067313840115,0.2845932686159875,-0.6724051952901129,-0.5157067313840115,0.7400932686159875,-0.8708052357125993,-0.7995033443239569,0.5774932686159886,0.4382931853038389,-0.8255028630410706,-0.8308067313840114,-0.9532026529953835,-0.9861063320374736,0.37029326861598829,-0.02050257652904852,-0.43270671185223089,0.37159326861598826,-0.3989025365975394],"m_Output":-0.9999999929397113,"m_LearnRate":0.02,"m_Error":-5.0122518067236978e-14,"m_DesiredOutput":0.0,"m_BackPropagatedError":-2.7436375620798409e-19},{"m_Bias":1.0,"m_Inputs":[1.0,1.0,1.0,1.0,1.0,1.0,1.0,1.0,1.0,1.0,1.0,1.0,1.0,1.0,1.0,1.0,1.0,1.0,1.0,1.0,1.0,1.0,1.0,1.0,1.0,1.0,1.0,1.0,1.0,1.0,1.0,1.0,1.0,1.0,1.0,1.0,1.0,1.0,0.8927224278450012,1.0,1.0,0.15785303711891175,1.0,1.0,0.1420639604330063,1.0,1.0,0.13382132351398469,1.0,1.0,0.13124999403953553,1.0,1.0,0.13382132351398469,1.0,1.0,0.1420639604330063,1.0,1.0,0.15785303711891175,1.0,1.0,1.0,1.0,1.0,1.0,1.0,1.0,1.0,1.0,1.0,1.0,1.0,1.0,1.0,1.0,1.0,1.0,1.0,1.0,1.0,1.0,1.0,1.0,1.0,1.0,1.0,1.0,1.0,1.0,1.0,1.0,1.0,1.0,1.0,1.0],"m_Weights":[0.4667861278344263,0.15189348588443897,0.3093861278344263,-0.5451145439245911,0.5926861098043831,-0.13711387216557464,0.9581873306573643,0.9059861257319996,0.4966861278344263,-0.08451077573815412,0.20778612573849379,-0.7698138721655702,0.6122926525489824,-0.7608138688300723,-0.8845138721655701,0.7404949083088844,0.2754861332841404,0.22878612783442538,0.6675984942736147,0.28538613330103826,-0.6850138721655702,0.9939987261270193,-0.901713866690137,0.3613861278344263,0.8520988377605442,0.6122860045987895,0.5114861278344298,-0.8713011245958933,-0.054813866690141477,-0.5650140170441838,0.7900988377605467,-0.7371138666989583,0.8897859082668069,-0.539701283981839,0.35388613753942957,0.05168588409401842,0.4730984816734975,0.551486022358773,0.691885872627357,0.46468611519572608,-0.4740139830505202,0.8340858663394999,-0.36751391885985498,0.28488602739127236,-0.6303137600532209,0.20798607985580518,-0.4379140100491054,0.9298870628887597,0.9311860791065366,-0.7266142149999152,-0.9053126803906579,0.7506860786803415,-0.10031400825154027,-0.9139129371112403,-0.7139139211741706,0.4726860207040359,0.05348623994677451,0.947986079292201,-0.3972139789648149,0.9802858663395021,0.3512860801855445,0.8294860216174607,-0.03921412737265811,0.061686127834425289,0.12538612783442538,-0.055214115906009799,-0.6596138573644232,0.15188612783442538,-0.11471409173321928,0.06378614291306846,-0.7326138721655702,0.7238859829557376,0.5368861430579446,-0.7971138689911489,-0.24061387216557854,-0.5192138568968627,0.3614861278344263,-0.18661387216557857,-0.00841395605071305,-0.3560138721655737,0.05008612783442186,0.5815857787655355,-0.8026138721655701,-0.32831387216557458,-0.6598142806648131,-0.9606138790462614,0.36318612783442619,0.8035856764754336,-0.8258139347041962,0.8810861278344299,0.9980854766474857,0.524990707755512,-0.05131387216557471,0.7114854644384525,-0.8867091887703603,-0.3035138721655737,-0.12671454193630747],"m_Output":0.999948516434432,"m_LearnRate":0.02,"m_Error":1.0051911804270638e-13,"m_DesiredOutput":0.0,"m_BackPropagatedError":2.5755510720225028e-18},{"m_Bias":1.0,"m_Inputs":[1.0,1.0,1.0,1.0,1.0,1.0,1.0,1.0,1.0,1.0,1.0,1.0,1.0,1.0,1.0,1.0,1.0,1.0,1.0,1.0,1.0,1.0,1.0,1.0,1.0,1.0,1.0,1.0,1.0,1.0,1.0,1.0,1.0,1.0,1.0,1.0,1.0,1.0,0.8927224278450012,1.0,1.0,0.15785303711891175,1.0,1.0,0.1420639604330063,1.0,1.0,0.13382132351398469,1.0,1.0,0.13124999403953553,1.0,1.0,0.13382132351398469,1.0,1.0,0.1420639604330063,1.0,1.0,0.15785303711891175,1.0,1.0,1.0,1.0,1.0,1.0,1.0,1.0,1.0,1.0,1.0,1.0,1.0,1.0,1.0,1.0,1.0,1.0,1.0,1.0,1.0,1.0,1.0,1.0,1.0,1.0,1.0,1.0,1.0,1.0,1.0,1.0,1.0,1.0,1.0,1.0],"m_Weights":[0.5517486174188909,-0.8568892198995899,0.40574861741889259,-0.14282088828849924,0.392691486069945,0.025448617418891974,-0.1432875673595336,-1.0128288240766759,-0.648251382581109,-0.7973124724181149,-0.32212951202413328,0.30764861741889257,0.7943384626470835,-0.907708661918828,-0.7789513825811091,-0.06278393167373908,0.9396702499056093,-0.08885138258110793,0.7507372649021088,0.6128700069137827,-0.730051382581109,-0.29756107307673076,0.06686987997548645,0.562448617418891,-0.48166789339967677,-0.04141739945335641,-0.014851382581107947,0.04713839272209171,-0.27683012002451287,-0.24387613184806573,0.8068321066003066,-0.9296299930862173,-0.9562888904248537,0.5890680820044958,0.771346939990863,-0.36519301945945267,0.5486960507213471,0.7611070636806038,0.6208050217452956,-0.48104459005268576,0.3150576205984296,-0.3533960523736031,0.9599991539141,0.8109250286978705,-0.3526633821926122,-0.532314414262933,-0.6499922032526434,0.7508090765323163,0.7489819769649242,-0.4491160639365793,-0.029168319628540677,-0.22768733804172174,-0.6753083345532588,0.045409076532319337,-0.4247171259495109,-0.16544196202616913,0.05433661780738749,0.8340873869202162,-0.6840552828154353,-0.5866960523738298,-0.9689955213054905,0.7870212947643537,0.2445050217463344,0.5764486174188941,-0.6307513825810789,-0.4118930194637578,0.24268196270784535,-0.8214513825810789,-0.6985888904142371,0.5649413409695926,0.37044861741892146,-0.8366761318498801,0.26892013449799748,0.21348662095281149,-0.7169513825703592,0.6019135190062479,-0.26705138258107888,0.24134861742918607,-0.10627003932217548,-0.9591513825810774,-0.41045138257228039,0.2147357320635133,0.28854861741892098,-0.845451382575306,0.7660515937616246,0.030873147058004065,0.7267486174192593,-0.01865118898420425,0.01088357780119474,-0.0778513825811079,0.5697148249802628,0.7047113797516532,0.42654861741889257,0.1968716795312025,-0.5214139177168865,0.509048617418891,0.39165356702745887],"m_Output":-0.8516821058934925,"m_LearnRate":0.02,"m_Error":1.7121202516641437e-14,"m_DesiredOutput":0.0,"m_BackPropagatedError":5.747678489736738e-15},{"m_Bias":1.0,"m_Inputs":[1.0,1.0,1.0,1.0,1.0,1.0,1.0,1.0,1.0,1.0,1.0,1.0,1.0,1.0,1.0,1.0,1.0,1.0,1.0,1.0,1.0,1.0,1.0,1.0,1.0,1.0,1.0,1.0,1.0,1.0,1.0,1.0,1.0,1.0,1.0,1.0,1.0,1.0,0.8927224278450012,1.0,1.0,0.15785303711891175,1.0,1.0,0.1420639604330063,1.0,1.0,0.13382132351398469,1.0,1.0,0.13124999403953553,1.0,1.0,0.13382132351398469,1.0,1.0,0.1420639604330063,1.0,1.0,0.15785303711891175,1.0,1.0,1.0,1.0,1.0,1.0,1.0,1.0,1.0,1.0,1.0,1.0,1.0,1.0,1.0,1.0,1.0,1.0,1.0,1.0,1.0,1.0,1.0,1.0,1.0,1.0,1.0,1.0,1.0,1.0,1.0,1.0,1.0,1.0,1.0,1.0],"m_Weights":[-0.6450481629624347,0.43137268512400225,-0.9596481629624347,0.1939340015583547,-0.84769573353297,0.4304518370375638,-0.8465052872250591,0.16014201036641066,-0.21144816296243575,0.47356213664248239,0.09214204074149521,-0.2565481629624362,-0.05117930021672897,-0.9216003291765441,0.7941518370375652,-0.08149998875981172,-0.7479902706601055,0.8049518370375652,-0.19656091337741958,-0.5245900911551589,0.07105183703756386,0.8078444497118401,0.3255100025551162,-0.15744816296243575,-0.7366897511124368,0.15551003069006703,0.3603518370375638,-0.9964411650615737,0.647210002555118,-0.2820190717974354,-0.9194897511124368,-0.28289009115516036,-0.24490407487110489,-0.7812561710429459,-0.6405860328650747,0.8043007785187736,-0.14687927240841359,-0.17190911542162738,-0.581596919174012,0.7660384241721729,0.11679932659495426,-0.02419565668430019,-0.0411912290356948,0.5340492590888405,-0.383522309969115,-0.7832021902715243,-0.9570588653765628,-0.17328841023467987,0.7482932050001719,-0.22365481852706069,0.15773411960692386,0.3644903239320078,0.6716275524962181,0.016611589765319867,-0.7070089020341371,-0.45536761692806945,-0.9254223099691157,0.1786935791903242,-0.0715672476855961,-0.021795656684300177,-0.9491016679592107,-0.8530665984333495,0.49420308082599059,-0.9483481629624355,0.38945183703756028,-0.6437992214722911,0.9695052440892611,-0.27894816296243976,0.7001959251293618,0.970904370534182,-0.9465481629624374,0.4048809282181581,0.3676039144974654,0.0022213173327993386,0.33945183703920658,-0.9235962277648134,-0.18674816296243883,0.772351837038927,-0.7922960863508947,-0.9893481629624382,0.09335183703803146,-0.48369607602657868,-0.7805481629624375,-0.1481481629623946,0.5431047249814699,-0.3197634974897928,0.026351837037566624,0.72115128353186,0.8900361696562638,0.7956518370375653,0.7112376099426752,0.6410253750404696,0.8807518370375652,0.4212354683502205,0.6979132696162532,-0.049048162962436098,0.46253435033036158],"m_Output":-0.9947784903179195,"m_LearnRate":0.02,"m_Error":8.440487317847115e-14,"m_DesiredOutput":0.0,"m_BackPropagatedError":1.1231346956008616e-16},{"m_Bias":1.0,"m_Inputs":[1.0,1.0,1.0,1.0,1.0,1.0,1.0,1.0,1.0,1.0,1.0,1.0,1.0,1.0,1.0,1.0,1.0,1.0,1.0,1.0,1.0,1.0,1.0,1.0,1.0,1.0,1.0,1.0,1.0,1.0,1.0,1.0,1.0,1.0,1.0,1.0,1.0,1.0,0.8927224278450012,1.0,1.0,0.15785303711891175,1.0,1.0,0.1420639604330063,1.0,1.0,0.13382132351398469,1.0,1.0,0.13124999403953553,1.0,1.0,0.13382132351398469,1.0,1.0,0.1420639604330063,1.0,1.0,0.15785303711891175,1.0,1.0,1.0,1.0,1.0,1.0,1.0,1.0,1.0,1.0,1.0,1.0,1.0,1.0,1.0,1.0,1.0,1.0,1.0,1.0,1.0,1.0,1.0,1.0,1.0,1.0,1.0,1.0,1.0,1.0,1.0,1.0,1.0,1.0,1.0,1.0],"m_Weights":[-0.0765583458258844,-0.8397788335232665,-0.7242583458258826,-0.7475677574461621,0.3377907328370654,0.1409416541741156,0.7824871453343935,-0.26139129684555198,0.7669416541741174,1.0021147440310155,-0.3146902676653381,0.6915416541741174,-0.7778644124885912,0.7471716671823961,-0.6823583458258826,-0.012786279485747654,-0.0660978910217575,0.9007416541741175,0.5511759158696565,0.9437022964286641,-0.3417583458258856,-0.4751159423376198,-0.27479760571313846,0.3457416541741144,-0.7352793013267703,-0.15289774859167186,0.9204416541741174,-0.7239788014935942,-0.5696976057131353,0.540171835447564,0.9627206986732337,0.32200229642866148,-0.5955126056663137,-0.36988861139398646,0.9404469505500125,0.6625924295727935,0.9831843325736583,0.7930827031706695,0.8059948181303082,0.426167044258912,-0.5285538808793803,-0.8362038720839621,0.8236027278477022,-0.2875296221105059,-0.6084363781375815,-0.9229738005311587,0.7025564430387516,-0.9009087010741502,0.4409879450242476,-0.3031626093618028,-0.002331262552597926,0.5678730211061714,-0.8092286857987158,0.05819129892584906,-0.14831641632774229,-0.5906246060327622,0.4515636218624169,-0.05758255732543543,1.0096925997558648,-0.49280387208395917,0.23308230052960175,0.5284228533094714,-0.6752051818697101,-0.7571583458258826,-0.9332583458258826,0.37979242958188516,0.30342653305127295,0.6190416541741174,0.8227873943335219,-0.32866812587105118,0.02034165417411558,0.15187183546239894,-0.8889653375768672,-0.8594979948294851,0.4827416541742538,-0.48916446774944785,-0.2866583458258856,-0.9768583458258124,-0.029565471112814675,-0.8002583458258826,0.15494165417397633,0.8371837601871994,-0.1529583458258844,0.7433416541739474,-0.44189437335333178,-0.5976992012356697,0.14174165417410496,0.36168621751667148,0.7847653462479919,0.5417416541741174,-0.7837275627077825,0.05154469569874622,0.7987416541741174,0.3038705301127564,-0.7946539804064774,-0.04105834582588445,0.8439651244313339],"m_Output":0.948566280251787,"m_LearnRate":0.02,"m_Error":1.2972230882137734e-14,"m_DesiredOutput":0.0,"m_BackPropagatedError":5.891472404939031e-16},{"m_Bias":1.0,"m_Inputs":[1.0,1.0,1.0,1.0,1.0,1.0,1.0,1.0,1.0,1.0,1.0,1.0,1.0,1.0,1.0,1.0,1.0,1.0,1.0,1.0,1.0,1.0,1.0,1.0,1.0,1.0,1.0,1.0,1.0,1.0,1.0,1.0,1.0,1.0,1.0,1.0,1.0,1.0,0.8927224278450012,1.0,1.0,0.15785303711891175,1.0,1.0,0.1420639604330063,1.0,1.0,0.13382132351398469,1.0,1.0,0.13124999403953553,1.0,1.0,0.13382132351398469,1.0,1.0,0.1420639604330063,1.0,1.0,0.15785303711891175,1.0,1.0,1.0,1.0,1.0,1.0,1.0,1.0,1.0,1.0,1.0,1.0,1.0,1.0,1.0,1.0,1.0,1.0,1.0,1.0,1.0,1.0,1.0,1.0,1.0,1.0,1.0,1.0,1.0,1.0,1.0,1.0,1.0,1.0,1.0,1.0],"m_Weights":[0.567490519154901,-0.3509701663543524,-0.004909480845098734,-0.23933291605420896,-0.928414866779945,-0.740409480845099,-0.2429817144690337,0.6652901118958506,0.8291905191549009,0.4443716030911966,-0.9614083413023092,0.558690519154901,-0.6656478806888327,0.683387053750837,0.4115905191549012,0.968131293587327,0.7977782205410956,0.3354905191549012,0.39921401568916767,-0.3308246081961878,-0.43540948084509886,0.6847275578031873,0.6422739151077118,-0.778809480845099,0.9412578556144678,0.8108734874456242,-0.735709480845099,-0.5555914904243386,0.9496739151077118,0.33583210285381445,-0.20364214438552667,0.9170753918038118,-0.4936042175147224,-0.34420832683624688,0.09551756817876847,0.3383193036887126,0.9422191260387509,0.3886643549369517,0.032283025118202617,0.5280783148099052,-0.959225334838434,-0.972736868543955,-0.32220996341192917,-0.08659260875205018,0.05284769930605154,0.7520484747690899,0.4129627741393293,0.8081261666141892,-0.23597114164498915,0.044401978661669939,0.9516625995369947,0.9278220993110378,-0.2261648141990622,-0.7599738333858108,0.23902792550294667,0.8830774037445467,-0.025752300693948465,-0.2447533982266315,-0.18022255571459323,-0.7570368685439557,0.976682376672976,-0.6872224844301329,0.6976830251182259,-0.5238094808450983,-0.3521094808450828,-0.896480696451083,0.03416972258778631,0.6724905191549161,-0.42900421751350556,-0.9449437912952595,-0.983309480845084,-0.6081678973677024,-0.7150508462262818,0.8375874348779165,-0.387409480841914,-0.4809530470628012,-0.02870948084508295,-0.2870094808423827,0.15054917918755784,-0.8466094808450839,-0.6180094808438841,-0.5606589710259852,0.6444905191549161,-0.11050948084472415,0.36825207703784237,-0.1678020081404617,0.1274905191549248,-0.7490282960702693,0.3805469687313491,0.19659051915490087,-0.652332198413182,0.1517628746708773,-0.44690948084509887,-0.22753262433545866,0.5328156380612088,0.711190519154901,-0.6871328466908246],"m_Output":-0.8346436920552263,"m_LearnRate":0.02,"m_Error":1.0004798943534652e-13,"m_DesiredOutput":0.0,"m_BackPropagatedError":1.2850647323010712e-14},{"m_Bias":1.0,"m_Inputs":[1.0,1.0,1.0,1.0,1.0,1.0,1.0,1.0,1.0,1.0,1.0,1.0,1.0,1.0,1.0,1.0,1.0,1.0,1.0,1.0,1.0,1.0,1.0,1.0,1.0,1.0,1.0,1.0,1.0,1.0,1.0,1.0,1.0,1.0,1.0,1.0,1.0,1.0,0.8927224278450012,1.0,1.0,0.15785303711891175,1.0,1.0,0.1420639604330063,1.0,1.0,0.13382132351398469,1.0,1.0,0.13124999403953553,1.0,1.0,0.13382132351398469,1.0,1.0,0.1420639604330063,1.0,1.0,0.15785303711891175,1.0,1.0,1.0,1.0,1.0,1.0,1.0,1.0,1.0,1.0,1.0,1.0,1.0,1.0,1.0,1.0,1.0,1.0,1.0,1.0,1.0,1.0,1.0,1.0,1.0,1.0,1.0,1.0,1.0,1.0,1.0,1.0,1.0,1.0,1.0,1.0],"m_Weights":[-0.7956684770815221,-0.7339050931572215,-0.05026847708152156,-0.2802341233797377,0.7411974566129468,0.23653152291847946,-0.2890355686855411,0.028499572249359164,0.5591315229184779,0.6448640522375687,-0.06290032898837715,0.6276315229184779,-0.2781343813225177,-0.0874002036724836,-0.7374684770815221,0.6067255121030769,-0.33276852568785267,0.8626315229184779,0.5394378648277568,-0.33076852583856489,-0.19016847708152055,0.108137983729459,0.8161314740830331,-0.022268477081521647,-0.2153052485670376,-0.7076685230814295,0.37603152291847766,0.7088942417919073,-0.1340685259169649,0.8400315017778661,0.5139947514329607,-0.694468525838565,-0.09776850911757193,-0.7922085506520539,-0.21462885278901237,-0.5348685124152178,-0.7799638835409875,0.4521394681102532,-0.3408685136508225,0.22190464515222525,-0.04800279440616318,0.8794314856716284,0.8273204508757149,0.2061555777430233,-0.791168747785105,-0.3591989006677774,-0.32253631245546968,-0.697569257657154,-0.8973089171886609,0.563218993126252,0.9044305832858849,-0.07271211980180864,-0.9880243439104343,0.06053074234284572,0.5204909692071497,0.0970757857946355,-0.548868747785105,0.971800871235863,0.9359759580828759,0.4500314856716283,0.8604198388425577,0.0030762610234496068,-0.8365685136508203,0.7199315229184786,-0.8681684770815221,-0.36756851241521279,-0.2733870402827013,-0.48486847708152239,-0.8719685091175415,0.7986201111237783,0.38753152291847767,0.21613150177791874,0.20482384449141972,-0.6817660681718111,0.7182315229185482,-0.06837499085980824,0.28063152291847767,-0.3891684770814597,-0.22977615330987165,-0.8561684770815221,0.6156315229185085,0.07473579275693536,0.6060315229184778,0.3034315229184908,0.9368149445419025,-0.41350385759503879,-0.705568477081521,0.842527010471965,-0.3129045543772229,0.6892315229184779,-0.985229050913008,-0.7519056339647071,0.5167315229184779,0.2097679385575325,0.36119259702327485,0.9496315229184779,0.7166663669055807],"m_Output":0.9760259047156888,"m_LearnRate":0.02,"m_Error":-8.637306703778618e-15,"m_DesiredOutput":0.0,"m_BackPropagatedError":-2.7456543725685296e-17},{"m_Bias":1.0,"m_Inputs":[1.0,1.0,1.0,1.0,1.0,1.0,1.0,1.0,1.0,1.0,1.0,1.0,1.0,1.0,1.0,1.0,1.0,1.0,1.0,1.0,1.0,1.0,1.0,1.0,1.0,1.0,1.0,1.0,1.0,1.0,1.0,1.0,1.0,1.0,1.0,1.0,1.0,1.0,0.8927224278450012,1.0,1.0,0.15785303711891175,1.0,1.0,0.1420639604330063,1.0,1.0,0.13382132351398469,1.0,1.0,0.13124999403953553,1.0,1.0,0.13382132351398469,1.0,1.0,0.1420639604330063,1.0,1.0,0.15785303711891175,1.0,1.0,1.0,1.0,1.0,1.0,1.0,1.0,1.0,1.0,1.0,1.0,1.0,1.0,1.0,1.0,1.0,1.0,1.0,1.0,1.0,1.0,1.0,1.0,1.0,1.0,1.0,1.0,1.0,1.0,1.0,1.0,1.0,1.0,1.0,1.0],"m_Weights":[-0.8922805944205113,0.07579606712367353,0.5757194055794888,0.9149333927857742,-0.8382315357742972,-0.8262805944205113,-0.6947464630159826,-0.824653708765923,-0.31238059442050866,0.7239760926160725,0.6931462081282083,0.3417194055794914,-0.4088866443168294,0.8158207230825135,0.8396194055794887,0.20429293178675068,0.7915939277562231,0.8337194055794888,-0.21273249889870528,0.3963938487578938,-0.14058059442050908,0.7837852765925424,0.5445938074600818,-0.6625805944205113,-0.1159907873134275,0.8272969303052404,-0.5617805944205113,0.783712286559034,0.13869380746008376,0.6988101954740184,0.9948092126865726,-0.04390615124210722,0.767905447449801,0.21470102982117077,0.17074734530635175,0.534903909955752,0.19288622399679418,-0.7733576909278809,0.45180317937680439,-0.10139488877663311,0.29900486990547089,0.12590277875787415,0.24687060538107076,-0.13886937138889744,-0.40081170944516905,-0.5012084364775086,-0.9045713250684067,0.8715756634996885,-0.8268048054764232,0.04342480794535869,0.7232341153640912,0.37419828821210068,-0.4269807028236395,-0.44862433650031077,-0.1446019452669026,-0.675680589294848,0.5285882905548283,0.23779730629822844,0.031319410689310548,-0.6662972212421828,0.7349958726516922,-0.47838058933857416,0.03590317937701938,-0.011880594420509558,0.7288194055794612,-0.26369609004756386,0.5726702301978901,0.37521940557946389,-0.3556945525503105,-0.6964400660704725,-0.9900805944205389,0.564310195467922,-0.6192454412094465,0.8867685478899492,-0.9031805944224256,0.7322528819818693,-0.46468059442053619,-0.31718059442209969,0.7370569785310462,-0.6162805944205388,0.7313194055789345,-0.4343312774794044,0.6089194055794612,-0.9054805944205689,0.9746804463878017,-0.38085352463445779,-0.6174805944205153,0.21613028849987113,-0.642151511996427,-0.15418059442050903,-0.9942670452363773,0.9544412986532042,0.19481940557949097,0.11743321033279923,0.16387233785015532,-0.22318059442050904,-0.9105666486138375],"m_Output":0.9982693142231988,"m_LearnRate":0.02,"m_Error":2.086148184052245e-14,"m_DesiredOutput":0.0,"m_BackPropagatedError":7.776078215813935e-17},{"m_Bias":1.0,"m_Inputs":[1.0,1.0,1.0,1.0,1.0,1.0,1.0,1.0,1.0,1.0,1.0,1.0,1.0,1.0,1.0,1.0,1.0,1.0,1.0,1.0,1.0,1.0,1.0,1.0,1.0,1.0,1.0,1.0,1.0,1.0,1.0,1.0,1.0,1.0,1.0,1.0,1.0,1.0,0.8927224278450012,1.0,1.0,0.15785303711891175,1.0,1.0,0.1420639604330063,1.0,1.0,0.13382132351398469,1.0,1.0,0.13124999403953553,1.0,1.0,0.13382132351398469,1.0,1.0,0.1420639604330063,1.0,1.0,0.15785303711891175,1.0,1.0,1.0,1.0,1.0,1.0,1.0,1.0,1.0,1.0,1.0,1.0,1.0,1.0,1.0,1.0,1.0,1.0,1.0,1.0,1.0,1.0,1.0,1.0,1.0,1.0,1.0,1.0,1.0,1.0,1.0,1.0,1.0,1.0,1.0,1.0],"m_Weights":[-0.7414000000909906,0.13229999991294176,0.8626999999090094,-0.07449999997796199,-0.2799000000860229,0.22689999990900867,0.8689000000206345,0.0336999999096404,-0.8415000000909907,-0.007199999981514193,-0.31420000009036228,-0.5457000000909906,0.12240000001568509,0.7889999998851577,-0.15430000009099133,0.4999999999057652,-0.35250000011560336,-0.39760000009099158,0.16859999990491129,-0.08740000011567906,-0.05860000009099084,0.012899999904835019,0.10959999988428113,-0.6462000000909907,-0.6430000000936399,0.01729999988514446,0.7984999999090093,-0.7016000000936333,-0.9437000001157184,-0.6305000001023545,0.26379999990635896,-0.27600000011567968,0.3198999998917869,0.6433999999065173,-0.7228000001166982,0.5509999998898918,0.8753999999075818,0.45870000000539887,0.011799999888992406,0.3398999999121246,0.7405000000356166,0.061399999888499309,0.8171999999156628,0.6269000000284611,0.6972999998881031,-0.23760000008420585,0.23600000003611266,0.05739999988770268,0.1604999999158635,-0.5458999999687889,-0.4522000001124225,-0.48440000008411257,0.9950000000328777,0.8646999998877033,0.1485999999158675,0.2457000000333519,-0.9773000001118969,0.5088999999158025,-0.4314999999670327,0.7026999998884992,0.4283999999156768,0.5705000000322923,-0.022600000111007585,0.7889999999090094,0.7288999999090093,0.9616999998898919,0.1342999998734971,0.47889999990900847,0.5116999998917872,0.29459999987283155,0.6245999999090094,0.18879999989764482,0.590599999872483,0.8286999999089588,0.17199999990900867,0.8798999998723749,0.19559999990900868,0.4825999999090084,-0.3436000001268366,0.5944999999090094,0.7811999999090094,-0.25900000012528498,0.13779999990900869,0.6020999999090093,0.8216999998756865,-0.2518000000902219,-0.27100000009099159,0.45509999991133157,-0.505200000090177,0.03149999990900916,0.5283000000185663,-0.6336000000929696,-0.10980000009099093,0.30900000002062097,0.9113999999112951,-0.8300000000909906,-0.915999999978297],"m_Output":0.9999999999438068,"m_LearnRate":0.02,"m_Error":-9.788936781338323e-14,"m_DesiredOutput":0.0,"m_BackPropagatedError":-1.9314980608957126e-23},{"m_Bias":1.0,"m_Inputs":[1.0,1.0,1.0,1.0,1.0,1.0,1.0,1.0,1.0,1.0,1.0,1.0,1.0,1.0,1.0,1.0,1.0,1.0,1.0,1.0,1.0,1.0,1.0,1.0,1.0,1.0,1.0,1.0,1.0,1.0,1.0,1.0,1.0,1.0,1.0,1.0,1.0,1.0,0.8927224278450012,1.0,1.0,0.15785303711891175,1.0,1.0,0.1420639604330063,1.0,1.0,0.13382132351398469,1.0,1.0,0.13124999403953553,1.0,1.0,0.13382132351398469,1.0,1.0,0.1420639604330063,1.0,1.0,0.15785303711891175,1.0,1.0,1.0,1.0,1.0,1.0,1.0,1.0,1.0,1.0,1.0,1.0,1.0,1.0,1.0,1.0,1.0,1.0,1.0,1.0,1.0,1.0,1.0,1.0,1.0,1.0,1.0,1.0,1.0,1.0,1.0,1.0,1.0,1.0,1.0,1.0],"m_Weights":[-0.9718021933630209,0.8979947563391131,0.7354978066369792,0.6280030596433713,0.7570978106977013,0.5456978066369791,0.8658030377699012,-0.17050219334524273,0.35889780663697976,-0.07499701844535282,-0.8337021933452987,-0.3073021933630203,0.2686017223681889,-0.9500021851330163,-0.4600021933630203,-0.14760391522387046,-0.0261021851056202,0.9213978066369791,-0.3127054689919275,-0.5674021850800188,0.3751978066369797,0.9671944695946195,-0.0194021850666512,0.23269780663698012,0.6790944398568096,-0.016002185199585539,-0.5199021933630209,0.7662944298837047,0.258097814933347,-0.7014021893707065,-0.7185055601431905,0.9171978149199812,0.0019978126873905729,0.7958944720913983,0.16739782104615268,0.5845978133533717,-0.07910546584252785,0.9665030439229397,-0.9759021863308068,0.1951978078497881,0.2719030697198413,-0.2274021861576185,-0.5373021897460903,0.8232030026390941,-0.43740228212956586,-0.2376021884143806,0.2262035188812973,-0.01850249216100619,-0.011702188144831897,0.5140035533181463,0.916197442318702,0.3874978120874437,0.22410350113908093,0.7372975078389926,-0.29120218792868898,-0.9390969509873999,-0.08270228212956382,-0.49730218798040268,0.9488030328079672,-0.2269021861576185,0.06559781192053939,-0.9004969956852192,0.5713978136691932,0.06029780663698133,-0.35660219336302026,-0.7510021866466271,0.6905978319681599,0.47269780663697977,-0.11750218731261103,-0.04470216755691072,0.9314978066369791,0.0073978106292974308,0.8972978326910178,0.49209777955629099,0.16069780663697859,-0.3974021672316346,0.5043978066369791,0.15729780663697863,-0.33000216741453178,-0.08330219336301911,0.7577978066369792,0.4984978506115649,-0.22200219336301989,0.7440978066369791,-0.6177021469120392,-0.10600209646535004,-0.30690219336302029,0.26459782915674126,